-1 -2 -4 -3 -2 0 -1 -1 -1 -2 -1 0 -1 -1 -2 -1 -3 -2 0 -1 -1 -1 1 1 0 0 0 -2 -1 0 1 1 0 -1 -1 -1 0 1 0 0 -1 0 0 1 1 -1 -1 -2 -2 -6 -7 1 1 2 2 1 -2 -1 1 4 3 3 0 0 -1 1 0 2 1 1 1 0 0 0 1 0 -1 0 1 1 1 -1 -1 -1 0 3 -1 1 -1 -2 -1 0 0 0 0 -2 -1 -1 -1 -2 -1 -2 -1 0 12 2 -1 -1 -2 0 0 0 -1 -2 -2 -1 0 -2 -2 -4 2 -1 1 0 -2 -4 -5 -4 -2 -3 -2 -3 -1 -2 -2 -2 -3 -2 -2 -2 -1 -3 -2 -2 -2 -1 -1 -1 -2 -2 -1 -2 0 0 -2 -2 -3 -1 0 -1 0 -1 -1 0 0 1 0 -2 -2 -1 -1 0 0 -1 -1 -1 0 -1 0 -2 -1 0 1 0 0 0 0 0 1 0 -4 -18 -3 2 4 3 2 -1 -2 0 2 4 3 2 0 1 0 2 0 1 1 1 0 1 1 -1 -1 0 1 0 1 -1 0 -1 0 0 2 1 -3 0 0 -1 -1 -1 -1 -1 1 0 -1 -1 -2 -2 -1 -1 1 0 12 2 0 0 0 0 -2 -2 -1 0 0 -1 -2 -1 -2 -1 3 -1 0 -1 -1 -3 -4 -5 -4 -4 -3 -1 -1 -1 -3 -3 -3 -1 -2 -1 -1 -3 -1 -1 -1 -2 -2 -3 -1 -1 0 -2 -2 0 0 -1 -2 0 -3 -1 0 1 -2 0 -1 0 1 0 -1 -1 -2 0 1 1 1 -1 -1 -2 0 1 0 -1 0 -1 -1 0 1 0 -1 -2 -6 -13 -1 3 2 2 3 -1 -1 -1 0 2 3 4 0 1 -1 0 0 2 1 1 0 0 0 0 0 1 0 0 0 0 0 0 -1 -1 1 1 0 0 -1 -2 -2 0 1 0 0 -2 -1 -1 -1 -1 -2 -1 0 0 12 1 -1 -2 -1 0 0 -1 -3 -2 0 0 -1 -1 -2 -2 1 0 1 0 -2 -4 -4 -4 -2 -3 -2 -3 -3 -1 -2 -3 -2 -2 -2 -1 -1 -2 -2 -3 -2 -1 -1 -2 -1 -2 -1 -1 0 -1 -2 -1 -3 1 -1 0 -1 -1 -2 1 0 0 0 -1 -2 -1 -1 1 1 -1 0 -1 -1 0 0 0 0 0 0 1 0 -1 0 0 -1 0 -7 -15 -3 2 4 4 2 -1 -1 0 2 4 3 2 0 1 1 2 0 2 0 0 1 1 0 0 -1 0 1 1 1 0 -1 -1 0 2 2 -1 -2 0 0 -1 -1 0 -1 -1 0 0 0 -2 -2 -2 -2 1 0 0 11 0 -1 0 -1 -1 -2 -3 -1 0 0 -1 -1 -2 -2 -1 1 -2 -1 -1 -2 -4 -4 -3 -5 -4 -4 -1 -1 -1 -3 -3 -3 -1 -2 -1 -2 -2 -2 -2 0 -1 -2 -3 -2 0 0 -1 -1 -2 -1 -2 -1 1 -2 -2 -2 0 -1 0 -1 0 0 1 -1 -1 -2 -1 0 1 1 1 0 -1 -1 0 0 0 0 -2 -1 1 1 1 -1 -1 -8 -13 -1 3 3 4 2 0 1 0 0 3 1 3 1 2 1 -1 -1 2 1 1 0 -1 -1 1 0 1 -1 -1 0 0 0 -1 -1 -1 1 0 0 1 -1 -2 -2 0 0 1 0 -2 -1 -2 11 3 -1 0 -2 0 -1 0 -1 -2 -1 -2 -1 0 -3 -1 -2 -1 1 -1 -2 -2 -2 0 1 0 -1 -4 -5 -3 -4 -3 -2 -1 -3 -2 -2 -2 -2 -2 -3 -2 -2 -1 -1 -3 -1 -1 -1 -1 -1 -2 -2 -1 -1 0 -1 -2 -2 0 -2 0 -1 -1 -2 0 0 1 0 0 -2 -2 -1 0 1 0 0 -1 0 0 0 0 -1 0 0 0 1 -1 0 0 -1 0 -8 -12 -2 1 4 4 3 -1 0 0 1 3 2 2 1 2 2 0 0 0 0 2 1 1 -1 -1 0 1 1 0 0 -2 0 0 1 0 1 -1 -1 2 0 0 -2 -2 -2 0 1 -1 -2 -2 -2 -1 -1 -1 0 -2 -1 10 2 0 -1 -2 -1 -1 -1 0 -1 -1 0 -1 -1 1 -2 -3 -2 -1 0 -3 -3 -5 -5 -4 -2 1 -3 -2 -3 -2 -2 -1 -2 -3 -4 -2 0 -1 -1 -2 -2 -2 -1 0 -1 -2 -2 0 -1 -1 0 -1 -2 0 0 0 -2 0 -1 0 1 0 -1 -1 -2 -2 1 1 1 0 -1 -1 0 0 1 0 0 -1 0 0 1 0 -1 -2 -7 -11 -2 2 3 3 3 1 1 0 -1 2 2 2 2 1 2 -1 0 1 2 1 0 1 0 1 1 0 0 0 0 0 1 -1 -1 -1 2 -1 0 0 -2 -2 -1 0 -2 0 -1 -2 -1 -1 -2 -1 -2 -2 -1 0 12 2 0 -2 -2 0 -1 -1 -1 -2 -2 -1 1 0 -2 0 -2 -2 -1 -1 -1 -3 -3 -4 -4 -4 -3 -2 -2 -1 -2 -2 -2 -4 -3 -1 -2 0 -2 -2 -1 -2 1 16 6 -5 -5 -5 -4 -4 -5 -5 -3 -4 -4 -1 -2 -2 0 -2 -5 -4 -4 0 -3 -3 -5 -4 -4 -2 -3 -6 -5 -3 -1 -4 -4 -2 -4 -3 -4 -3 -2 -3 -1 -2 -3 -1 0 -2 -5 -2 0 0 2 2 -2 -2 -3 -4 -1 -2 0 -1 2 -1 0 0 0 -2 -2 -3 -1 0 -1 2 12 0 -3 -5 -4 -3 -2 -3 -2 0 -2 -5 -3 1 -3 -3 -4 -5 -5 -7 -5 -8 -9 -5 -8 -4 -3 -8 -7 -9 -7 -8 -8 -10 -7 -9 -8 -7 -6 -7 -10 -9 -9 -10 -9 -7 -7 -11 -11 -12 -14 -16 -14 -13 -10 -10 -9 -9 -9 -10 -10 -8 -9 -9 -9 -8 -9 -9 -9 -7 -7 -8 -8 -8 -11 -10 -12 -8 -8 -7 -6 -5 -3 -5 -4 -5 -5 -5 -5 -4 -2 -2 -3 -1 -4 -5 -4 -3 -3 -2 -1 -2 -2 -2 -3 -2 -2 -3 -3 -4 -7 -8 -2 -2 2 -2 -3 -2 -4 -2 -1 1 2 -1 -1 -1 -2 -2 -1 -1 -1 -1 -1 -2 -1 -1 0 -2 -3 -3 -3 -2 -3 -4 -4 -4 -4 -3 -5 -4 -4 -6 -5 -6 -4 -7 -5 -4 -6 -2 -3 -6 -6 -7 -8 -6 -7 -6 -6 -7 -7 -8 -7 -7 -7 -7 -7 -7 -7 -6 -6 -6 -5 -2 -6 -9 -9 -9 -8 -5 -5 -4 -9 -8 -8 -7 -7 -7 -7 -5 -7 -6 -7 -11 -9 -10 -8 -6 -7 -6 -6 -5 -4 -6 -5 -3 -5 -4 -6 -5 -6 -7 -8 -7 -6 -3 -4 -4 -3 -4 -5 -6 -4 -3 -2 -2 -4 -4 -4 -4 -4 -4 -4 -4 -4 -4 -4 -4 -4 -4 -4 -6 -15 -9 -7 -5 -3 -2 -2 -4 -5 -6 -6 -3 -3 -3 -5 -3 -4 -4 -5 -4 -3 -4 -3 -5 -4 -5 -4 -6 -6 -4 -3 -4 -5 -4 -4 -4 -3 -5 -4 -4 -3 -2 -4 -2 -4 -4 -5 -4 -4 -3 -4 -2 -2 -2 -4 -4 -6 -5 -3 -3 -4 -4 -4 -4 -5 -4 -4 -5 -5 -4 -4 -2 -1 0 -3 -5 -7 -8 -7 -7 -6 -4 -6 -5 -6 -8 -6 -6 -5 -6 -5 -5 -5 -4 -5 -4 -5 -5 -4 -5 -5 -4 -4 -5 -3 -5 -5 -6 -5 -8 -8 -9 -9 -8 -9 -7 -6 -6 -5 -4 -7 -6 -8 -6 -7 -6 -6 -5 -5 -5 -6 -7 -6 -6 -6 -7 -8 -8 -9 -7 -6 -8 -6 -6 -6 -8 -5 -3 -1 -1 -2 -2 -3 -3 -2 -3 -2 -2 -1 -2 -2 -1 -1 -1 -3 -2 -2 -2 -2 -2 -1 -2 -2 -2 -2 -2 0 1 0 -1 1 -2 -1 -4 -2 -3 0 -1 -2 -2 -3 -3 -3 -2 0 -2 -3 -2 -5 -5 -3 -2 -5 -2 -2 -3 -3 -3 -3 -4 -2 -3 -3 -3 -6 -5 -3 -6 -6 -6 -8 -7 -8 -8 -8 -5 -5 -7 -6 -7 -7 -9 -7 -8 -7 -7 -6 -7 -7 -8 -7 -7 -8 -7 -8 -8 -10 -11 -13 -9 -9 -9 -7 -5 -5 -7 -5 -8 -7 -7 -7 -6 -7 -7 -7 -8 -8 -7 -7 -7 -9 -8 -6 -5 -5 -5 -4 -5 -6 -5 -6 -6 -5 -5 -3 -2 -2 -3 -8 -8 -6 -4 -1 -1 1 -1 -2 -2 -3 -1 -1 -1 -1 -3 -3 -1 -2 -2 -2 -2 -1 1 1 1 6 1 -1 -2 -1 0 -2 -1 0 -1 -5 -4 -4 0 1 -2 -3 -4 -4 -4 -2 -4 -5 -5 -2 -1 -5 -7 -6 -2 -2 -5 -6 -5 -4 -7 -5 -5 -2 -2 -5 -8 -9 -9 -8 -8 -5 -5 -3 -10 -11 -8 -9 -10 -9 -8 -9 -7 -8 -7 -8 -6 -6 -6 -6 -6 -5 -7 -6 -5 -6 -3 -5 -3 -3 -5 -1 -7 -8 -6 -6 -5 -5 -4 -5 -6 -4 -6 -6 -8 -8 -4 -3 -3 -5 -5 -5 -5 -4 -4 -4 -5 -4 -1 1 -4 -2 -5 -5 -5 -18 -8 -5 0 1 1 1 -2 -3 -3 -3 0 1 0 -1 0 0 -2 -1 0 0 0 -1 -1 -1 -1 -1 0 0 -1 -2 -1 2 -2 -2 -1 2 7 3 -1 -1 0 0 1 -1 -2 -4 4 -3 -2 -1 -2 -1 -4 -3 -5 -3 -2 0 8 1 -2 -3 -4 -4 -3 -3 -4 -4 -6 -3 0 -1 -4 -6 -8 -7 -8 -7 -5 -6 -5 -6 -6 -6 -6 -7 -7 -5 -7 -6 -6 -7 -6 -5 -4 -5 -6 -6 -6 -5 -4 -5 -4 -5 -6 -4 -5 -5 -13 -7 -5 -3 -3 -2 -3 -1 -1 -1 -2 -4 -5 -2 -1 -1 -3 -4 -1 -3 -4 -2 -1 -2 -2 0 -1 -2 -2 -1 0 -1 -21 -8 -3 -2 -3 1 4 2 0 -2 -2 2 0 0 -1 2 1 0 0 1 1 1 1 1 0 -1 1 1 0 -1 1 2 -1 0 0 0 2 -1 -1 1 1 0 -2 -1 -1 -1 -1 0 0 0 -1 -1 -1 -3 -2 -1 0 0 -2 -2 -1 -1 -2 -2 -1 -1 -2 -2 1 1 -2 1 -1 -3 -5 -2 -1 -3 -1 -2 -3 -5 -6 -3 -2 -2 -2 -2 -1 -2 -3 -2 -2 -1 -1 -2 0 0 -2 -2 -1 0 -2 -2 0 0 -1 -2 -2 0 -1 -1 -1 1 -1 -1 -2 0 0 0 -1 0 1 -2 -2 0 1 0 0 0 0 -2 -1 0 0 0 0 0 2 0 0 0 -3 -12 4 -1 0 2 4 3 3 1 -1 0 1 1 0 2 2 1 0 0 1 1 0 1 1 1 0 0 1 1 0 -1 0 0 -1 -1 2 0 -1 -1 0 0 -1 -1 -1 -1 -1 -1 0 0 0 -2 -2 -1 -1 -2 -1 13 3 -1 -1 0 0 -2 -1 -1 -2 -2 -1 0 1 2 -2 -2 -5 -4 -3 0 1 0 -3 -3 -4 -3 -4 -3 -1 -2 -2 -2 -2 -1 -3 -2 0 -1 -2 -1 0 -1 -2 -1 -1 -1 -2 -2 -2 -2 -1 -1 -2 1 0 0 -1 1 -1 -2 0 1 1 1 0 0 -1 -1 -1 0 0 0 0 1 -1 -1 -1 0 0 -2 0 0 2 0 -1 -10 -3 -2 0 2 3 1 3 4 2 1 -1 -1 1 1 0 0 1 1 0 1 1 1 -1 -1 1 1 -1 0 1 -1 -1 -1 0 1 1 -3 0 0 -1 -1 0 0 -1 -2 -1 -2 -1 -2 -1 1 12 1 -1 -1 -3 -1 0 0 -2 -1 -1 -1 0 -1 -1 -2 -2 -2 1 4 1 -3 -3 -5 -4 -4 -1 0 -2 -2 -4 -2 -2 -3 -3 -2 -1 -3 -2 -2 -3 -2 -2 -2 -1 -2 -2 -1 -1 -1 -2 -1 0 -1 -2 -1 -1 
-1 0 -2 -2 -2 -1 0 -1 0 0 -1 -1 -2 0 -1 0 -2 -2 0 -1 1 1 0 0 0 0 -1 -1 -1 -1 0 1 1 1 0 -1 -1 0 1 1 0 -1 -2 0 1 1 -1 -2 -3 -7 -6 2 3 2 2 1 -1 1 1 2 2 2 0 2 0 0 -1 0 2 2 2 0 -1 -1 1 2 0 -1 -1 0 1 1 1 -1 0 1 -2 2 0 0 -3 -1 -1 0 2 0 -1 -2 -1 -1 0 0 -1 -1 10 3 1 -1 -2 -1 -1 0 0 -1 0 -1 -1 0 0 -1 2 -1 0 1 0 -1 -3 -4 -4 -2 -1 -1 0 -1 -2 -2 -1 0 -2 -2 -2 -2 0 0 -2 -2 -2 -1 1 0 -1 -2 -1 -2 -1 0 -2 -2 -1 0 1 -1 -1 -2 -1 0 2 1 0 -1 -2 -1 8 1 0 0 -1 -1 0 -1 0 0 0 -1 0 0 0 -1 0 -1 -3 -13 -2 1 3 3 3 0 -2 -2 0 2 2 4 1 1 0 1 0 2 1 1 0 -1 0 0 0 1 0 0 1 1 1 -1 -1 0 2 3 1 1 -1 -1 -1 0 0 0 0 0 0 -1 -1 -1 -1 0 1 1 12 2 -1 -1 -2 0 0 -1 -2 -1 -1 1 0 0 -1 -1 1 1 1 1 0 -2 -3 -3 -2 -4 -3 -2 -1 0 0 -1 -3 -1 -2 0 0 -2 -2 -1 -1 0 -1 -2 -1 -1 1 0 0 -2 -1 -1 -1 1 0 -1 -1 0 0 1 0 0 -1 0 1 -1 -1 -1 0 0 1 0 1 -1 -1 -2 -1 1 1 0 -1 -1 0 1 1 -1 -5 -13 -2 2 2 4 3 0 0 -1 0 1 2 2 0 2 0 0 -1 1 0 2 2 1 0 0 0 1 1 0 -1 0 1 1 1 -1 0 -1 -1 1 1 0 -2 -1 0 0 2 0 0 -2 -2 -2 -1 0 -1 0 9 2 -1 -1 -2 -1 0 0 0 -1 -1 -1 0 1 0 -1 0 -2 -1 1 0 0 -3 -4 -3 -2 -2 -1 -1 -1 -2 -2 -1 -2 -2 -2 -1 -1 0 -1 -2 -1 -2 -1 0 0 -1 -1 0 0 0 0 -3 -1 -1 1 1 0 -3 -1 -1 0 1 1 -1 -1 -2 -1 0 2 1 0 -1 0 1 0 0 0 -1 0 1 0 1 0 -1 0 -4 -12 -3 0 3 4 4 1 -1 -1 -1 2 2 3 1 0 -1 1 0 1 1 0 1 0 0 1 0 0 0 0 1 0 0 -1 -1 0 2 -2 0 0 0 -1 -1 1 -1 -1 0 0 0 1 0 -1 -2 -1 0 1 11 2 -1 -1 -1 0 0 -1 -1 -1 -1 -1 -1 0 -1 -1 0 -1 -1 1 0 -2 -2 -2 -3 -3 -3 -2 -1 0 -1 -1 -2 -1 -2 -1 1 0 -1 -2 0 0 -1 -2 -2 -1 -1 0 0 -1 -2 -3 -1 1 0 0 -2 0 -2 1 -1 1 0 0 -1 -1 -1 0 0 0 0 1 0 0 0 -1 0 1 1 1 -1 0 -1 0 -1 -1 -8 -12 -3 1 4 4 4 0 -2 -1 1 3 2 1 0 1 1 1 0 0 0 1 2 0 -1 -1 0 2 1 1 0 -1 0 0 0 -1 1 0 -1 1 1 0 -1 -1 -2 0 1 1 1 -2 9 2 0 0 -1 -1 -1 0 0 -1 -1 -2 -1 -1 -1 -1 -1 -1 1 -1 1 0 -1 -2 -2 0 0 -1 -2 -4 -5 -4 -2 1 0 -1 -1 -2 -1 0 -2 -1 -3 -2 -1 -1 -1 -1 -1 -1 -1 -1 -2 -1 -1 -1 0 -1 -1 -1 -2 0 1 0 -2 -1 -2 1 1 2 0 -1 -2 -2 0 1 1 1 0 -1 0 1 0 0 0 -1 0 0 1 0 -1 -1 -6 -10 -3 0 2 4 3 2 0 -1 0 2 2 2 1 1 1 1 1 0 0 0 1 2 1 1 -1 -1 1 0 1 0 0 -1 0 0 3 0 0 1 0 0 0 -1 -2 -2 0 0 1 0 -2 -1 -1 0 0 1 -1 8 1 0 -1 0 0 -2 -1 0 0 0 0 0 -1 1 -1 -3 -2 -1 0 -1 0 -3 -4 -4 -5 0 0 0 -1 -1 -2 0 -1 -1 2 -2 -1 -1 0 -1 -1 -1 -2 0 0 0 0 -1 -1 -1 -1 -1 -1 0 -1 -1 -1 0 0 0 -1 0 0 0 -1 -1 -1 1 0 2 1 0 -1 -1 1 1 0 0 -1 -1 1 1 0 -2 -7 -11 -3 2 3 4 3 1 1 0 0 1 1 1 1 1 2 0 -1 -1 1 1 1 1 -1 -1 0 1 2 1 -1 -1 0 0 0 0 2 -2 0 1 0 0 -1 0 -3 0 1 0 0 -1 -2 -2 0 -1 -1 0 10 3 1 -1 -1 -1 0 -1 0 -1 -1 -2 0 1 0 3 -3 -3 -2 0 1 0 -1 -4 -5 -2 -3 0 -1 -2 -1 -1 0 -2 -2 -2 -3 0 0 -1 -1 -1 -1 17 6 -3 -2 -2 -1 -2 -2 -2 -2 -2 -1 1 0 0 2 -1 -3 -2 -2 1 1 -1 -2 -2 -2 -1 -1 -4 -2 -2 0 -2 -1 -1 -2 -2 -2 -2 -1 -2 -1 -2 -2 0 1 -1 -4 -3 -1 1 1 1 0 0 -2 -2 -1 -2 0 -2 2 -2 -1 -1 -1 -2 -2 -2 -3 -1 -2 2 9 -2 -3 -5 -5 -3 -3 -4 -2 -1 -3 -7 -5 0 -4 -2 -4 -5 -2 -6 -4 -6 -8 -3 -5 -4 0 -5 -6 -7 -6 -5 -6 -8 -5 -7 -6 -5 -3 -4 -6 -6 -6 -9 -8 -5 -4 -6 -6 -7 -9 -10 -11 -11 -6 -5 -5 -4 -4 -5 -5 -5 -5 -4 -4 -3 -2 -4 -3 -3 -3 -3 -5 -4 -6 -7 -7 -5 -5 -3 -4 -2 -2 -3 -3 -3 -4 -4 -4 -2 -2 -2 -2 -1 -2 -5 -4 -4 -3 -3 -2 -3 -3 -3 -4 -3 -3 -4 -4 -5 -8 -12 -5 -4 0 -4 -3 -3 -6 -5 -3 -2 -1 -3 -3 -3 -3 -3 -4 -3 -3 -3 -3 -3 -5 -3 -2 -4 -4 -4 -4 -4 -4 -4 -4 -4 -4 -3 -3 -3 -3 -3 -4 -4 -3 -5 -2 -2 -2 1 -1 -2 -2 -5 -4 -3 -3 -3 -2 -2 -2 -3 -3 -3 -3 -3 -3 -3 -3 -1 -1 0 1 3 -1 -3 -4 -5 -4 -1 -1 -2 -4 -5 -3 -3 -3 -3 -4 -3 -4 -4 -5 -8 -6 -7 -7 -5 -5 -5 -5 -4 -3 -5 -5 -3 -5 -5 -6 -5 -6 -7 -10 -10 -6 -4 -5 -5 -4 -5 -5 -7 -6 -5 -3 -5 -4 -5 -5 -5 -5 -5 -4 -5 -4 -4 -5 -5 -5 -4 -4 -5 -14 -8 -7 -5 -3 -1 0 -1 -1 -2 -3 -2 -2 -2 -1 -1 0 -1 -1 -1 -1 0 0 0 0 -1 -1 -1 0 0 2 0 -1 0 0 0 2 -1 0 1 -1 0 0 0 -1 -1 -1 -2 -3 -1 -2 0 0 0 -3 -2 -3 -2 -1 0 -1 -1 -1 -2 -3 -3 -2 -2 -3 -3 -3 0 -1 1 -2 -4 -6 -7 -7 -7 -7 -6 -6 -5 -5 -10 -7 -6 -6 -6 -7 -6 -6 -6 -7 -6 -5 -6 -5 -7 -6 -6 -7 -6 -6 -5 -6 -6 -6 -6 -8 -10 -8 -7 -7 -6 -5 -5 -4 -4 -5 -3 -5 -4 -5 -5 -3 -3 -3 -3 -2 -4 -4 -2 -2 -3 -4 -5 -3 -4 -2 -3 -1 -1 -1 -2 -2 -1 0 1 2 2 2 1 0 0 0 1 2 1 0 1 1 1 0 1 0 0 0 -1 -1 0 0 -1 0 0 0 1 0 -1 -1 -2 -2 -3 -1 -2 -1 -1 -2 -3 -3 -4 -5 -3 -3 -3 -5 -3 -4 -5 -4 -6 -8 -4 -3 -4 -4 -4 -5 -4 -4 -5 -4 -4 -7 -6 -5 -5 -6 -4 -5 -6 -6 -8 -7 -6 -5 -6 -6 -5 -5 -8 -7 -7 -6 -7 -5 -5 -5 -6 -5 -6 -4 -5 -5 -5 -7 -8 -9 -4 -4 -6 -4 -3 -2 -4 -2 -4 -3 -4 -5 -4 -3 -3 -3 -2 -3 -4 -4 -4 -4 -4 -3 -1 -3 -2 0 -1 -2 -2 -1 -1 -1 -2 -1 1 1 1 -4 -5 -4 -2 -1 0 2 1 0 -1 -2 0 -1 -1 0 -2 -2 0 -1 -2 -2 -2 -1 -1 0 1 4 0 -1 -2 -1 -1 -3 -2 -3 -2 -4 -5 -4 -1 -1 -3 -3 -4 -3 -4 -2 -5 -7 -5 -5 -1 -4 -6 -5 -3 -4 -6 -6 -6 -5 -6 -6 -5 -2 -1 -3 -6 -6 -8 -7 -8 -5 -5 -3 -8 -7 -6 -9 -8 -8 -8 -9 2 -6 -5 -7 -4 -5 -4 -4 -3 -4 -4 -5 -4 -4 -2 -3 0 -2 -2 1 -4 -4 -3 -3 -2 -4 -1 -2 -2 -2 -2 -4 -8 -6 -3 -1 0 0 0 -2 -2 -2 -2 -1 -3 -1 0 2 -2 -1 -2 -1 -2 -14 -7 -4 0 1 2 3 0 0 0 -1 1 2 1 1 2 2 0 0 2 0 2 0 0 0 -1 0 1 0 0 -1 -1 1 -1 -1 0 1 5 2 -1 -1 -1 0 0 -2 -3 -3 4 -3 -3 -2 -2 -1 -4 -3 -4 -4 -3 -2 7 -1 -2 -2 -3 -4 -3 -3 -4 -3 -5 -3 0 -1 -1 -3 -4 -5 -6 -5 -4 -3 -4 -3 -3 -4 -4 -4 -4 -3 -4 -4 -3 -6 -4 -3 -1 -3 -3 -4 -3 -3 -2 -2 -1 -2 -3 -2 -5 -3 -12 -7 -2 -2 -4 -2 -3 -1 -1 -1 -1 0 -3 -3 -2 1 -2 -3 -1 -1 -3 -2 -2 -1 -1 -1 -2 -1 0 -1 0 0 -19 -6 -5 -3 -3 0 2 2 3 0 -3 0 0 0 -2 1 2 0 0 1 2 1 0 0 3 0 -1 0 1 0 0 1 1 1 0 0 3 -1 -2 0 0 0 -2 0 -2 0 -1 0 0 1 -1 -1 -1 0 -1 -2 1 1 0 -1 -1 0 0 -1 -1 0 -1 -2 0 1 0 2 -1 -1 -3 -3 -2 0 0 -1 -2 -2 -4 -3 -2 1 -1 -1 -2 -1 -2 -1 -2 -1 0 -2 -2 -1 -1 -1 -2 -1 0 -1 -2 -1 0 0 -1 -2 -2 1 0 1 0 1 -2 -1 0 1 0 -1 0 0 -1 -1 0 1 -1 0 1 0 0 -1 0 1 0 -1 1 0 0 0 -2 -9 -4 -3 -2 1 4 2 3 3 1 0 -1 1 0 1 1 1 1 0 0 0 1 0 0 0 0 0 0 1 1 0 -1 0 1 1 1 -1 0 0 -1 0 0 0 -2 -1 0 -1 -1 0 1 1 -2 -1 0 -1 -1 10 4 1 -1 0 0 -1 0 -1 0 -1 -1 -1 0 3 1 -1 -4 -3 -3 -3 -1 1 -1 -2 -3 -1 0 -3 -2 -1 0 -1 -3 -1 -1 -3 -2 0 -1 -1 -2 1 -1 -1 -2 0 0 -1 -2 -2 0 -2 -3 1 0 1 0 0 0 -1 -1 -1 1 1 -1 0 0 -1 -1 -2 0 1 1 0 0 0 0 -2 0 0 0 -1 0 1 -1 -8 -2 0 -1 0 1 1 2 2 3 2 0 -2 0 1 1 0 1 2 1 0 0 1 1 -1 0 1 2 -1 -1 0 0 -1 -1 1 4 -1 0 0 0 -1 0 0 0 -1 -1 -1 0 0 -1 0 11 2 -1 0 -1 -1 -1 0 0 0 -1 -1 1 -1 -1 -1 -1 -1 0 2 3 0 -2 -4 -3 -4 -2 0 0 -1 -3 -1 -1 -2 -1 -3 0 -1 -2 -2 -2 -1 -1 -2 0 0 0 -1 -1 0 -1 -2 -1 0 -1 -2 0 
-1 -1 -1 -1 -1 0 -1 0 0 1 0 0 -1 -1 -2 1 -1 0 0 -1 0 0 2 0 1 -1 -1 -1 -1 0 -1 -1 1 1 2 -1 -1 0 -1 1 0 0 -1 -1 0 0 0 1 -3 -8 -7 0 3 3 3 0 -1 -1 0 2 1 2 0 1 0 1 0 0 0 2 2 2 0 0 0 0 0 1 1 -1 0 0 2 1 1 2 -2 1 0 1 0 0 -1 -1 2 1 2 0 -1 -2 0 0 1 1 8 1 1 0 0 -1 -1 0 -1 1 1 0 0 -1 1 0 2 0 -1 0 0 1 1 -2 -2 -3 -2 0 1 1 -1 -1 -1 0 0 0 0 -2 -1 0 1 0 -1 -2 0 0 1 -1 0 -1 -1 0 0 1 -1 -2 0 0 0 0 -1 -1 0 1 1 0 -1 -2 8 1 1 1 0 -1 -1 0 1 0 0 -1 0 -1 1 0 1 -1 -4 -11 -1 1 1 3 3 1 0 0 0 1 1 2 2 2 0 0 -1 1 2 2 0 0 0 -1 2 2 2 0 0 -1 2 2 1 -1 0 1 0 1 0 0 -1 0 1 0 2 1 0 -1 -1 -1 0 0 1 0 10 4 1 0 -1 0 0 0 0 -1 -1 0 0 1 1 0 0 -1 0 1 2 1 -1 -2 -2 -2 -3 -1 0 -1 0 1 -1 0 -2 -1 0 -1 0 -1 -1 0 0 0 0 -1 -1 -1 0 0 0 -2 -2 0 0 1 0 1 -2 -1 0 1 1 -1 -1 -1 0 0 0 -1 0 0 1 0 0 0 -1 -1 1 2 0 -1 0 0 2 1 -3 -12 -4 0 2 3 5 1 -2 -2 -2 2 2 2 0 -1 1 2 0 1 0 1 0 2 1 0 -1 0 2 1 0 1 0 0 0 1 2 0 -1 0 1 0 -1 1 -1 0 1 1 2 1 -1 -2 0 0 0 1 8 1 0 0 -1 0 -1 0 0 0 1 0 -1 1 1 1 0 -2 -2 0 1 2 1 -1 -2 -2 -2 -1 -1 0 0 -2 -2 0 1 -1 -1 -2 0 0 0 0 -1 -2 0 1 2 0 0 0 -1 1 -1 1 -1 -1 0 -1 -1 0 -1 -1 0 0 1 0 -1 -1 -1 0 2 1 1 0 0 -1 1 2 0 -1 -1 0 0 0 0 -1 -6 -9 -2 1 2 3 3 2 1 0 -2 1 1 2 1 3 0 0 -1 1 0 1 2 0 -1 0 1 2 1 -1 0 0 2 1 0 1 1 -1 1 2 1 0 -2 0 0 1 1 0 0 0 0 0 -1 0 -1 0 9 3 1 -1 -1 0 0 0 0 0 -1 -1 -1 0 0 0 0 -2 -1 1 1 -1 0 -1 -3 0 -2 0 -1 -1 -1 0 0 -1 -1 -1 0 0 0 0 -1 -1 -1 -1 0 -1 0 0 0 1 0 -1 -2 0 0 1 0 0 -3 -2 -1 1 0 1 1 -1 -1 -1 0 1 1 0 0 0 1 1 -1 -1 0 0 1 0 -1 0 -1 1 -6 -9 -3 -2 1 4 4 2 1 -1 -1 1 1 2 1 1 0 1 1 1 0 0 0 0 0 1 -1 0 0 1 1 0 0 -1 -1 0 2 0 -1 1 0 1 0 -1 -2 -1 0 0 2 1 8 2 0 0 0 1 0 0 -1 -1 1 0 0 0 -2 0 1 0 1 -1 0 1 0 -2 -2 0 -1 1 0 0 -2 -3 -4 -1 0 1 0 -1 0 0 -2 0 -2 -2 0 -1 0 -1 0 -2 0 0 0 0 0 -1 -1 -1 0 2 -1 0 -1 0 -1 1 -1 1 0 1 1 0 -1 -1 -2 0 1 2 0 0 -1 -1 0 0 0 0 -1 0 1 1 0 1 -5 -11 -3 2 2 2 3 2 2 -1 -2 1 1 1 1 2 0 0 0 1 1 1 1 0 1 1 1 0 0 -1 1 0 1 0 0 -1 3 1 1 2 -1 0 0 1 -1 0 -1 0 0 1 0 -1 -1 -2 0 1 1 9 1 0 -1 1 1 0 -1 -1 0 0 1 1 1 2 -1 -1 0 -2 1 0 0 -1 -1 -2 -3 -1 -1 0 1 1 -1 -2 -2 -1 7 0 0 -1 -1 0 1 0 -1 -1 0 0 0 1 0 -1 -1 0 1 1 1 -1 -1 0 -1 1 0 1 1 0 -1 0 -1 0 0 1 1 1 0 -1 0 0 1 1 0 -1 1 0 0 0 -4 -10 -5 -1 2 3 3 1 0 -1 -1 1 2 -1 0 1 1 0 1 0 0 -1 1 2 1 1 0 -1 1 1 1 0 0 0 0 1 2 -1 -1 1 1 1 1 1 -2 -1 0 1 2 1 -1 -1 0 0 1 1 8 1 0 0 0 1 -1 -1 -1 -1 0 0 0 0 0 3 -1 -2 -2 -2 0 1 2 -1 -2 -3 -3 0 1 0 -1 -1 0 -1 0 -1 -2 0 -1 0 0 0 -1 16 5 -2 -1 0 0 -1 0 -1 -1 -3 -2 1 0 1 2 -1 -2 -2 -3 1 0 -1 -2 -1 -2 -1 -2 -4 -2 -1 0 -2 -2 -1 -3 -2 -4 -2 -2 -2 -1 -2 -3 -1 2 -2 -3 -4 -2 -2 0 0 0 -1 -2 -3 -2 -2 -1 -2 1 -2 0 -1 0 -2 -1 -2 -2 0 0 3 9 1 -1 -2 -3 0 0 0 1 2 1 -3 -1 2 0 2 1 1 1 -1 0 -2 -3 1 1 1 3 0 0 -2 0 0 -1 -3 0 -1 -1 0 0 2 -1 -1 -1 -3 -3 -3 -1 -3 -1 -2 -5 -8 -6 -7 -4 -3 -1 -2 -2 -3 -4 -2 -3 -2 -3 -2 -3 -3 -3 -3 -3 -5 -5 -4 -6 -7 -7 -4 -5 -4 -4 -4 -4 -3 -4 -3 -4 -5 -4 -5 -4 -3 -3 -1 -3 -3 -4 -4 -3 -3 -2 -2 -2 -2 -3 -3 -3 -3 -3 -3 -7 -9 -4 -3 2 -1 0 0 -2 -3 0 -2 -1 -1 -1 -1 0 -1 -1 -1 0 0 1 1 1 1 2 1 0 0 0 2 1 0 1 0 0 1 2 1 1 1 1 1 1 0 0 1 2 4 2 2 1 0 -1 -1 -2 -1 0 0 1 -1 -1 0 -1 -1 1 -1 -2 0 0 0 1 3 0 -3 -4 -5 -4 -3 -2 0 -4 -3 -4 -3 -4 -5 -4 -4 -5 -4 -5 -9 -8 -8 -6 -5 -6 -5 -5 -5 -4 -5 -5 -4 -4 -5 -5 -3 -5 -5 -8 -6 -6 -4 -2 -3 -1 -1 -1 -4 -4 -2 -2 -2 -1 -1 0 -1 -2 -1 -1 -1 -1 -1 -2 -2 1 0 1 1 -6 -4 -3 -1 -1 1 3 3 2 2 0 2 0 2 0 1 1 2 1 0 1 1 1 0 1 0 0 0 0 0 1 1 -1 2 -1 0 1 -1 -1 0 -1 -2 -2 -1 -1 -2 -1 -3 -2 -3 -4 -2 -2 0 -3 -3 -3 -3 -2 -1 -2 -3 -3 -3 -4 -3 -3 -4 -4 -4 -4 -2 -4 -1 -2 -1 -5 -8 -8 -7 -7 -6 -6 -7 -6 -6 -5 -6 -4 -5 -5 -4 -3 -3 -5 -3 -3 -3 -4 -3 -3 -3 -1 -1 -1 -3 -1 -2 -2 -3 -2 -3 -2 -3 -1 -1 -2 1 -1 0 0 1 0 0 -1 0 0 0 0 1 0 0 1 0 0 0 -3 -3 -2 -1 0 -2 1 1 0 -1 -2 -2 -1 0 1 0 2 0 0 -1 -1 -1 -2 -2 0 -1 -1 0 -2 -2 -2 -1 -2 -3 -2 -3 -3 -3 -2 -4 -3 -1 -1 -3 -1 -2 -2 -5 -3 -3 -2 -1 -1 -1 -2 -3 -4 -3 -2 -2 -1 -1 -2 -2 -2 -3 -4 -2 0 -1 -2 -2 -1 0 0 0 1 1 -3 -2 0 -1 1 1 0 -1 -2 -2 -3 -1 0 0 -1 -1 -1 -1 -3 -2 0 -2 -1 -1 0 -2 -1 -2 -1 0 -1 -1 -4 -3 -5 0 -1 -2 -1 0 0 -2 0 -2 -1 -2 -1 -1 -1 0 -1 0 -1 -1 -3 -4 -5 -4 -2 0 -1 -1 -1 -1 -2 -3 -2 -3 -4 -5 -3 -1 -1 -1 -5 -5 -5 -4 -2 -1 1 0 -1 -2 -2 -2 -1 -2 -2 -3 -3 -2 -2 -3 -3 -2 -3 -2 -1 -1 2 -1 -1 -1 -1 -1 -2 -1 -1 0 -4 -2 -3 0 1 -3 -1 -1 -2 -1 0 -2 -3 -4 -3 -1 -2 -3 -2 0 0 -2 -2 -2 -1 -3 -2 -2 0 2 0 -2 -3 -6 -4 -4 -2 0 1 -3 -3 -3 -4 -6 -6 -3 -5 -4 -2 -2 -2 0 0 -1 -1 -1 -1 -2 -1 0 0 1 -1 1 1 -1 2 -1 -3 -1 -1 0 -2 0 1 -1 1 0 -3 -7 -6 -2 0 1 1 1 -1 -1 0 -2 -1 -2 -1 1 2 -1 0 -2 -1 -1 -12 -7 -3 -2 -1 1 3 1 1 -1 -3 -1 -1 -2 -2 0 0 -1 -1 0 0 0 -1 0 -1 -1 -2 1 -1 0 -1 -1 1 -2 -1 -1 0 3 2 -1 -1 0 1 1 0 0 -2 5 -2 -2 -1 -1 2 -1 0 -2 -2 -1 0 6 1 0 0 -1 -1 -1 0 -1 -1 -3 -1 0 1 2 1 -1 -1 -2 -3 -3 -2 -1 0 0 0 0 -1 -1 0 -2 -2 -2 0 -2 -1 1 0 -2 -1 -2 -1 -1 0 -1 -1 -1 -1 -3 -2 -10 -5 -3 0 -1 0 -3 1 1 0 -1 1 0 -1 -3 -1 0 -2 -1 -2 0 0 -3 -2 -1 1 -2 -1 0 1 0 0 -15 -3 -4 -4 -4 0 2 0 2 2 -1 -1 -1 0 -1 0 0 1 2 1 0 1 1 -1 0 1 0 -1 1 1 0 0 0 1 1 0 2 0 0 1 0 0 0 0 -2 0 0 0 -1 1 1 0 -2 -1 0 0 0 0 1 0 -1 -1 0 0 0 0 0 -1 0 1 1 4 0 -1 -2 -2 -2 -1 3 1 0 -1 -2 -1 -2 -1 0 1 -1 -2 -1 0 -1 -2 1 0 0 -1 -1 0 0 -1 -1 1 0 0 0 0 0 -1 -3 1 1 1 -1 0 -1 -2 -2 0 2 1 0 0 1 -1 -2 0 0 1 0 0 0 0 -1 1 1 -1 0 -1 0 2 -2 -6 -1 -1 -2 -1 3 2 2 2 2 1 -1 0 1 1 1 1 1 2 0 0 0 1 0 -1 1 1 1 0 0 1 1 0 0 1 3 -1 0 1 0 -1 0 1 0 -1 0 0 0 -1 0 2 0 -1 -2 0 0 8 2 1 1 0 -1 -1 2 0 -1 -1 0 -1 0 3 4 1 -2 -4 -2 -2 0 1 0 1 -1 -1 0 -1 -1 -2 0 1 -1 -2 0 0 0 -2 0 0 0 -2 -1 1 0 -1 0 0 -1 -1 -1 0 -1 0 -1 2 0 0 -1 0 -1 -1 -1 2 1 0 0 0 0 -2 -2 0 2 1 0 0 1 0 0 0 1 1 -1 -1 -1 -5 -1 1 0 -1 -2 1 3 4 3 3 1 -1 0 1 1 1 0 1 2 2 0 1 1 2 0 0 1 1 0 -1 1 1 0 0 2 -1 0 -1 0 2 1 -1 0 1 1 -2 -1 0 0 0 9 3 1 -1 -1 1 -1 -1 0 1 -1 -2 1 1 0 -1 -1 0 0 2 1 2 1 -3 -3 -3 -1 -1 0 2 0 -1 -2 -2 -1 -1 -1 -1 0 -1 -2 -1 1 -1 -1 -1 1 0 -1 -1 0 1 -1 0 0 -1 -1 
1 0 -1 -1 0 1 0 -1 0 0 0 1 0 0 -2 0 0 0 2 -1 -1 -2 0 1 2 1 0 -1 -1 0 0 0 0 -1 1 1 1 0 -1 0 -1 1 0 1 0 -1 0 0 -2 -7 -6 -2 1 3 4 2 -1 -1 -1 0 1 2 0 1 -1 1 0 0 1 0 1 1 1 2 1 0 -1 2 2 1 1 0 0 0 1 2 0 1 0 0 1 1 0 -1 0 1 2 1 0 -1 0 1 1 2 8 2 0 0 0 1 0 -1 0 -1 0 1 1 1 0 0 2 1 1 2 2 1 1 0 0 -2 -2 -2 0 1 1 0 -1 0 -1 0 1 -1 -1 -1 0 1 1 0 0 0 0 0 1 1 -1 0 -2 0 0 0 1 0 -1 -1 0 0 1 -1 0 1 0 -1 -2 -1 -1 1 1 1 0 -1 0 0 1 0 0 -1 0 1 1 1 -2 -9 -4 -1 0 3 3 2 -1 -1 0 2 0 1 0 1 2 1 -1 0 0 1 1 1 1 -1 0 0 1 1 1 -1 -1 1 1 1 2 0 -1 1 1 1 0 1 0 0 1 1 2 1 -1 0 1 0 0 1 8 2 1 0 0 0 0 0 1 1 0 0 -1 1 2 2 1 -2 -2 1 2 3 2 0 -2 -3 -3 0 1 2 0 -1 0 1 0 0 -1 -1 -1 1 0 0 0 0 0 1 1 0 0 1 1 0 -1 -1 -1 1 1 1 0 -1 -1 0 1 1 1 -1 -2 -1 -1 1 0 1 0 -1 1 1 0 0 0 0 0 1 0 -1 0 0 -4 -8 -3 -2 1 1 4 2 1 -2 -2 -1 1 3 0 0 0 0 0 2 0 0 0 0 1 1 0 1 0 0 1 1 1 0 0 0 2 1 -1 1 1 0 0 1 1 -1 -1 0 2 3 1 -1 -1 0 1 2 8 2 0 0 0 1 0 -1 0 -1 1 1 0 1 1 1 0 -2 -2 0 0 1 2 1 0 -1 -3 -1 0 1 1 0 1 -1 0 1 1 0 0 -1 0 1 1 0 -1 0 0 0 2 1 0 -1 -1 1 0 1 1 0 -2 0 0 1 0 -1 1 0 0 0 -1 0 1 0 1 1 0 0 0 0 0 1 -1 -2 -1 1 0 0 -6 -8 -3 -2 1 2 4 2 1 0 -1 0 -1 1 0 2 2 1 0 -1 3 1 2 1 0 0 -1 1 2 1 1 -1 -1 1 1 2 2 -2 -1 1 2 2 1 0 0 0 1 1 1 1 0 0 1 1 0 1 6 3 0 1 1 0 -1 0 0 2 1 -1 0 0 1 2 2 -2 -2 0 1 2 2 1 -2 -2 -3 0 1 1 0 -1 0 1 0 -1 0 -1 0 -1 1 0 0 -1 0 1 1 0 0 0 0 0 1 1 -1 0 0 1 -1 0 -2 0 0 2 1 0 -1 -1 -1 -1 1 2 1 0 1 1 1 0 0 -2 -1 0 1 0 -1 -1 -5 -7 -2 -1 1 1 2 2 2 0 -2 0 -1 1 2 2 0 0 0 1 1 1 0 0 0 2 1 1 0 0 1 1 1 1 0 -1 1 1 0 1 1 0 0 1 0 0 -1 0 1 1 7 2 -1 -1 0 1 2 1 0 -1 0 0 1 0 -2 -2 -1 0 2 1 0 1 -2 -1 0 1 1 2 1 2 -1 -2 -3 -1 -1 1 1 0 1 0 -1 0 1 0 -1 -1 -1 0 1 0 -1 0 -1 1 2 1 -1 -1 -1 -1 0 2 1 1 -1 0 0 0 0 1 0 -1 0 0 -1 0 0 1 2 1 0 -1 -2 -1 1 1 0 -1 -1 0 1 1 -3 -8 -4 -3 0 1 2 2 2 1 0 -1 0 0 1 1 2 0 -1 0 1 3 2 1 0 0 0 2 2 1 0 -1 0 2 1 1 1 1 1 3 0 1 0 -1 0 1 1 0 1 1 0 0 1 -1 -1 0 2 7 3 1 -1 -1 0 1 0 0 0 -1 1 2 2 4 0 -2 -2 0 1 1 1 -1 0 -2 -2 -1 -1 0 0 2 1 1 -1 -1 -2 1 1 0 1 -1 0 0 0 1 -1 0 0 1 0 0 0 -1 -1 1 2 1 0 -1 -1 1 1 1 0 0 -1 -1 -1 0 0 1 0 0 0 -1 0 0 0 0 0 0 1 0 -1 0 -2 -6 -2 -2 0 0 2 2 2 0 -2 -1 1 1 1 1 1 -1 1 0 1 0 1 0 2 1 1 -1 0 0 1 1 1 0 -1 0 4 0 0 1 0 1 2 2 -1 0 0 0 2 1 1 0 0 -2 1 1 7 2 1 -1 0 0 0 0 1 -1 -1 0 1 1 0 4 0 0 -2 -1 0 0 2 0 0 -2 -3 -2 0 0 1 0 0 -1 0 0 0 0 -1 -1 0 1 2 17 3 1 -2 -1 -1 -2 -2 -2 -2 -3 -2 1 1 1 3 0 -2 -2 -2 0 -1 0 -1 0 0 0 -1 -3 -1 -1 1 0 0 0 -2 -1 -1 0 1 -1 0 -2 -1 2 3 1 0 -1 -2 -1 0 2 4 1 2 -1 1 0 1 0 3 1 2 1 2 1 2 2 2 2 1 5 9 2 2 0 1 2 2 1 3 4 3 0 0 3 1 3 2 3 4 1 2 -1 -2 1 1 1 4 1 2 0 1 1 0 -1 1 0 0 -1 1 2 0 0 0 -3 -3 -4 -1 -3 -3 -3 -5 -7 -7 -7 -5 -3 -2 -3 -2 -3 -3 -4 -4 -3 -3 -3 -3 -3 -3 -3 -2 -3 -3 -3 -6 -8 -5 -3 -3 -2 -3 -2 -1 -1 -1 0 0 -1 -1 -1 -1 0 0 2 0 1 0 0 0 2 1 2 1 2 0 2 2 1 1 0 -3 -6 -2 0 4 3 3 3 1 1 3 1 2 2 0 2 2 2 3 2 3 2 3 3 2 1 3 2 2 1 1 3 2 0 2 1 1 1 1 0 1 1 0 0 1 -1 0 -1 0 1 2 1 0 -1 -2 -1 -2 -2 -2 -1 -1 -1 -2 -2 -2 -2 -1 -2 -2 -2 -2 -1 0 3 1 0 -2 -4 -4 -3 -1 0 -2 -2 -3 -1 -2 -2 -1 -2 -2 -1 -2 -5 -5 -3 -3 -1 0 -1 -1 -1 0 -1 0 1 0 0 -1 0 0 -1 -2 1 -1 0 0 2 2 1 2 1 -1 0 0 1 1 2 3 2 0 0 0 0 0 1 0 -1 -1 0 0 0 -3 0 -1 -2 -1 -2 1 0 2 2 0 0 -1 -2 -2 -2 0 0 0 0 -2 0 -2 -1 -1 -2 -1 -1 -2 -2 -2 -1 -2 2 -2 -1 0 -2 -2 0 -2 -2 -2 1 0 0 0 -1 -1 -1 -2 -1 1 2 1 0 -1 -3 -1 0 0 0 0 -1 -1 -1 -1 -1 0 0 -1 1 -2 1 1 3 0 0 -1 -2 -3 -2 -3 0 0 0 1 0 1 1 1 0 1 1 1 1 2 2 0 1 1 2 1 2 2 1 1 0 0 -1 -3 -1 -1 -1 0 -2 -1 -1 -1 -1 -1 1 -1 -1 -1 -2 -2 -2 -2 0 -1 -2 -1 -2 -1 -2 -4 -5 -5 -4 -3 -5 -2 -1 -1 -3 -2 -4 -3 -2 0 -1 0 0 -1 -2 -2 -1 -1 -1 -1 1 0 0 0 -1 -1 0 0 -1 -1 0 0 -1 0 0 1 2 2 1 2 2 2 0 1 1 3 2 3 4 1 1 1 1 2 2 3 3 3 2 2 1 0 0 2 1 3 1 2 2 3 3 4 4 0 -1 0 1 2 3 3 1 0 -2 -1 2 2 1 1 1 0 1 0 -1 0 -1 1 0 0 -1 -1 -2 -1 -1 -1 -2 -4 -5 -5 -1 -3 -4 -2 -1 -1 -2 0 -2 -2 -2 -2 -3 -2 -3 -2 -1 -3 -2 -3 -4 -6 -4 -2 -1 -1 -1 -1 -1 -2 -3 -3 -4 -5 -6 -4 -1 -1 1 -4 -3 -3 -3 -1 -1 2 1 0 0 0 0 0 0 1 -1 -1 1 0 0 0 0 1 0 3 2 5 2 1 2 2 3 1 3 2 3 0 1 0 3 2 1 1 2 1 2 2 1 0 0 0 1 0 0 2 3 2 1 1 1 2 0 0 1 2 3 3 2 0 -1 -2 -3 -1 0 2 0 -1 0 -3 -3 -4 -3 -2 -4 -2 -1 -2 0 -1 -1 -1 -1 0 -2 -1 -1 -2 -1 -2 0 -1 0 1 -3 -3 -2 -2 -1 -2 -1 -1 -1 0 -1 -2 -6 -5 -1 0 -1 0 0 -1 -2 -1 -2 -1 -3 -1 -1 0 -1 -1 -3 -2 -2 -12 -6 -5 -3 -2 2 3 2 0 -1 -1 -1 -1 -1 -1 1 0 -1 0 1 -1 1 0 1 1 0 0 1 1 1 0 0 2 0 1 1 3 4 4 1 0 1 2 3 2 2 0 6 -1 0 1 3 4 1 3 0 0 2 2 6 2 2 2 1 1 1 2 2 0 -2 -1 1 1 1 2 3 0 0 -1 -2 -2 -1 -1 1 0 -1 0 -1 -1 -2 -2 -2 -2 -2 -1 0 -1 -2 -2 -2 -1 0 -1 -1 -1 -2 -1 -1 -3 -10 -2 -1 0 -1 1 -2 -1 0 1 1 0 2 0 0 0 -2 0 0 -2 -1 1 0 -1 -2 1 0 -1 -1 0 0 0 -11 -3 -1 -2 -4 -2 1 2 3 3 0 0 -2 -2 -1 0 1 0 1 1 0 0 2 1 0 1 0 1 0 -1 1 0 0 0 1 1 1 -1 1 1 1 0 0 2 0 -1 0 0 1 0 0 2 0 0 -2 0 1 0 0 1 2 0 -1 1 1 0 0 -1 1 1 1 4 3 0 -1 -1 -2 -2 1 2 2 0 -2 0 -1 1 0 2 1 0 -1 0 -1 0 -1 -1 1 1 -1 0 0 1 -1 0 2 0 0 -1 0 -1 -2 0 0 2 1 0 -1 0 -1 -1 1 2 2 0 0 0 0 -2 0 1 1 -1 -1 1 0 0 0 0 0 -2 0 1 -1 -4 -1 -2 -1 -2 0 1 3 3 2 2 0 0 -2 1 2 0 0 1 1 1 1 1 1 0 -1 0 2 1 -1 -1 2 1 0 1 3 0 -1 1 1 1 0 1 1 1 -1 0 1 0 0 0 2 1 0 -2 0 7 2 0 1 1 1 -1 1 1 0 -1 1 1 0 3 3 2 1 -2 -3 -1 0 1 0 2 1 2 -1 0 0 0 0 1 2 0 -1 -1 0 0 0 1 0 -1 -1 0 1 0 0 0 0 0 0 -2 0 1 -2 0 0 2 0 -1 0 0 0 0 0 2 0 -1 1 -1 -1 -1 1 2 0 0 1 1 1 -1 0 0 0 -2 -2 -4 0 1 1 0 -1 -2 1 3 3 1 0 0 1 0 0 1 1 1 1 1 2 1 0 1 2 1 0 0 1 0 0 1 1 1 2 0 2 1 -1 -1 2 2 1 1 1 0 -1 -1 1 2 7 2 2 0 -2 0 0 0 0 1 -1 0 0 0 1 0 -1 -2 0 3 2 2 3 1 -1 -3 -2 0 -1 0 0 1 0 -2 -1 0 2 -1 -1 1 -1 0 0 1 1 0 0 1 0 0 -1 0 1 0 0 1 1 
1 1 0 -1 0 0 1 2 1 0 0 0 0 2 0 1 -2 -2 1 1 0 0 -1 -1 1 1 1 0 -1 -1 0 0 1 0 1 -1 0 1 0 0 0 0 0 0 1 0 -1 -1 -1 -6 -4 -1 0 0 2 3 2 0 -1 -1 -1 1 0 3 1 0 -1 0 2 2 1 0 0 0 1 1 1 -1 1 -1 2 1 0 0 0 2 1 3 0 1 0 1 0 1 1 1 1 2 1 2 0 0 1 1 7 3 1 0 -1 0 1 1 1 0 0 0 0 1 2 1 1 -1 0 1 2 2 3 1 1 0 -1 -1 0 1 1 2 1 1 0 0 0 0 1 2 0 -1 0 0 1 0 1 -1 0 1 0 0 -1 0 1 0 1 1 -1 -1 -1 1 1 1 0 -1 -1 0 -2 0 0 0 0 1 1 -1 -1 -1 0 0 0 -1 0 0 0 1 -1 -6 -4 -4 -2 2 3 3 0 -1 -1 0 0 2 1 1 0 1 1 1 1 0 0 1 2 1 0 0 1 1 2 1 0 1 0 0 2 3 0 0 0 0 1 2 0 -1 0 0 1 2 1 -1 1 -1 1 3 6 2 1 1 0 1 1 0 -1 1 1 1 1 1 2 2 2 0 -1 0 0 1 3 2 1 -2 -3 -1 1 2 1 2 0 0 0 1 1 0 0 1 1 1 0 -1 0 0 1 1 0 0 0 0 0 1 -1 0 0 2 0 1 -1 0 -1 1 2 1 0 -1 -2 0 1 2 1 0 -1 0 0 1 1 -1 -1 -1 0 1 0 1 -4 -8 -4 -1 -1 0 3 1 1 0 -1 -1 -1 1 1 2 2 0 0 0 1 2 1 0 1 1 0 2 2 0 0 0 1 1 1 -1 1 0 1 2 2 1 0 0 1 1 1 0 1 1 2 1 1 0 0 1 5 2 1 1 0 1 1 1 0 -1 1 0 1 2 3 1 1 -2 0 0 1 1 3 2 2 0 -1 -2 -1 1 1 1 2 1 0 0 1 1 1 -1 0 0 1 1 2 1 0 0 0 1 0 0 -1 1 0 1 1 1 -1 0 0 0 1 1 1 -1 -1 0 0 0 0 -1 1 1 1 0 0 0 -1 0 0 0 0 -1 0 1 -4 -6 -3 -3 -2 1 4 3 2 -1 -1 1 0 0 0 1 1 0 0 1 -1 0 0 1 1 1 -1 0 0 1 1 1 0 0 -1 1 2 7 0 1 1 1 2 1 0 0 0 1 2 3 2 1 0 -1 0 3 6 2 1 1 0 1 1 0 0 1 0 0 1 2 1 2 3 0 -1 -2 0 1 2 3 1 0 -3 -1 1 1 1 0 1 1 1 1 0 1 0 1 1 1 0 -1 -1 0 1 1 1 0 -1 -1 0 1 0 0 0 1 0 0 -1 -1 0 1 0 1 0 -1 -2 -1 0 1 2 1 0 0 0 0 1 0 -1 -1 0 1 0 1 -3 -6 -2 -2 -1 1 2 2 2 2 0 0 0 -1 -1 2 2 1 0 0 1 1 2 1 -1 0 1 1 1 1 0 1 1 2 1 1 1 0 0 2 1 2 0 0 0 1 1 1 1 2 5 2 1 0 0 -1 1 2 1 1 0 -1 1 1 0 0 -1 -1 0 1 3 3 0 -1 -1 -1 1 1 2 3 0 0 -2 0 -1 0 1 0 1 1 -1 -1 -1 0 0 0 0 0 0 0 1 1 -1 0 0 1 1 0 -1 0 -1 1 2 2 -1 0 -1 0 0 2 2 -1 0 0 0 1 0 1 0 0 1 1 0 0 0 1 1 0 0 0 -1 2 0 -4 -2 -3 -2 0 1 3 2 1 0 1 -1 -2 -1 1 1 0 1 1 0 0 2 2 1 -1 -1 0 2 2 2 0 -1 1 1 1 2 0 0 1 2 3 1 1 -1 0 0 2 1 1 0 1 1 0 1 0 1 6 3 2 0 1 0 0 1 1 1 0 0 0 2 4 2 -1 -2 -2 0 2 4 3 1 -1 -2 0 1 0 0 0 0 1 0 0 -4 -1 1 1 1 0 0 -1 0 1 1 1 0 0 0 0 0 0 0 0 0 1 1 1 -1 0 -1 1 2 2 0 0 -1 0 1 1 0 0 -1 -1 1 0 0 -1 -1 0 1 0 1 0 -1 -4 -2 -1 -2 -1 0 1 3 3 0 -1 -2 -2 0 2 2 0 -1 0 1 1 2 0 0 0 0 1 1 1 0 0 1 1 0 1 2 0 1 2 1 1 1 2 0 0 0 0 1 0 2 1 1 -1 0 0 6 2 1 1 -1 -1 0 1 2 0 -1 -1 1 2 2 4 2 -1 -2 -1 1 1 2 1 1 0 -1 -1 0 -1 1 2 2 -1 -1 0 0 1 1 1 0 0 1 17 2 -2 -2 -2 -1 -2 -1 -2 -1 -2 -2 0 0 0 3 0 -1 -1 -2 -1 -1 0 0 2 0 1 1 -1 -1 0 2 1 0 2 -1 0 0 0 1 -1 0 -1 -2 0 2 1 0 -2 -1 -1 -1 3 2 3 2 1 1 0 1 0 2 1 0 1 1 1 2 1 1 2 3 5 7 3 2 1 1 2 2 1 2 3 3 -1 -2 2 1 2 1 2 3 1 1 -1 1 2 3 1 4 2 3 1 1 3 0 0 2 0 0 1 2 4 3 2 2 0 -2 -3 -1 -1 -1 0 -2 -4 -3 -3 -1 0 1 2 2 2 3 2 3 2 0 2 2 1 2 2 4 3 2 2 1 0 2 3 2 2 1 0 2 1 2 3 2 2 2 2 1 1 2 5 1 4 2 2 1 2 2 1 2 1 0 -1 0 1 1 -1 -3 -4 -3 -2 0 0 1 2 1 0 1 0 -1 -1 0 0 -1 0 0 0 0 1 1 -1 0 -1 1 -1 -1 0 -1 0 0 -1 0 -1 -1 0 -1 0 0 -1 0 0 1 0 0 -1 0 -1 1 1 2 1 0 0 -1 -1 0 0 3 1 1 1 1 2 1 2 2 2 1 2 4 5 4 5 3 0 1 0 2 3 2 3 3 4 2 3 3 3 2 3 3 -2 0 2 1 2 2 3 3 1 2 2 2 3 1 2 1 0 0 -1 -1 0 -2 -1 -1 -1 1 1 1 0 0 -1 -1 -1 -1 0 0 1 -1 -1 -1 -2 -2 0 -2 -2 -3 -1 -1 -1 -3 -2 -2 -3 -3 -2 -2 -1 1 1 0 0 -2 -1 -1 0 0 0 1 0 0 1 1 0 1 1 1 1 1 0 2 2 2 0 2 3 5 2 3 2 4 3 2 4 4 3 3 3 2 4 2 1 3 5 5 4 3 2 3 3 3 4 3 2 2 3 4 3 4 4 3 5 2 3 3 5 6 2 3 0 -1 -2 -2 0 2 0 2 1 2 0 -1 1 1 0 0 0 0 0 -2 0 1 0 -1 0 0 -2 -1 -1 -2 -2 -4 -3 -2 -1 -1 -1 -3 -3 -3 -1 -1 0 -1 -1 -2 -1 -2 -2 -1 0 -1 -1 0 0 0 -1 -3 -4 -2 -1 -1 -2 0 2 2 1 2 1 -1 1 1 2 3 2 4 3 3 3 3 2 3 4 3 3 3 4 1 4 2 3 3 4 4 2 3 3 3 5 5 3 2 3 3 2 2 0 3 2 3 4 3 2 0 1 1 0 2 2 2 1 2 1 3 -1 1 0 1 0 0 -1 1 1 3 1 0 -1 -1 -2 0 0 2 2 1 -1 -2 -1 -1 -1 0 0 -2 -2 -2 -2 -1 -1 -1 0 -1 0 -1 -1 -2 0 0 -1 -3 -5 -4 -1 -1 -1 0 0 1 0 2 0 1 0 0 0 -1 -1 1 1 0 2 -1 -2 -3 -1 0 1 2 1 2 1 2 2 2 2 1 -1 -1 0 2 3 0 2 0 0 -1 0 2 3 3 3 2 3 2 1 2 1 1 2 2 2 1 2 2 3 4 3 3 3 1 1 2 1 0 1 1 2 1 1 0 3 2 -1 1 0 1 1 4 1 0 0 -1 1 1 0 1 2 0 0 -1 0 1 0 -1 0 2 2 3 4 2 0 0 -2 -1 -1 1 -1 1 2 -1 -4 -5 -2 0 -2 -1 -1 -1 0 -1 -1 0 -1 0 -2 -2 -1 -2 0 -1 2 2 0 3 0 0 0 -1 0 0 -1 0 0 2 0 0 -5 -3 -1 0 1 1 2 1 1 0 0 -1 -1 -1 0 1 0 1 -2 0 1 -7 -2 -2 -1 -2 0 2 3 3 4 1 2 0 0 1 2 2 2 2 1 2 3 1 2 2 1 2 4 2 2 1 2 3 2 2 3 4 4 4 1 1 1 2 3 2 2 0 7 0 -1 0 1 3 1 2 0 -1 1 1 4 1 1 0 0 0 0 1 1 1 -1 -1 1 1 1 2 2 2 2 0 -1 -2 -1 -1 0 1 1 0 0 0 -1 0 0 0 0 0 2 0 0 -1 1 0 1 0 1 1 0 1 -1 -1 -10 -1 0 1 0 2 -1 0 0 0 2 1 1 1 1 1 -1 -2 0 0 1 -1 0 0 0 1 -1 1 0 -2 0 1 -5 -2 0 0 -3 -3 0 1 2 2 1 2 0 -2 -2 1 1 0 0 1 1 0 0 1 1 -1 -1 2 1 0 -1 2 1 0 0 0 3 0 0 2 2 0 -1 1 0 1 0 -1 0 1 1 1 2 1 -1 -2 1 2 1 1 1 1 1 0 1 1 0 -1 0 2 1 3 4 4 0 -1 -2 -2 0 1 3 3 1 0 0 1 0 0 1 2 0 -1 0 1 1 -1 1 2 1 -1 0 1 0 -1 0 1 1 -1 -2 -1 0 0 -1 1 1 1 0 -1 -1 -1 -1 0 2 2 -1 0 -1 -1 -2 0 2 0 -1 1 1 1 0 -1 0 0 0 -1 -1 -1 1 0 -1 0 0 -2 1 3 2 1 2 1 0 -1 1 1 1 0 0 2 1 1 0 1 1 0 1 1 1 -1 0 1 1 0 1 1 1 1 0 1 1 0 1 1 1 -1 1 1 2 1 0 2 2 1 -2 4 2 1 0 0 2 1 0 1 2 0 0 -1 0 4 3 2 2 1 -3 -4 -1 1 1 2 1 2 0 -1 -1 1 2 0 0 1 1 0 1 1 0 0 1 1 1 0 0 1 1 -1 0 0 1 -1 -2 0 1 0 -1 1 1 0 0 -1 0 1 0 1 2 2 -1 -1 0 0 0 1 0 1 -1 -1 2 0 0 0 0 -2 -4 -4 1 2 1 0 -1 -2 -2 1 4 3 1 -1 1 0 0 -1 1 2 1 1 1 2 1 -1 1 1 1 0 0 1 1 0 0 1 3 0 0 1 0 0 0 1 1 1 1 1 1 -1 -1 2 6 2 2 2 0 0 0 1 0 -1 0 1 2 0 0 2 1 -1 -1 3 1 2 2 2 3 -2 -2 -1 -1 2 1 2 3 0 -1 -1 1 1 0 0 1 1 0 -1 1 1 0 0 0 0 0 1 0 1 -2 -2 1 
-1 0 3 1 -1 0 0 0 0 1 1 0 0 0 -1 1 -1 0 0 0 0 0 0 -1 -1 0 1 1 0 -1 -2 -1 0 0 1 -1 0 -1 0 1 0 -1 -1 -2 0 0 0 1 -2 -7 -4 -2 -3 0 1 0 1 1 -1 -1 -2 -1 -2 0 0 1 -2 -1 0 1 0 0 0 -1 0 0 1 0 1 -1 0 0 1 0 0 -1 -1 1 2 2 2 1 -1 -1 1 1 2 1 1 0 1 1 0 0 3 1 2 2 1 0 0 0 1 1 0 0 0 1 3 3 3 1 -1 0 0 3 3 3 2 1 -1 0 1 1 1 1 2 3 0 0 0 -1 0 2 1 1 0 0 0 1 1 1 0 0 -1 2 -1 0 -1 -1 0 1 0 -1 -2 -1 0 1 1 0 -1 -2 -3 0 -1 0 0 0 0 0 0 -1 0 -1 -1 0 -1 -1 0 0 -1 -4 -4 -3 -3 -2 1 1 2 0 -1 -2 -2 -1 1 1 0 -1 -2 1 1 1 -1 -1 -1 0 0 1 1 0 0 0 1 2 1 -1 1 0 0 1 1 1 0 0 1 0 1 0 1 1 2 2 0 -1 0 1 5 2 2 0 -1 0 1 1 0 1 0 1 1 3 2 1 2 0 0 0 1 1 2 3 3 2 -2 -1 -1 1 2 2 1 1 1 1 1 1 0 0 0 2 1 1 -1 0 0 1 1 1 1 -2 -1 0 0 0 1 0 -1 0 -1 1 -1 -1 1 0 0 -1 -1 -2 -2 0 1 1 0 0 -2 0 0 0 -1 -3 -3 -1 1 1 -3 -5 -4 -2 -2 0 1 1 1 -1 -2 -1 -1 0 -1 -1 0 0 -1 0 -1 0 1 1 1 0 0 0 1 0 0 0 0 0 1 0 1 -1 -1 1 2 2 1 1 0 -1 1 1 2 1 1 1 1 1 1 1 3 1 2 2 1 1 0 1 1 1 1 0 -1 1 2 2 3 0 -2 -1 0 2 4 2 2 1 0 0 0 1 0 1 2 2 1 0 -1 0 1 1 1 0 -1 0 1 2 1 0 0 0 0 1 0 0 -1 0 0 2 0 1 -2 -1 -1 1 1 1 -1 -1 -2 -1 1 -1 -1 1 0 0 0 0 0 -1 -1 0 0 -1 -1 -2 -4 -3 -2 -4 -4 -3 2 1 2 -1 -2 -2 -2 -1 -1 0 0 -1 0 0 0 0 0 -1 0 0 1 1 0 -1 1 0 2 1 0 0 1 10 2 2 2 1 1 2 1 1 0 0 0 1 2 2 1 0 -1 1 4 2 1 1 0 1 1 1 0 0 1 0 0 1 2 4 2 -1 0 1 1 1 1 4 3 3 0 -1 -1 0 2 2 3 2 0 0 1 1 1 0 1 0 1 0 0 0 0 0 1 1 0 -1 -1 0 0 0 0 1 -1 0 -1 1 -1 -1 0 0 0 -1 -1 -1 -1 0 0 1 1 0 -2 -1 -1 0 0 0 -2 -1 -1 1 -1 -3 -3 -4 -3 0 1 1 1 0 -1 0 -1 -1 -1 -1 0 1 0 0 -1 -1 0 1 0 0 -1 0 0 1 1 0 0 0 0 1 2 0 0 1 1 2 2 1 0 0 0 1 2 2 3 1 0 1 0 -1 0 0 1 2 1 0 0 0 0 1 1 0 1 0 2 5 3 2 0 -2 -1 1 3 4 2 0 0 0 1 1 2 1 1 1 0 1 0 0 0 1 1 1 0 -1 0 0 -1 0 -1 0 1 1 1 0 -1 0 0 2 1 1 -2 -1 0 0 2 1 -1 -1 -1 -1 0 1 0 0 -1 1 -1 0 0 -1 -1 -1 0 0 0 0 -2 -2 0 -3 -3 -3 -1 1 2 0 -2 -1 -2 0 0 -1 0 0 1 1 0 0 -1 0 1 0 0 0 0 0 1 0 0 0 -1 -1 2 1 1 1 0 2 2 2 0 0 0 -1 1 1 2 1 1 -1 2 1 2 4 1 1 1 0 0 1 0 1 1 1 1 1 1 3 3 2 0 -2 -1 1 2 3 2 1 -1 -1 0 2 3 2 0 1 0 1 -1 1 0 0 0 1 1 1 -1 1 0 0 0 1 -1 0 1 0 0 1 1 0 0 0 0 -1 0 0 0 1 1 0 -2 -2 -2 0 0 1 0 -1 0 -1 0 0 -1 -2 0 -2 0 0 -1 -2 -2 -3 -2 -2 -1 -1 1 1 1 -1 -1 -3 -2 0 1 1 0 -1 -1 0 1 2 1 0 -2 -1 1 1 0 -1 0 1 0 1 2 0 0 0 1 2 2 2 0 0 0 0 1 1 1 1 1 0 1 0 2 1 2 2 0 0 0 0 1 1 1 0 0 1 2 5 4 2 0 -2 0 2 3 2 2 1 0 1 1 0 1 1 3 2 1 -1 -1 0 1 2 1 1 0 17 4 3 2 3 3 2 1 2 2 0 1 2 3 3 4 4 2 2 1 2 1 2 3 4 3 3 2 0 1 1 4 3 2 2 1 1 1 1 2 1 1 -2 -1 0 2 3 2 0 -1 -1 -1 0 1 1 2 0 1 0 -1 -1 2 1 1 0 1 2 1 1 0 2 2 3 6 3 2 1 1 1 2 2 3 5 5 4 2 5 5 5 4 6 6 6 7 4 3 6 6 5 8 7 6 5 5 6 6 6 7 5 6 6 6 9 9 9 10 9 6 3 5 5 6 7 5 6 6 4 6 5 6 6 6 5 5 5 5 5 5 4 5 5 4 4 4 4 3 2 0 1 3 2 2 2 2 1 3 2 2 2 3 3 1 1 0 0 1 4 1 2 2 2 0 1 1 1 2 2 1 0 2 1 1 0 -1 -2 -2 -2 1 0 2 3 2 2 1 1 0 0 1 2 2 3 2 2 1 1 2 2 2 1 3 2 2 3 2 2 4 3 2 4 4 5 4 5 6 4 5 6 7 5 6 6 5 5 7 5 6 6 7 7 5 5 5 5 7 6 6 6 6 7 7 8 7 7 5 5 9 8 8 8 8 6 4 3 4 5 4 5 5 5 5 5 4 4 3 4 4 1 2 2 2 3 3 3 2 1 1 2 2 2 2 2 1 2 1 -1 -2 1 1 2 0 1 2 2 2 1 2 0 1 2 1 2 3 3 2 2 2 2 2 2 1 1 2 1 4 2 2 3 3 2 1 2 1 3 5 4 5 4 4 4 2 4 4 4 4 5 4 4 4 4 4 5 4 4 6 5 5 3 4 4 5 5 6 3 5 4 4 4 4 4 5 5 5 4 4 4 3 3 3 4 4 5 5 3 3 3 4 4 4 4 3 4 4 3 4 6 3 5 2 4 3 4 5 4 5 0 0 -2 -2 -1 2 2 3 3 3 2 2 2 2 3 2 1 1 2 1 2 2 3 2 2 2 2 3 3 3 2 2 2 4 4 3 4 3 2 3 3 3 5 3 5 3 3 3 3 4 4 4 3 5 4 3 4 4 2 2 3 3 1 2 4 4 3 6 3 2 1 2 3 3 4 4 3 2 2 2 2 2 3 4 3 2 3 2 2 2 3 2 2 1 2 1 1 3 2 4 2 3 2 2 1 1 0 2 2 2 4 4 3 1 3 2 2 3 3 3 2 4 4 7 1 4 3 3 2 2 2 3 4 7 7 5 4 3 2 4 6 7 6 7 5 3 4 5 3 4 4 4 3 5 4 4 4 5 4 4 4 4 5 4 5 4 3 4 2 4 5 6 6 5 5 4 3 5 5 5 4 4 3 2 3 3 5 4 4 3 2 1 2 2 4 3 3 3 2 2 3 4 2 1 1 -1 -1 0 2 -1 3 2 1 0 0 1 2 2 1 2 2 1 1 1 0 1 1 1 1 1 0 1 1 1 2 2 1 0 1 2 1 0 2 1 3 1 2 2 4 3 1 1 2 3 2 4 4 3 3 -1 2 3 3 3 4 3 1 3 3 3 3 3 4 2 3 5 5 6 5 3 1 2 3 4 3 4 5 1 0 1 3 3 2 2 3 2 3 2 3 2 2 2 1 2 3 2 4 2 4 3 3 5 2 2 3 3 3 0 1 2 3 4 2 2 -2 1 1 1 3 3 4 2 3 2 1 1 0 1 2 2 0 1 -1 1 1 -2 0 -2 -1 -3 -1 0 1 3 2 1 1 0 -1 -1 0 1 1 1 1 1 1 0 2 0 1 1 1 1 1 0 1 2 0 0 1 2 1 1 1 -1 1 0 2 1 2 2 7 1 0 0 1 4 3 3 2 2 3 3 5 2 3 2 2 2 2 3 3 4 2 2 3 3 3 3 5 5 5 4 3 2 1 3 3 4 4 4 4 3 3 2 3 2 2 3 3 3 2 1 2 2 2 2 3 3 2 3 0 1 -7 0 1 3 2 1 0 1 1 0 0 2 2 0 1 1 0 -1 0 0 1 1 0 -1 1 1 0 0 2 0 -1 -1 -4 0 0 -1 -3 -1 -2 -2 1 3 2 0 0 -1 -3 -1 0 0 0 0 0 0 1 0 1 0 -1 -1 0 0 0 0 1 1 0 -1 1 1 2 0 1 2 0 1 0 1 1 0 -2 0 1 1 0 2 1 0 -1 0 1 0 1 1 1 1 -1 1 2 0 0 0 1 3 3 4 3 1 -1 -1 1 1 2 2 2 2 0 1 1 2 0 0 2 1 -1 -1 1 0 0 1 1 1 0 0 0 1 -1 0 0 1 0 -1 -1 0 0 0 -1 2 0 0 -2 0 0 -1 -1 1 1 -1 -1 -1 -1 -1 0 0 0 -1 0 0 1 -1 -1 0 -1 -1 -4 -2 8 0 -2 -3 -1 -2 -2 0 2 1 -1 0 -1 -1 -1 0 0 1 -1 -1 0 1 -1 0 2 0 0 0 1 1 0 0 1 1 2 0 1 1 0 0 1 1 1 1 1 1 0 -1 0 3 0 1 1 1 0 2 0 2 1 1 0 1 2 1 0 1 1 -1 -1 4 3 4 3 3 3 0 -2 0 0 2 2 2 2 1 0 0 2 2 0 1 2 -1 0 0 1 1 0 0 2 0 -1 -1 1 1 -1 -1 1 1 -1 -1 -1 1 -1 0 1 1 0 -1 -1 0 -1 0 0 1 1 -1 -1 0 0 -1 -1 0 0 -1 -1 0 1 -1 -2 -3 -3 -5 -1 2 1 0 -1 -2 -2 -2 0 2 2 -1 0 0 0 -1 -2 0 1 1 -2 1 0 0 0 0 1 0 0 -1 0 1 0 0 2 1 0 1 1 0 -1 0 1 2 2 1 1 1 -1 0 3 2 1 1 1 0 -1 -1 1 1 0 0 1 2 0 1 1 1 1 1 1 3 4 2 2 1 0 -2 -2 2 1 2 2 1 1 0 1 1 2 1 0 2 2 0 0 0 2 1 -1 0 1 0 0 0 1 -1 -1 
0 0 8 0 1 1 0 1 0 1 1 2 1 0 -1 1 0 0 2 0 0 0 1 0 0 -1 0 0 0 1 -1 -2 -2 0 1 1 1 0 -2 -2 0 0 0 -1 -2 -2 -1 1 1 -6 -3 -4 -3 -2 -1 1 1 0 -1 0 -2 -1 -2 0 0 0 -1 1 -1 0 1 1 0 0 0 0 0 1 1 1 0 0 0 0 1 0 -1 1 0 1 2 2 0 0 0 1 3 3 2 1 2 0 0 2 3 1 1 1 1 1 1 0 0 0 1 1 2 0 2 1 4 2 0 0 -1 1 5 4 4 2 0 -1 1 2 2 1 2 1 2 1 2 1 0 0 1 1 2 0 0 -1 1 2 2 1 0 1 0 0 0 -1 -1 0 1 1 0 -2 -1 -1 2 2 0 0 -2 -1 0 0 0 1 0 0 0 -1 1 -1 -1 -1 0 -1 1 1 -1 -2 -2 -2 -3 -2 0 -1 1 1 -1 -2 -2 -2 0 1 1 1 0 0 0 1 0 1 0 -1 0 1 1 0 0 -1 -1 1 1 1 1 1 0 1 1 2 1 1 0 1 1 0 2 1 2 2 1 0 1 1 1 2 2 2 0 1 0 2 2 1 1 0 0 2 3 2 4 3 1 1 2 3 3 3 3 2 1 0 1 0 1 2 2 3 2 2 1 0 1 2 0 1 0 0 1 0 0 0 1 2 2 0 -1 0 -1 1 1 2 0 1 0 -1 0 1 0 -1 1 0 0 -1 -1 -1 -1 1 1 1 -1 -1 -1 0 0 0 -2 -2 -1 0 -1 -1 -2 -2 -3 -3 0 1 1 0 -1 -1 -1 0 -1 1 0 0 0 0 0 0 -1 0 1 1 0 1 0 1 1 2 0 0 0 1 2 1 0 1 0 1 2 2 1 0 -1 0 3 3 2 0 1 1 1 2 2 1 1 2 2 2 1 1 0 1 2 1 1 1 1 2 5 3 0 -1 0 1 4 4 4 2 0 0 1 1 1 1 1 0 1 2 2 0 1 0 2 1 1 0 1 0 2 1 1 0 0 1 0 2 0 0 0 0 0 1 -1 -2 0 -1 1 1 1 1 -1 -3 0 0 1 1 1 -1 -1 1 0 0 -1 -1 -1 1 0 -1 -3 -1 -1 -2 -3 -3 -2 0 1 1 0 0 -2 -1 -1 0 1 0 -1 0 0 0 1 0 -1 -1 0 1 1 0 0 -1 0 1 1 1 1 -1 1 2 2 2 2 1 1 1 1 1 0 0 2 3 2 2 0 1 2 1 1 2 1 0 1 1 2 2 1 0 0 0 1 4 4 2 0 0 0 2 3 3 2 3 1 1 2 0 1 1 3 3 2 0 0 1 1 1 2 0 0 1 0 2 2 0 0 2 2 0 1 0 -1 0 0 3 1 0 -1 0 -1 1 0 0 0 -1 1 0 -1 0 -1 0 1 2 0 0 -1 -1 1 1 0 -1 -1 0 0 -1 0 -2 -3 -2 -1 -1 1 1 0 -1 -1 -1 -1 0 -1 0 1 1 0 -1 0 -1 0 1 1 0 0 0 1 1 2 1 0 -1 2 2 1 1 0 1 1 2 2 0 0 0 1 2 3 2 0 0 0 0 0 0 1 1 2 1 1 0 -1 1 1 1 2 1 2 4 4 4 2 0 -1 -1 2 4 3 3 1 0 1 1 2 3 2 1 1 2 0 0 0 0 1 1 2 0 0 0 1 2 1 1 1 0 -1 0 1 0 0 0 0 1 -1 0 -2 0 0 1 1 1 -2 -1 -1 0 1 1 0 0 -1 -1 0 0 -1 -1 -1 -1 1 1 -1 -1 -1 -2 -2 -2 -3 -2 2 2 1 -1 -2 -1 0 1 0 -1 0 0 0 1 1 0 -1 0 0 1 0 0 0 0 1 2 1 0 1 0 2 2 1 1 2 2 2 1 0 0 0 1 2 2 2 0 1 0 1 3 1 1 0 1 1 1 1 2 0 0 1 2 2 3 4 3 3 -1 1 0 1 2 4 3 0 1 0 1 2 2 2 2 1 0 -1 2 2 1 0 0 1 1 1 1 0 0 1 2 0 -1 -1 -1 0 1 2 1 0 0 0 0 -1 1 0 1 0 1 0 0 -1 -1 -1 1 2 0 -1 -1 -1 0 0 -1 -1 -2 -1 -1 -1 2 0 -2 -4 -3 -1 -1 1 1 0 -1 -1 -1 -1 -1 0 -1 1 1 0 0 0 1 1 2 0 0 0 0 1 0 0 -1 0 1 2 1 0 1 0 1 2 3 0 1 -1 0 2 1 2 1 1 1 1 1 2 0 0 1 1 2 1 0 0 1 1 1 1 2 2 4 5 4 3 -1 -1 0 3 3 4 2 1 2 2 1 1 2 2 0 1 0 1 0 0 0 2 3 1 17 3 2 2 2 2 1 2 1 1 0 0 2 2 1 3 2 2 2 0 1 0 1 3 3 3 4 3 1 1 1 3 2 2 4 0 1 1 2 3 1 0 -2 -1 0 2 2 4 2 3 1 0 0 1 2 3 1 2 1 3 1 3 2 3 1 3 3 3 3 3 4 4 6 5 5 5 4 5 6 6 4 6 7 8 7 5 6 6 7 6 8 9 8 10 6 7 9 8 8 8 8 9 8 8 8 8 8 9 9 9 7 8 10 9 10 11 10 10 6 5 6 6 10 8 8 7 6 5 6 6 5 6 5 5 5 5 4 4 3 5 3 3 4 3 3 3 2 0 1 2 3 3 4 2 2 1 2 2 3 2 3 2 2 2 3 2 5 3 4 4 3 2 3 4 3 4 3 3 4 4 3 4 3 3 4 2 2 2 2 3 6 6 5 6 5 3 3 2 5 4 5 5 5 4 5 5 6 6 5 5 6 5 5 5 6 7 6 7 6 5 6 6 6 6 6 5 6 7 7 6 6 6 5 6 6 6 6 5 6 5 4 5 5 5 5 6 5 6 5 6 5 6 5 4 5 5 5 5 6 7 6 4 3 3 3 4 5 5 5 6 5 5 6 4 6 3 2 4 4 4 6 5 3 3 5 5 4 6 6 5 5 3 5 6 3 5 7 5 6 5 4 5 7 7 7 7 5 5 5 5 5 5 6 6 5 4 4 5 5 5 5 4 3 5 6 4 5 6 4 4 2 1 1 4 5 4 5 4 2 2 2 3 3 2 3 3 3 4 3 3 1 2 3 2 2 2 2 2 2 2 2 3 3 4 3 4 3 3 2 4 4 4 4 4 3 3 1 1 3 3 4 4 3 3 4 3 3 4 3 3 3 4 4 5 5 4 5 4 6 5 5 5 8 8 7 5 4 2 5 7 7 6 7 8 6 7 6 7 7 6 6 6 6 7 6 6 6 6 8 7 6 6 7 6 5 4 5 6 6 6 6 6 5 3 3 4 5 5 6 5 4 2 2 3 3 3 2 4 3 3 2 3 3 3 1 1 -2 0 2 2 3 2 2 0 -1 -1 0 1 1 2 2 1 1 1 -1 0 2 1 1 1 2 1 1 2 0 0 1 1 1 2 1 3 3 3 2 4 4 5 5 3 4 4 4 5 5 7 6 5 7 5 5 6 6 6 6 8 8 5 6 7 6 6 7 6 6 6 8 11 11 10 9 9 6 7 7 9 8 9 8 6 8 8 6 7 8 9 6 8 7 6 5 6 6 6 5 7 6 5 6 6 4 4 4 4 6 3 5 5 4 3 2 5 3 5 4 4 3 2 2 2 3 3 2 2 0 1 2 1 3 1 2 3 2 1 0 0 -1 -2 0 -2 -1 -2 -1 0 2 2 1 2 1 1 0 1 2 1 1 1 2 2 1 1 2 1 1 3 1 2 3 3 4 2 3 3 3 3 4 3 4 3 5 4 4 5 6 5 4 4 4 5 5 6 6 7 5 2 4 5 5 5 7 8 5 6 5 7 6 5 6 5 5 7 6 6 6 7 5 4 6 4 4 6 7 5 3 5 6 5 4 4 5 4 4 4 4 4 3 4 2 3 4 2 2 2 3 4 4 4 2 2 3 3 3 2 2 2 1 2 3 2 -3 2 2 1 1 1 2 1 2 2 1 0 0 1 1 2 0 0 -2 0 -1 -2 1 0 0 -3 -2 -1 -2 1 1 1 2 1 -1 -2 0 0 0 1 2 0 0 0 1 1 0 0 1 2 1 2 2 3 2 2 3 2 2 3 1 1 1 2 2 3 4 3 6 4 3 3 4 6 4 5 3 3 5 5 4 3 5 5 4 4 4 6 5 5 4 4 5 4 4 4 5 6 7 5 6 4 3 4 4 3 5 5 3 3 3 4 2 2 2 3 3 3 2 2 2 2 2 1 2 2 1 2 2 1 -2 2 1 2 3 2 1 1 2 2 0 0 3 3 1 1 0 0 1 -1 1 2 0 0 0 1 0 -1 1 -1 0 0 -2 0 3 0 -1 -2 -1 -3 0 2 1 3 -1 -1 -1 -1 -1 -1 0 0 -1 0 1 -1 -1 1 1 0 -1 1 1 1 0 1 0 0 1 1 1 1 0 0 1 1 1 1 1 1 0 -1 1 3 1 1 1 1 0 -1 1 2 2 0 0 2 1 1 1 1 1 1 0 2 4 3 5 3 1 -1 0 1 2 3 2 4 3 1 0 2 1 1 0 2 1 0 1 1 1 0 1 1 1 1 0 0 2 1 -1 0 1 0 -1 -1 1 0 -1 0 1 0 -1 -1 -2 1 0 0 2 2 -1 -2 -1 -1 -1 -1 0 1 0 -1 0 1 0 0 -1 -1 -5 -2 7 1 0 -2 -3 -2 -2 -1 -1 2 1 0 -1 0 0 -2 0 1 0 0 -1 1 1 -1 0 0 1 -1 0 -1 1 1 -1 0 2 0 0 2 1 0 -1 1 1 1 1 2 1 -1 -1 2 2 3 1 1 2 2 0 0 2 2 1 0 2 3 0 2 2 0 -1 2 1 5 4 3 2 2 0 0 -1 2 3 3 2 1 2 0 0 3 1 0 2 2 2 0 1 2 1 1 0 3 1 0 0 1 1 0 1 0 1 0 -1 0 1 1 0 -1 2 0 -1 -2 0 0 0 1 2 0 -2 -2 0 0 -1 -2 1 0 -1 -1 1 1 -2 -3 -3 -3 -2 -1 2 2 -2 -2 -2 -2 -2 0 2 1 -1 -2 0 0 -1 0 0 0 0 0 0 1 1 0 -1 0 1 -1 0 1 1 0 2 1 1 1 0 1 2 0 0 2 3 2 1 -1 0 2 0 1 2 1 1 1 1 -1 0 2 2 1 1 1 2 2 1 1 2 1 0 2 4 3 3 2 2 0 -1 1 2 3 2 1 2 2 1 0 1 1 0 1 2 2 1 -1 1 2 1 -1 0 1 1 1 2 1 -1 
2 3 1 1 1 2 2 2 1 0 0 2 1 2 0 1 -1 0 1 2 1 1 0 0 0 0 0 1 0 1 0 0 0 0 0 0 1 1 -1 0 0 -1 1 0 0 0 -2 0 1 -5 1 -2 -3 -3 -1 0 2 2 1 0 -1 0 -1 -1 -1 1 0 0 1 1 -1 0 0 1 1 1 0 1 2 2 2 1 1 -1 2 1 1 2 0 0 2 3 2 1 1 0 1 2 2 3 3 1 0 2 2 1 2 0 1 2 1 1 1 0 1 1 2 3 1 1 3 4 2 1 0 0 2 3 4 5 2 1 0 1 3 3 3 2 2 1 3 2 1 1 1 1 1 1 1 2 1 0 1 3 1 1 -1 0 0 0 2 1 0 0 -1 2 0 -1 0 0 1 1 0 0 -1 -2 0 1 1 0 0 -1 1 -1 0 -2 -1 -1 1 0 0 2 0 -1 -2 -1 -1 0 0 1 0 1 -1 0 -1 0 0 0 0 1 0 0 0 1 2 1 1 -1 0 2 2 1 0 0 1 1 3 2 0 1 0 2 2 2 2 1 1 1 1 2 3 2 3 2 2 1 0 0 1 2 3 2 1 0 1 2 2 1 1 1 2 3 6 5 2 0 0 1 3 4 5 3 1 1 2 2 2 2 3 3 2 3 2 1 0 3 2 1 1 1 1 2 2 1 1 1 2 1 1 1 -1 0 1 2 1 1 0 -1 -2 0 1 1 1 0 0 0 0 0 1 1 0 1 1 2 0 -2 0 0 0 0 -1 -1 -3 1 2 0 -3 -3 -2 0 1 6 0 -1 -1 -1 -1 -1 0 1 0 1 1 2 0 0 0 0 1 1 1 0 1 1 2 2 1 0 2 2 1 2 2 1 1 3 3 2 0 0 1 2 3 2 2 1 1 2 1 1 1 2 2 2 2 1 1 0 2 1 0 1 1 1 6 4 3 1 0 -1 2 3 5 5 3 1 0 1 3 3 2 1 1 2 2 2 2 0 0 1 1 2 2 1 0 1 2 2 1 1 0 1 0 1 2 0 0 2 -1 2 0 -1 0 0 1 1 1 -1 0 -1 0 1 1 1 0 1 -1 1 0 0 0 -2 -1 0 -1 1 -1 -1 -2 -2 -1 -1 1 2 1 1 -1 0 -1 0 1 1 1 0 0 0 1 2 1 1 0 0 2 2 1 0 0 1 1 2 4 -1 2 0 2 3 2 3 2 1 0 1 2 2 2 2 2 3 2 2 1 0 1 2 2 2 1 0 1 1 2 1 1 0 1 4 5 4 3 1 -1 0 2 5 4 4 1 1 2 2 2 0 2 2 2 1 2 1 0 1 2 2 2 1 0 1 3 1 0 2 0 1 2 1 0 -1 -1 2 1 1 0 0 -1 0 1 1 0 1 0 1 0 2 0 1 0 1 0 0 1 -2 0 0 -1 0 0 0 -1 1 1 0 -1 -3 -3 -2 2 3 2 1 -2 -1 0 0 1 0 0 -1 1 1 0 0 -1 1 1 1 0 0 1 1 3 1 1 0 1 1 1 2 2 1 1 2 2 3 2 -1 0 2 2 3 1 2 0 0 0 1 2 2 2 0 2 2 1 2 0 0 1 3 3 3 4 4 3 1 0 0 1 3 3 3 4 2 0 0 3 2 4 2 1 1 1 1 1 0 1 0 2 2 1 2 0 0 0 3 2 1 1 -1 0 2 1 1 0 1 1 1 0 0 0 0 1 1 1 0 0 -1 -1 1 1 2 -1 -1 -1 0 1 0 -1 -2 -1 0 -1 1 1 0 -3 -3 -2 -1 -1 2 3 2 -2 0 -1 0 1 1 0 0 0 1 2 1 1 0 -1 1 3 1 1 0 0 1 2 2 3 0 1 3 2 3 2 1 1 1 1 2 0 0 1 3 4 2 1 0 -1 1 2 3 1 2 1 2 2 2 1 0 1 1 2 4 5 5 3 1 1 1 1 3 4 3 3 2 3 0 1 1 2 3 2 2 6 2 2 2 2 1 1 1 1 2 2 1 0 0 1 1 2 0 -1 -1 1 1 2 1 0 0 -1 0 1 1 -1 1 1 1 0 -1 -1 0 0 1 1 0 0 0 1 1 1 0 -1 -1 -3 2 2 1 -1 -5 -3 -1 1 2 0 0 -1 -1 -1 0 0 -1 0 -1 1 1 1 -1 0 0 1 1 1 1 0 0 2 0 1 0 3 1 1 2 1 0 1 2 3 2 0 1 0 1 3 2 2 2 2 2 1 1 2 1 1 1 2 2 2 0 1 1 2 1 2 3 4 5 4 3 0 -1 1 2 4 3 2 0 0 2 2 3 3 1 1 2 2 2 2 1 0 1 2 19 3 2 2 2 1 1 2 2 2 1 1 2 2 3 4 4 3 3 2 3 1 2 4 4 4 4 4 4 3 3 4 5 4 4 2 3 2 4 5 4 4 1 0 1 2 3 4 5 5 3 1 1 2 2 2 2 2 4 3 3 4 3 5 4 5 4 4 4 4 4 4 6 4 5 4 3 4 5 4 3 5 6 5 6 6 5 5 5 5 5 7 6 7 5 5 7 6 6 6 6 7 6 6 6 6 6 6 6 6 5 4 6 6 8 9 10 8 6 3 3 4 5 5 7 8 7 6 6 5 4 5 5 4 5 5 5 4 5 5 3 4 5 5 6 5 5 3 6 5 6 6 4 6 5 4 5 4 5 5 4 5 6 5 6 4 5 4 5 5 6 6 5 6 5 4 6 5 5 5 4 2 5 5 5 4 3 2 1 7 3 4 6 6 5 3 3 3 3 3 2 4 4 5 3 4 3 5 3 3 3 2 3 3 3 3 2 4 3 3 3 4 2 3 3 3 4 4 4 4 3 5 1 3 4 2 4 4 5 4 3 3 3 4 4 5 4 4 5 6 5 6 6 5 5 4 5 6 7 8 7 7 5 6 4 3 6 6 7 7 7 7 6 7 6 6 6 8 7 8 7 8 7 6 6 7 7 7 6 6 7 6 5 4 5 5 7 5 5 6 3 5 4 6 5 4 5 5 3 4 2 3 4 3 2 3 2 2 3 3 2 2 1 2 1 0 3 3 3 1 0 0 -1 -1 0 2 2 2 1 0 0 1 1 1 0 1 1 0 1 2 1 2 2 2 3 2 3 2 3 2 3 3 4 4 4 4 5 4 4 5 5 5 7 7 7 6 4 4 5 6 5 7 6 7 5 5 5 7 6 6 6 6 5 5 8 8 9 8 7 6 7 8 9 9 9 9 7 6 5 8 8 7 7 8 7 6 7 8 7 5 6 5 5 4 6 5 5 5 5 5 3 4 3 3 3 2 2 3 3 4 2 2 2 1 1 1 2 3 2 3 1 0 1 1 1 1 1 1 1 1 1 -1 1 3 1 1 -2 1 0 0 1 3 2 2 2 -1 0 1 2 3 2 4 3 3 2 3 3 5 3 3 4 4 5 3 4 6 4 5 3 5 5 6 6 5 5 5 6 7 5 6 5 5 6 6 6 7 8 8 6 5 6 4 6 6 6 6 5 5 4 4 5 5 4 5 4 3 6 6 8 7 8 5 3 3 3 4 5 6 7 4 5 4 5 3 4 3 4 4 4 4 4 4 3 3 4 3 3 2 4 3 2 0 2 2 3 2 2 3 3 3 2 3 3 4 3 4 3 1 1 0 2 2 2 2 1 3 1 2 2 3 3 3 2 2 1 3 2 3 3 1 0 -1 1 1 3 4 4 2 2 3 3 3 4 4 4 4 3 4 4 5 5 3 4 4 3 5 5 6 7 3 4 3 3 4 4 4 5 4 5 4 5 4 7 5 6 4 5 3 5 7 7 6 6 4 3 4 3 4 6 6 5 5 5 6 5 6 6 5 5 4 6 6 7 9 6 5 5 3 3 4 7 3 2 5 5 5 3 2 3 3 2 2 2 3 2 2 2 2 0 2 1 2 4 3 3 3 1 2 2 3 3 2 1 0 0 1 1 2 -1 3 3 1 1 2 1 1 2 1 1 2 1 0 2 1 1 0 -2 0 0 0 2 1 1 -1 -2 -1 -1 0 2 3 2 3 2 2 1 2 2 2 4 2 2 2 3 3 2 3 5 3 3 2 3 3 3 4 3 4 3 3 3 1 2 2 2 2 5 2 5 5 3 4 4 4 3 5 4 4 5 5 4 3 4 4 4 3 3 3 3 3 5 5 4 4 3 1 3 4 7 6 5 4 2 1 2 2 4 3 4 3 3 2 3 1 2 2 3 1 1 2 1 2 3 2 2 2 3 3 3 1 0 3 1 1 1 4 1 2 2 2 2 0 2 3 4 2 -1 0 2 2 1 2 2 1 0 2 1 1 0 0 1 1 -1 1 2 2 1 -2 -1 -2 -1 -1 0 2 1 0 -1 -1 0 -1 0 0 1 -1 0 1 -1 -1 1 1 1 -1 1 1 1 -1 0 1 2 1 2 2 0 0 0 2 2 1 1 1 2 0 -2 0 2 1 1 1 2 2 0 0 3 1 1 0 2 2 2 2 3 1 0 1 3 4 5 4 4 1 0 0 2 3 2 3 3 3 0 1 1 2 2 1 1 2 1 0 1 2 0 0 1 2 1 1 1 2 2 0 0 1 1 0 0 2 0 1 1 1 0 0 -2 -1 1 0 1 1 1 0 0 0 1 -1 0 1 0 1 -1 -1 2 0 0 -1 -4 -2 -3 0 2 1 -2 -2 -2 -2 0 0 3 1 -1 0 0 1 -1 -1 1 1 1 1 1 1 0 0 2 1 1 0 1 2 1 0 2 2 1 1 1 2 1 0 1 2 3 2 2 1 0 0 1 3 4 1 1 1 0 0 0 2 2 1 1 2 2 2 2 1 1 3 1 2 4 5 4 3 2 1 -1 1 3 5 2 1 2 1 2 1 2 1 2 1 3 1 0 1 1 2 0 0 2 1 0 0 1 1 1 0 0 2 0 -2 0 0 1 0 1 1 1 -1 -1 1 1 2 1 2 0 -1 -1 0 0 0 -1 0 1 0 0 1 1 -1 -3 -2 -1 -1 1 2 2 -1 -3 -2 -1 0 0 0 2 1 -1 -1 0 1 1 0 1 2 0 0 1 2 1 0 1 1 1 0 1 1 1 0 1 2 2 0 1 1 0 1 2 3 2 1 1 2 1 1 2 3 1 1 1 1 0 1 2 2 2 1 1 3 1 1 1 2 2 1 1 4 6 4 3 2 1 0 0 2 4 3 2 2 2 0 0 1 1 1 1 2 2 1 1 1 2 1 1 0 2 2 1 1 1 
0 2 0 2 1 1 1 1 2 2 1 1 1 1 1 1 -1 -1 0 1 2 2 1 0 0 -1 1 2 1 1 0 -1 1 0 0 0 0 0 0 1 1 -1 0 0 0 0 0 0 -1 -4 2 1 -1 -4 -4 -1 1 2 2 1 0 -2 -2 0 1 1 0 1 1 0 1 1 -1 0 1 2 1 0 0 0 1 2 1 1 1 0 1 2 2 2 2 2 2 2 2 2 1 1 2 2 4 2 2 1 -1 1 3 3 1 2 1 1 2 2 2 1 1 2 3 2 5 5 3 2 1 2 3 2 4 5 4 2 1 2 0 3 3 4 2 2 0 2 1 2 1 1 1 1 2 2 2 1 1 1 1 3 1 0 0 0 2 2 1 1 0 1 0 0 1 0 0 1 0 1 0 -1 -1 0 1 2 1 0 -1 -1 1 1 0 -1 -1 0 0 4 1 0 -2 -3 -2 -1 0 1 0 0 -1 0 1 0 0 0 0 2 1 1 0 0 1 1 2 2 1 1 1 2 1 1 1 1 1 2 1 1 0 1 2 4 3 2 2 0 1 2 2 3 3 1 1 2 -1 1 1 2 2 2 2 1 1 2 2 2 1 2 1 2 5 5 4 2 1 0 1 3 6 5 3 2 2 2 3 4 2 2 2 2 3 1 1 2 1 2 3 1 1 1 3 2 2 2 0 0 1 1 1 0 1 0 2 2 2 1 -1 -1 0 0 1 1 0 0 0 -1 1 0 1 0 0 1 0 1 -1 0 0 1 0 0 -2 2 3 1 -2 -2 -3 -2 -1 11 1 1 0 -1 -2 0 0 0 1 -1 0 1 1 1 1 0 0 1 2 1 1 0 2 1 2 1 0 1 -1 2 3 2 2 2 2 2 2 2 1 2 3 3 3 3 2 2 -1 1 1 2 2 1 2 1 3 1 2 1 1 1 3 2 5 4 3 3 2 1 1 3 4 5 4 3 1 0 1 3 4 2 2 2 2 3 4 2 2 1 1 2 2 3 1 1 1 2 1 2 0 0 0 0 2 1 2 1 0 -1 1 -1 0 -1 0 1 1 1 0 0 0 0 1 1 1 1 -1 0 1 0 0 -1 -2 -2 0 3 2 0 -3 -2 -2 -1 0 1 1 1 1 0 0 -1 0 -1 0 1 1 0 1 1 0 1 1 1 0 0 2 1 2 1 0 1 2 0 3 2 1 1 2 3 3 2 1 1 1 2 3 3 3 2 1 2 1 1 1 2 2 2 3 2 1 2 1 2 1 2 2 3 4 5 4 3 1 0 0 3 4 4 4 2 2 1 3 3 3 3 1 2 3 2 1 1 1 3 3 1 0 0 0 1 3 1 -1 1 1 1 1 2 0 0 0 1 0 1 0 0 -1 0 1 1 1 1 0 0 0 2 1 2 0 0 0 1 1 -1 0 -1 0 1 0 2 2 0 0 -2 -2 -2 -1 1 2 2 0 -1 -2 -1 0 1 1 0 0 0 1 2 1 0 0 1 2 1 1 1 1 1 1 1 2 1 1 1 2 3 2 2 2 2 2 1 1 0 -1 3 2 4 1 0 -1 1 2 2 2 2 1 2 1 3 2 1 1 1 2 4 6 6 5 3 1 1 2 3 3 4 4 3 2 1 1 1 3 2 2 3 0 1 1 2 1 1 0 1 2 3 2 1 0 1 2 1 1 -1 0 1 1 1 2 2 1 0 0 1 1 0 0 1 1 1 1 0 0 0 1 2 1 0 -1 0 1 1 0 0 -1 -1 -3 3 2 0 -1 -3 -3 -1 -1 1 1 2 1 1 -1 0 -1 0 1 0 0 0 1 2 1 2 0 0 1 1 3 2 2 0 1 1 3 2 1 1 2 1 3 3 2 2 2 2 1 1 1 2 2 3 2 2 2 1 1 3 2 4 1 1 2 2 2 2 2 0 1 4 4 7 6 2 1 0 1 2 3 4 3 3 3 2 2 2 1 3 3 3 12 2 1 2 3 2 2 2 1 1 1 2 1 0 0 0 2 1 2 1 1 1 2 2 2 1 -1 -1 0 1 2 2 1 0 0 0 1 0 0 -1 1 1 1 0 -1 0 0 0 0 -1 -4 2 3 2 1 -3 -3 -4 -2 1 2 2 0 -1 -1 0 1 1 0 0 -1 1 2 1 0 0 0 1 2 2 1 -1 1 2 1 1 2 1 0 1 2 2 2 3 1 3 1 1 1 0 1 1 5 3 3 2 0 1 3 3 2 1 1 1 3 3 2 1 2 2 0 4 3 6 4 3 2 1 1 1 3 5 4 3 2 0 1 2 4 2 1 0 2 2 2 3 2 2 1 18 4 4 4 4 4 3 3 3 3 3 4 4 3 3 4 5 6 5 3 3 3 4 4 5 6 4 5 4 3 4 3 5 4 4 4 3 3 3 4 4 3 1 1 0 0 0 3 3 3 4 1 1 1 2 1 2 3 2 2 1 2 2 2 3 3 2 2 4 2 4 2 4 2 4 4 3 3 3 4 3 4 5 5 6 6 5 5 6 6 7 6 7 8 8 7 8 9 8 6 8 8 8 8 8 9 7 8 8 9 8 9 10 8 10 12 11 13 12 9 8 9 9 11 10 12 11 9 8 8 9 9 9 9 8 9 8 8 8 8 8 9 8 8 7 7 6 7 8 7 7 5 6 6 6 5 4 3 5 4 5 5 5 3 3 4 4 2 4 4 4 3 4 2 1 3 4 2 3 3 2 0 1 5 4 3 2 0 -1 4 2 1 4 4 3 2 1 1 2 2 2 3 1 3 2 2 2 3 1 2 2 3 3 3 2 4 2 4 3 4 4 5 5 5 5 4 5 5 7 7 7 7 5 5 6 6 7 8 8 7 8 8 6 8 8 7 10 7 8 9 9 9 9 9 8 9 7 7 8 9 11 10 8 8 8 6 7 8 9 10 8 9 6 6 7 7 9 9 8 7 7 6 6 5 6 6 5 4 6 5 4 4 3 4 1 5 6 4 5 2 2 3 2 3 3 4 4 3 3 2 2 2 3 3 4 3 3 2 3 3 2 3 2 3 1 2 3 4 5 5 2 3 0 2 3 4 6 5 3 3 3 4 4 4 4 4 6 5 5 5 6 4 6 6 6 4 5 5 11 6 6 7 5 7 6 7 7 6 6 7 6 6 7 7 8 8 6 4 6 5 7 6 7 7 6 6 6 7 7 7 6 7 5 5 7 8 7 7 7 6 6 5 8 9 8 10 8 7 5 5 5 6 5 5 5 5 4 5 5 4 4 4 4 4 4 3 4 3 3 4 3 3 5 4 4 3 6 4 4 5 4 4 5 4 4 1 4 5 5 6 4 4 4 5 3 3 4 5 5 5 4 5 6 6 6 5 2 3 1 2 5 6 6 5 5 4 3 4 3 4 5 4 5 5 4 3 5 4 5 4 4 4 4 4 3 4 5 4 4 5 4 4 6 3 3 3 4 4 4 5 3 3 3 2 5 4 4 5 5 3 4 3 4 3 5 5 4 4 2 5 4 5 5 3 2 4 4 4 7 7 7 6 5 4 4 6 7 7 8 7 6 4 5 4 6 4 5 5 5 7 4 5 6 6 5 5 5 6 6 6 5 5 6 5 7 7 7 8 6 5 5 6 5 7 7 6 6 5 5 5 6 5 6 7 7 6 5 5 5 5 5 5 4 3 5 6 5 6 6 3 2 0 0 1 3 4 5 4 3 2 3 3 2 3 3 3 3 4 2 3 4 3 3 2 2 3 3 3 5 1 3 3 3 4 3 2 3 2 3 3 2 4 6 5 3 3 4 4 3 5 6 4 7 5 4 3 3 3 5 5 5 4 4 6 6 5 6 6 5 4 6 6 7 7 6 5 5 4 4 4 6 4 5 7 7 6 4 5 5 4 5 3 5 5 4 4 4 4 4 3 4 4 5 4 5 6 3 4 5 4 5 4 4 4 3 4 4 3 2 4 6 4 3 4 4 3 4 4 4 3 3 1 3 3 2 2 1 2 1 2 2 4 3 2 0 0 0 2 1 3 3 3 2 1 3 2 2 3 2 2 4 3 3 2 2 3 4 2 4 2 3 3 3 3 4 3 0 3 2 2 1 1 1 2 3 2 3 4 4 3 2 2 3 4 4 4 4 4 2 2 3 4 4 3 3 3 4 3 5 6 5 4 3 3 3 4 7 8 8 6 5 5 5 4 5 6 6 5 5 4 4 4 4 4 5 4 4 5 4 4 5 5 4 5 4 5 2 3 2 3 3 2 1 2 2 4 2 1 1 2 2 1 3 4 1 1 1 1 2 1 0 1 1 0 1 2 2 0 0 0 2 1 0 2 3 0 -1 -2 -1 0 1 1 2 0 -1 -1 -1 1 0 1 1 0 0 1 2 0 -1 1 1 0 0 1 1 1 -1 0 2 1 2 1 1 2 1 0 2 3 2 2 1 1 1 1 1 3 3 1 1 2 1 0 3 3 2 1 1 2 3 1 3 2 0 2 0 4 6 4 3 3 2 -1 1 3 3 4 3 4 3 2 1 2 3 3 0 2 3 1 1 1 3 2 1 1 1 1 1 2 2 1 1 0 1 1 1 1 0 1 0 0 0 0 0 -1 -1 1 1 2 0 1 0 -1 0 0 0 1 1 1 0 -1 1 1 0 -1 -4 0 -2 0 0 1 2 -1 -2 -1 -1 -1 1 1 0 -1 -1 0 1 1 0 1 2 1 0 1 2 0 0 0 2 1 1 0 2 2 0 0 2 2 1 2 2 1 1 2 3 3 3 1 2 3 0 2 3 3 3 0 0 1 1 1 2 2 2 1 2 3 2 1 1 3 1 2 3 5 6 4 2 1 0 1 0 4 3 3 1 2 3 2 1 3 2 1 3 1 2 2 1 2 2 2 0 2 2 2 0 0 2 1 1 1 1 1 0 0 1 2 2 1 2 0 -1 -2 1 2 1 0 0 1 -1 0 0 1 0 -1 0 1 1 1 0 1 -2 -2 -2 -1 1 2 2 2 -2 -2 -2 0 0 0 1 1 0 -1 -1 1 2 -1 0 2 2 -1 0 1 2 0 1 1 2 2 0 2 2 2 1 2 3 2 2 1 2 1 1 2 3 2 1 2 0 1 1 3 3 2 1 2 2 1 1 2 2 2 0 2 2 2 3 2 2 2 1 2 5 6 5 3 2 2 1 1 4 3 4 2 2 2 1 2 1 2 2 0 1 2 2 1 1 1 2 1 2 2 2 0 1 
2 1 0 3 3 3 2 2 2 1 3 2 1 1 0 2 1 2 0 0 0 2 2 2 0 -2 0 0 1 3 2 0 0 -1 0 1 1 0 0 1 2 0 0 0 -2 -1 0 0 0 -1 3 2 0 -2 -2 -3 -1 1 1 2 0 0 -1 -1 0 1 2 0 1 1 1 2 1 1 1 0 0 2 2 1 0 1 1 2 3 2 1 2 1 2 3 4 2 2 2 2 3 3 1 2 3 5 4 3 -1 -1 1 2 2 3 2 1 1 2 4 3 2 0 2 1 5 7 6 4 1 2 3 3 5 5 4 3 3 3 2 2 3 3 3 3 3 2 2 2 2 3 2 0 1 1 3 2 2 1 1 1 2 2 1 0 0 1 2 3 1 1 -1 0 0 2 1 1 -1 1 0 -1 0 0 -1 0 1 1 1 0 1 0 2 1 -1 -2 -3 4 3 1 -1 -2 -4 -2 -1 1 0 1 -1 0 0 0 0 -1 -1 1 1 1 1 0 1 0 1 1 2 0 1 0 2 3 2 1 2 1 0 2 2 3 2 2 4 2 3 1 1 1 2 3 4 2 2 2 -2 1 3 2 2 2 1 2 2 2 1 1 2 2 3 3 4 5 5 5 3 1 1 2 4 6 5 4 4 1 2 4 4 4 2 3 3 2 1 2 1 3 2 3 3 2 1 1 2 2 3 0 1 1 1 1 2 1 1 1 1 2 0 -2 -1 0 0 2 1 0 1 0 0 1 2 1 0 0 1 1 2 0 -1 -1 0 -1 -1 5 2 1 -1 -2 -2 -3 -2 -3 1 1 1 0 -1 -2 -1 1 2 0 0 1 -1 1 2 2 0 1 2 1 2 1 0 1 1 1 2 2 1 2 2 2 3 3 3 2 2 2 3 2 1 2 3 4 3 3 -1 0 1 3 3 3 2 1 2 3 3 2 1 0 2 3 4 6 5 4 2 2 2 3 4 4 5 3 3 2 2 1 3 3 4 3 2 1 1 2 3 3 2 1 2 2 3 2 2 1 1 2 2 2 1 1 0 0 2 3 1 0 0 0 2 1 0 2 1 1 1 0 0 0 0 0 1 1 1 0 0 0 1 1 -1 -1 -2 2 3 2 0 -3 -3 -3 0 1 1 1 -1 1 0 0 0 -1 1 0 0 1 0 0 -1 1 2 2 2 1 0 0 2 2 2 1 2 0 3 3 2 1 1 2 4 3 3 2 1 1 3 4 4 4 2 2 0 1 2 2 1 2 2 2 2 3 2 2 1 2 3 3 5 5 5 4 3 2 0 1 3 5 5 4 3 2 2 2 4 4 3 1 2 2 3 2 2 2 1 2 1 2 1 1 1 2 1 2 1 0 1 0 1 1 1 0 1 2 1 0 0 -1 1 2 1 2 1 0 -1 0 2 1 0 0 0 -1 1 2 0 -2 -1 -1 -2 4 2 1 0 -1 -1 -2 -1 0 1 1 1 2 0 0 -1 0 2 0 1 -1 0 0 2 2 0 1 0 2 2 2 1 1 0 1 3 2 1 2 0 1 2 3 2 3 2 1 2 2 -2 1 2 3 2 2 1 1 1 1 4 3 2 1 1 2 3 3 3 1 0 2 4 6 7 5 1 1 1 3 4 3 3 4 4 3 4 2 3 3 2 2 2 1 1 2 2 2 2 1 1 2 3 2 1 2 0 1 3 1 1 1 1 1 2 3 2 0 1 0 1 1 1 2 1 0 1 1 0 0 0 0 1 2 1 1 1 0 1 1 0 -1 -3 1 2 1 2 -1 -3 -2 0 1 0 1 0 1 0 1 -1 -1 0 1 1 2 1 0 0 2 1 1 1 0 1 2 2 2 2 0 2 2 2 2 1 1 2 3 2 3 2 1 0 1 2 2 3 2 4 2 3 0 0 2 2 2 3 2 1 2 3 3 4 2 1 3 3 6 7 5 3 1 0 1 4 4 4 3 2 2 3 3 1 3 1 3 0 4 2 2 1 2 3 3 2 1 1 1 2 2 2 2 1 0 1 1 1 0 0 1 2 2 1 0 -1 0 1 1 2 1 0 -1 -1 0 1 0 0 0 1 1 1 0 1 -1 0 -1 -4 3 1 0 2 0 -1 -3 -1 -2 0 2 2 0 -1 -1 1 0 0 0 0 0 1 2 2 1 0 -1 1 2 2 1 1 1 2 2 3 2 2 1 1 1 2 3 1 2 2 2 2 2 1 2 3 3 4 5 -1 -1 0 3 3 3 2 1 2 2 2 3 2 1 0 2 4 6 6 4 3 2 1 3 2 3 4 4 4 3 2 2 2 3 3 3 3 2 2 2 2 3 3 17 4 5 5 4 4 3 3 3 2 2 3 3 2 2 2 4 4 5 4 2 2 2 3 3 4 3 4 5 3 3 3 4 4 5 3 3 3 3 3 3 5 2 1 0 -1 0 1 2 3 3 2 1 1 -1 1 1 3 2 3 2 1 2 3 3 3 3 3 5 3 4 4 5 3 4 7 5 6 7 7 6 6 7 8 9 11 8 8 8 8 9 9 10 11 11 10 12 13 11 9 10 11 11 11 11 12 10 11 12 12 12 10 13 10 10 13 14 15 16 13 12 12 12 12 12 14 13 11 9 11 8 9 9 8 9 8 8 7 7 7 8 7 7 8 7 6 5 7 8 5 6 5 4 4 4 5 3 4 3 3 4 6 5 3 4 3 4 1 4 4 5 5 5 3 3 4 4 5 5 4 3 2 5 7 6 6 6 3 2 1 3 4 4 7 7 5 3 4 4 4 5 4 5 7 6 6 6 7 6 5 6 7 6 6 7 8 6 7 8 7 7 8 7 8 7 7 9 7 8 9 9 9 10 7 7 7 8 9 8 10 9 8 6 9 8 8 9 8 8 8 8 9 8 8 9 7 4 5 6 7 8 10 8 7 6 4 5 6 6 6 7 8 7 5 5 5 7 9 8 7 5 7 6 5 5 6 5 5 5 5 6 6 6 6 5 6 7 6 6 5 5 5 4 5 5 7 8 7 6 6 6 5 6 7 7 7 6 5 7 7 7 6 6 6 5 5 6 6 7 8 7 4 3 4 3 5 5 5 7 5 5 4 5 4 5 4 4 4 5 5 4 4 4 6 6 3 3 3 7 4 4 4 4 4 3 5 4 4 4 4 3 4 5 5 6 7 6 2 4 4 5 5 4 5 6 5 6 6 5 5 5 6 4 4 6 7 6 7 8 7 6 6 7 9 9 11 10 8 7 7 8 7 7 8 7 8 7 6 8 6 6 6 6 6 7 7 8 7 8 7 7 7 7 7 8 8 9 8 7 8 8 7 8 7 6 6 7 6 6 7 8 7 6 6 6 5 5 6 7 5 3 7 6 7 5 5 3 2 2 0 1 3 4 3 3 3 2 -1 0 2 2 3 1 2 1 2 2 2 2 2 2 1 2 3 2 2 3 2 1 2 3 4 3 3 4 3 4 4 5 5 5 5 4 4 4 5 6 6 6 7 6 6 6 4 7 9 8 8 8 7 6 8 7 8 7 7 7 7 9 10 11 12 10 9 7 7 8 9 9 10 10 10 9 8 9 9 10 9 9 10 10 9 8 9 9 9 7 8 9 9 8 10 9 9 8 8 7 8 7 6 5 5 6 6 6 8 7 6 6 5 5 5 5 7 6 6 5 5 4 5 4 4 3 2 2 2 3 3 3 3 1 -1 -1 0 2 2 3 3 4 2 2 2 2 1 2 2 3 3 2 2 2 3 2 4 2 1 2 3 5 0 2 3 3 3 4 3 6 4 5 5 4 4 6 5 5 5 5 4 5 6 8 7 9 8 6 5 6 6 8 9 8 7 7 8 8 8 9 9 7 6 8 7 8 9 10 9 10 7 6 7 8 8 9 10 11 10 7 7 7 7 6 7 7 7 5 6 5 6 6 5 5 5 6 5 5 6 5 4 5 6 6 5 5 5 3 3 3 3 4 6 6 4 4 4 2 3 3 4 4 3 2 2 3 2 3 2 1 1 0 3 2 2 4 1 1 0 -2 -1 0 1 1 2 1 -1 1 1 0 2 1 1 1 1 2 2 2 1 1 1 2 0 3 2 3 2 3 2 -1 1 4 2 3 3 2 3 4 4 3 6 5 4 6 4 5 6 5 6 6 7 4 4 5 6 6 5 5 5 5 5 7 7 7 6 7 5 5 5 8 8 9 9 7 6 7 6 7 7 6 6 7 6 6 4 5 4 6 5 5 5 4 4 4 4 4 4 3 4 4 3 6 4 2 3 4 3 2 4 5 3 2 1 2 2 2 3 4 2 1 1 2 2 2 1 2 3 2 1 3 2 1 -1 1 0 1 2 3 2 1 -3 -3 0 0 1 0 0 0 0 -1 0 0 0 0 0 1 -1 1 -1 0 -1 0 1 1 0 0 1 2 1 1 2 3 2 1 0 2 1 1 0 3 2 1 0 2 1 0 2 3 3 3 3 1 2 2 2 2 2 2 2 2 2 3 2 1 3 0 2 4 6 4 5 3 2 1 1 3 5 3 2 2 3 2 1 2 3 1 1 2 3 2 2 1 2 2 3 1 2 2 1 1 2 2 1 1 1 1 0 -1 -1 2 2 1 1 1 1 0 -1 1 1 0 1 2 0 0 0 1 1 0 0 1 1 1 1 1 0 -2 -1 -3 0 0 1 2 1 -1 -3 -1 -1 2 0 1 1 1 0 -1 0 0 0 2 2 1 -1 2 2 2 0 1 2 2 1 1 2 2 1 1 3 3 1 1 1 1 1 2 4 5 2 1 3 2 1 1 4 4 0 -1 1 3 3 2 2 3 2 2 2 4 3 2 3 2 2 2 3 6 6 5 2 2 2 2 2 3 4 4 2 2 3 2 1 3 3 2 1 3 3 2 1 1 3 1 1 1 3 1 0 1 2 3 2 1 1 1 -1 -1 1 2 1 1 1 2 -1 -1 2 2 1 -1 1 1 0 0 0 2 1 -1 0 1 1 1 -1 0 1 -3 -3 1 2 2 4 0 0 -2 -1 1 0 0 0 0 1 0 0 1 1 1 1 1 2 1 0 1 5 2 0 2 2 1 1 1 3 2 1 3 3 2 1 1 2 2 2 2 3 3 3 -2 1 3 2 3 3 3 2 1 2 3 0 1 3 1 1 2 2 6 3 1 2 2 2 3 6 6 5 3 1 3 2 2 2 5 3 2 2 3 3 2 2 3 1 1 1 2 2 1 1 1 2 1 1 3 1 0 
3 2 -1 2 2 3 3 2 2 1 2 3 2 2 1 1 2 2 2 0 0 0 2 2 1 0 0 0 0 2 2 2 1 -2 0 1 2 1 2 1 0 0 2 2 -1 -1 -1 -1 0 3 4 3 0 -1 -3 -1 -1 0 1 1 2 0 1 0 -1 0 0 2 2 1 0 0 2 2 1 1 1 3 2 2 2 1 0 1 1 3 2 1 1 3 1 3 3 4 3 2 1 3 3 2 4 2 3 5 0 1 1 1 2 3 3 3 2 2 3 2 2 2 2 2 4 7 7 7 3 1 2 2 4 6 5 5 3 2 3 4 4 3 3 4 3 3 2 2 2 2 4 2 2 1 2 2 3 2 1 1 1 1 2 1 1 0 1 2 3 3 1 0 0 1 1 2 0 1 1 0 1 2 1 0 1 1 2 1 2 1 0 1 0 0 -2 4 2 0 2 0 -1 -4 -1 0 1 3 1 1 0 0 1 1 0 1 -1 1 0 2 1 0 0 3 2 2 3 1 1 2 1 2 4 2 1 1 2 2 2 2 2 3 3 2 3 2 1 2 4 4 4 4 -2 0 2 5 3 3 1 2 3 3 3 2 1 0 2 3 3 6 6 6 3 4 3 2 3 4 6 5 5 3 3 2 3 4 4 3 3 3 2 4 3 3 1 0 3 3 2 2 1 1 3 2 1 2 2 1 0 1 1 2 1 2 2 0 1 -1 0 1 1 2 2 0 0 0 1 2 1 1 0 0 1 1 1 0 -1 -1 -2 3 2 2 1 -2 -1 -3 -1 -2 1 0 0 2 0 0 0 -1 0 2 2 1 0 1 1 3 1 2 1 0 1 1 3 1 0 0 2 2 2 3 0 1 3 3 3 4 2 1 3 2 3 2 2 4 4 4 0 1 0 3 2 3 4 2 1 2 3 4 2 2 1 2 3 6 6 6 4 1 2 2 4 5 5 4 4 4 3 2 1 2 3 4 4 3 1 1 1 3 4 3 2 3 3 2 4 3 1 1 2 2 2 2 1 0 0 2 2 3 2 0 0 0 1 3 2 0 0 1 1 2 1 1 0 1 1 2 2 0 1 2 2 1 -2 2 2 1 4 0 -1 -4 -3 -1 1 1 1 1 0 1 0 1 1 -1 1 2 2 2 1 0 0 2 3 2 2 0 1 2 2 4 2 1 2 2 2 3 3 3 2 2 2 4 2 1 1 3 3 4 5 4 -2 -1 1 2 3 2 1 2 1 3 3 2 2 1 1 2 4 5 7 5 4 4 2 2 2 3 3 5 6 2 2 2 2 3 3 2 3 2 2 3 3 3 2 2 1 4 3 3 2 2 2 3 3 3 2 0 -1 2 2 2 1 1 1 1 2 0 0 1 1 1 3 1 0 -1 0 1 2 1 1 -1 1 1 1 1 0 -2 -4 2 2 2 1 -1 -3 -2 -1 -1 1 1 1 2 1 2 0 -1 1 0 2 1 1 0 1 3 2 1 1 1 1 2 3 1 1 2 3 3 3 2 3 0 1 3 4 3 2 2 1 3 -2 1 1 2 3 3 2 2 1 2 2 2 2 2 1 1 2 2 4 2 2 1 1 6 7 7 4 1 1 2 3 5 4 3 4 2 4 3 3 3 3 3 4 2 2 1 2 1 2 3 2 2 1 3 3 2 1 1 2 1 2 1 3 0 2 2 2 2 3 0 -1 0 2 2 2 2 2 2 0 1 1 1 0 0 1 2 2 0 0 0 1 0 -1 2 1 3 2 1 -1 -2 -2 0 1 1 1 0 -1 1 0 0 0 1 0 2 2 2 0 0 0 2 2 1 3 0 1 2 2 1 2 2 2 2 3 2 1 2 3 4 3 3 0 1 1 4 2 4 3 3 3 0 1 2 2 2 2 2 2 3 2 2 3 1 1 4 2 5 6 7 5 4 2 1 2 4 5 4 4 2 2 3 3 4 2 2 1 3 4 3 2 2 1 2 3 3 2 1 2 2 3 2 3 0 1 1 2 1 1 0 2 1 3 1 0 0 0 1 2 3 1 0 0 0 1 1 3 1 0 0 0 1 1 0 1 -2 -4 1 1 1 1 0 -1 -2 -1 -1 -1 0 3 2 1 1 0 0 -1 2 1 1 1 1 1 2 2 2 1 1 3 2 2 1 0 1 2 4 3 2 2 2 3 2 4 3 3 2 3 2 3 2 3 1 4 5 0 2 1 1 1 3 3 2 2 2 3 2 4 2 1 1 1 5 7 7 5 2 0 2 4 5 4 3 4 3 4 4 1 2 2 3 3 4 2 0 2 3 4 11 2 4 4 3 4 2 2 2 2 3 4 3 3 2 1 2 5 4 5 3 4 3 5 3 4 4 5 7 5 4 5 5 5 5 5 5 5 4 4 4 6 5 4 2 1 1 3 3 5 5 3 2 3 1 3 4 4 5 4 4 3 4 4 5 5 5 5 6 4 7 4 6 4 6 7 7 7 7 8 7 8 6 8 9 10 7 8 9 8 9 7 8 8 10 10 10 13 10 8 7 10 10 8 10 10 10 9 9 11 10 9 11 8 7 9 12 13 13 12 11 9 9 8 10 10 10 9 7 8 8 7 8 7 7 7 5 7 6 6 6 6 6 6 7 6 5 10 7 8 7 6 7 7 6 8 6 5 7 5 5 7 9 7 8 9 8 5 6 6 5 6 8 6 6 7 7 7 8 8 7 5 8 10 8 7 8 5 5 3 4 4 4 7 7 7 6 6 6 6 6 5 7 6 6 6 6 7 8 5 7 6 6 6 6 6 6 6 7 5 6 5 6 4 5 5 6 5 5 5 6 6 7 4 4 3 4 5 5 7 7 5 5 5 5 5 7 6 6 5 6 7 8 7 9 7 3 4 4 6 7 9 10 9 7 6 6 7 7 8 8 9 9 8 8 7 10 10 9 11 10 8 10 9 7 9 8 8 8 7 8 8 6 9 8 9 10 10 9 8 8 7 7 6 7 8 8 8 8 7 6 6 6 6 7 6 4 5 6 5 5 6 4 4 3 3 2 4 6 6 5 5 2 2 -1 2 3 2 2 2 2 2 2 1 2 2 2 2 2 2 2 2 2 3 2 1 2 2 2 3 4 2 3 4 4 5 5 5 5 4 4 3 6 5 8 8 9 7 5 6 6 5 5 7 6 6 7 7 6 6 7 6 7 7 6 7 8 10 11 9 9 8 8 9 11 12 12 13 12 10 10 11 10 9 10 11 10 8 10 9 8 10 9 9 8 8 8 8 8 9 7 6 7 8 5 9 8 7 5 5 5 4 6 7 5 4 4 4 4 3 6 5 3 4 3 2 2 2 3 3 1 2 3 3 3 3 3 0 0 0 0 0 2 3 3 3 2 -1 -1 1 1 3 3 3 1 2 3 3 4 3 3 2 5 5 2 4 5 3 4 5 5 7 7 6 6 5 5 6 8 7 8 8 7 7 5 8 7 6 10 9 8 8 8 6 8 9 10 9 9 8 6 7 8 9 8 8 7 7 6 9 9 11 10 9 7 7 7 6 8 9 10 9 8 8 7 8 8 8 8 8 7 6 7 6 7 5 6 4 6 6 6 9 7 5 4 5 5 6 6 5 4 4 4 3 4 6 5 5 5 4 1 2 3 6 7 5 4 4 3 3 4 4 3 3 2 2 2 3 3 4 5 2 0 1 2 3 3 5 4 3 2 4 3 3 3 5 5 5 5 5 4 5 5 5 4 4 6 5 6 2 6 4 3 5 6 6 7 6 6 6 4 6 7 7 9 7 7 7 7 7 9 10 11 9 9 6 8 7 7 10 8 8 8 8 9 7 9 10 9 7 7 5 8 10 10 10 10 8 7 7 6 9 10 10 10 10 6 7 6 5 7 6 6 5 5 4 5 4 3 4 3 3 3 3 5 4 3 4 3 3 3 5 5 4 3 1 2 3 6 5 5 3 3 2 2 2 2 3 4 2 0 1 1 2 4 3 2 1 -2 3 0 2 4 3 3 0 -1 -1 -2 1 2 3 2 3 2 1 1 2 2 2 3 3 3 3 3 3 3 4 4 4 4 4 6 4 5 4 1 3 5 5 4 5 2 3 4 5 2 7 7 8 7 6 5 6 6 6 7 8 3 5 5 6 6 5 5 6 5 5 6 7 7 8 7 5 4 4 6 6 9 9 7 8 6 4 5 5 5 5 5 4 5 6 5 3 5 4 3 4 3 3 3 3 3 3 3 4 4 2 8 6 4 2 2 3 4 4 3 5 2 2 2 4 4 3 3 5 5 2 1 3 3 2 1 2 3 3 2 3 2 1 3 1 1 2 2 3 3 1 -1 0 0 2 1 1 2 0 0 -1 0 1 0 -1 2 2 0 0 1 2 0 0 1 2 0 1 2 2 1 1 2 3 2 0 1 2 1 2 2 3 3 1 1 2 1 1 2 2 3 2 1 1 3 2 2 2 2 1 1 2 4 4 1 3 2 2 4 6 7 5 3 4 2 1 1 4 4 4 2 4 3 2 2 2 2 3 2 3 4 3 2 1 2 3 1 1 3 2 1 1 2 2 1 1 3 2 0 -1 1 1 2 1 1 1 2 -1 -1 1 2 1 1 1 1 -1 1 2 2 0 -1 1 2 0 0 1 0 0 -4 -2 1 1 1 3 1 0 -2 -1 1 0 0 1 3 0 0 0 1 1 1 2 3 1 1 1 2 2 1 0 2 2 1 1 2 3 1 1 3 3 2 2 2 2 1 3 4 4 3 1 2 3 1 2 4 1 2 1 1 4 3 1 2 3 2 2 3 4 4 3 1 2 2 2 5 6 6 5 2 2 2 2 3 2 3 3 3 3 3 3 2 2 3 2 2 3 3 2 1 3 2 2 2 1 2 1 2 0 2 2 1 0 1 1 0 -1 2 3 1 0 1 0 0 0 1 2 2 2 1 1 0 1 -1 2 2 -1 0 2 2 1 0 4 -1 -4 -2 1 2 1 1 1 0 -1 -1 0 2 1 0 1 1 0 0 1 2 1 0 1 2 0 1 8 3 2 1 1 1 3 0 2 3 2 3 2 4 2 3 1 3 3 4 3 4 5 -2 -1 2 2 1 3 3 2 0 1 3 2 2 2 1 3 2 1 5 5 3 2 2 2 2 5 5 7 5 4 2 3 3 3 3 3 3 3 1 3 2 3 2 2 3 2 1 2 4 2 1 2 2 3 2 3 2 
3 3 8 3 2 2 2 3 3 2 1 1 2 3 3 2 1 1 1 1 3 2 2 2 2 0 1 -1 0 2 1 3 2 0 0 -1 1 2 1 2 0 0 0 1 1 2 -1 -2 -3 3 4 2 2 0 -2 -2 -2 -1 1 2 1 0 1 0 0 0 1 0 1 2 1 1 0 1 2 3 2 3 2 2 2 2 2 1 1 2 4 3 2 2 2 2 3 3 4 2 2 2 2 3 3 3 3 4 -2 2 2 1 2 2 2 4 4 2 3 2 3 2 3 2 2 5 7 8 6 4 2 0 3 6 6 5 4 3 4 4 5 5 3 4 3 3 3 4 1 2 2 3 4 3 2 1 2 3 3 3 2 2 1 2 1 1 2 0 1 2 2 1 0 0 -1 1 1 3 2 -1 -1 0 3 1 1 0 0 1 1 0 1 1 0 -1 0 5 2 2 0 1 0 -2 -2 -2 -1 1 2 1 0 0 -2 0 1 1 2 1 0 1 2 1 1 1 0 1 2 1 3 2 0 1 1 3 3 2 1 2 4 3 5 3 4 3 2 3 1 2 3 3 5 5 -1 1 0 2 2 4 3 2 2 3 4 3 3 2 1 2 2 6 8 7 5 3 2 2 4 5 4 5 5 4 3 3 3 3 3 4 4 3 2 3 3 4 3 2 2 3 3 3 3 2 2 3 3 3 2 2 0 1 1 2 3 2 1 0 1 -1 0 1 2 1 1 2 0 -1 0 0 1 3 1 1 1 0 1 2 0 -1 -2 3 1 3 2 0 -1 -3 -3 -2 0 0 2 0 -1 0 1 0 0 2 1 2 2 1 0 0 1 3 2 2 1 0 2 2 2 0 0 2 4 3 3 2 2 2 3 5 5 2 2 2 1 3 4 4 3 4 -1 1 1 2 2 2 2 3 2 2 2 3 2 3 2 2 0 5 6 7 6 3 2 0 3 5 7 5 4 3 2 3 6 3 3 3 4 4 3 1 2 2 1 3 3 2 3 2 2 2 3 3 2 2 2 1 1 0 0 1 1 2 3 1 1 -1 1 1 1 2 1 0 -1 1 1 2 1 1 0 0 2 1 0 -1 0 0 -1 4 1 0 1 3 2 -2 -2 -2 -1 2 3 2 1 0 -1 0 1 2 1 1 1 1 2 2 0 1 1 1 2 2 1 2 0 1 2 1 3 3 3 2 3 3 3 4 3 2 3 3 3 2 2 3 4 5 -1 1 0 1 3 4 4 2 2 3 3 3 3 1 1 2 3 4 8 6 5 4 2 3 3 6 4 5 5 3 4 4 3 2 3 3 5 3 2 2 3 3 4 3 2 2 3 3 2 1 0 1 1 2 3 1 0 0 0 1 3 2 2 1 1 0 1 1 1 1 3 2 1 0 1 1 1 1 2 1 1 0 1 1 1 1 -5 1 1 1 3 1 -1 -2 -2 -1 0 2 1 -1 -1 0 -1 0 0 0 1 2 3 2 0 1 2 2 1 1 0 1 1 3 1 2 1 3 2 2 3 2 1 2 2 3 5 3 2 2 -4 2 3 3 3 2 2 3 3 3 2 1 3 2 8 3 2 2 3 2 3 2 1 3 6 7 7 5 2 2 2 3 6 5 4 3 3 3 3 4 3 3 3 3 3 3 3 1 2 2 3 4 1 1 2 3 2 3 3 1 1 2 1 1 0 0 0 2 2 2 1 -1 0 -1 1 3 2 1 -1 0 0 2 1 0 0 0 1 2 0 1 0 -1 -1 3 1 0 1 1 0 -1 -3 -2 -1 1 3 1 0 0 0 1 0 0 0 1 2 2 2 1 1 0 2 2 2 1 1 0 2 2 2 4 3 2 3 3 3 2 2 3 4 4 3 1 1 2 3 3 5 3 3 -2 0 3 3 4 2 2 3 4 3 2 3 1 2 3 3 5 6 6 7 6 4 1 1 2 5 4 6 3 3 2 2 4 3 3 1 1 3 3 4 2 2 2 2 3 2 3 1 1 1 2 2 4 2 2 0 0 1 1 1 3 1 3 1 1 0 0 0 1 2 3 0 0 -1 0 1 1 1 1 0 0 2 2 1 -2 -4 1 0 2 3 1 -2 -1 -2 -1 0 0 1 0 1 2 0 0 0 1 -1 1 1 2 1 0 1 2 2 2 1 1 3 2 0 1 1 3 3 3 3 0 1 1 3 4 4 3 3 2 2 2 3 3 3 4 0 1 2 2 1 1 3 4 3 3 3 3 3 4 2 3 1 2 5 7 8 4 3 1 2 3 4 4 4 2 3 5 3 3 3 2 4 4 3 3 1 2 2 2 4 8 6 5 4 5 4 5 4 5 4 6 4 4 4 5 5 6 6 10 6 7 6 5 5 6 7 8 6 7 7 6 5 6 5 6 5 6 5 5 6 7 7 4 3 1 3 2 4 5 5 5 5 2 3 3 4 2 4 5 2 4 5 4 4 5 4 4 4 5 4 5 0 5 6 5 4 5 6 6 5 6 7 7 11 6 7 7 9 7 8 7 9 10 10 10 12 13 9 9 9 10 9 9 10 10 9 9 10 11 10 10 9 9 9 13 14 16 15 15 13 12 13 14 13 14 12 12 12 11 11 11 11 12 10 11 10 11 11 10 11 10 9 10 11 11 12 13 12 11 10 9 9 9 8 9 8 8 9 8 7 8 9 8 9 8 6 5 4 4 5 8 6 6 5 6 6 7 6 5 5 5 6 4 5 4 4 4 0 1 1 2 2 6 3 4 4 4 2 3 4 5 3 4 4 3 4 5 2 3 4 4 4 4 3 4 4 3 4 5 5 6 5 6 7 5 4 5 6 8 7 9 6 6 6 6 7 8 9 9 9 8 9 10 8 9 9 10 9 9 9 10 10 13 12 12 8 9 9 10 11 12 12 13 11 11 11 10 11 11 11 11 12 11 12 13 13 12 11 9 10 10 10 12 10 9 9 8 8 9 9 7 8 8 8 6 8 8 6 6 7 5 5 2 4 6 7 6 6 4 4 3 3 4 5 4 4 4 5 3 5 3 3 3 4 2 2 3 4 6 4 3 3 1 1 1 3 2 3 4 6 4 3 3 5 5 4 4 5 5 6 6 6 8 5 6 6 6 7 7 6 8 8 6 8 8 8 8 8 7 8 9 9 10 10 12 10 6 9 8 8 9 10 9 8 9 8 10 10 10 10 9 8 9 10 8 11 13 11 10 11 9 8 11 13 12 13 11 10 9 10 9 9 9 8 8 9 8 6 7 6 6 6 6 5 6 6 5 5 5 6 7 6 5 9 7 7 4 5 4 4 5 5 5 5 3 3 5 4 6 5 4 5 6 4 3 5 5 5 5 6 6 6 4 6 8 5 4 3 3 3 3 4 7 7 5 4 3 4 4 5 5 6 5 6 5 6 6 5 6 4 7 5 7 7 7 6 5 6 7 7 8 5 6 5 5 5 5 7 8 6 7 6 5 6 6 7 7 8 9 7 7 6 5 7 7 7 8 5 5 5 6 7 6 5 4 5 3 6 8 7 7 8 6 7 6 6 8 6 7 7 8 7 6 6 6 5 6 7 6 7 6 7 7 7 5 6 7 6 6 10 10 8 5 7 8 7 7 7 6 7 7 7 6 7 7 7 8 6 6 6 5 8 10 8 6 6 8 6 5 7 6 7 6 7 6 6 7 8 8 6 3 6 5 3 5 4 6 5 5 5 5 5 4 6 5 6 6 7 5 4 5 5 4 5 6 5 7 1 4 4 3 4 5 5 5 6 5 4 4 5 5 5 7 7 8 7 5 6 5 8 9 11 9 7 8 8 5 7 6 7 6 7 8 7 8 8 10 8 7 7 7 8 8 9 10 8 10 7 6 9 10 10 9 9 7 7 6 6 6 6 5 6 6 5 5 5 4 5 4 4 5 4 7 6 6 5 5 5 4 7 5 6 4 4 3 2 8 7 6 5 6 5 4 4 4 4 4 5 5 3 3 3 4 4 4 3 1 8 3 2 3 4 3 3 1 1 0 1 2 4 5 3 3 3 2 3 3 3 4 4 4 5 4 4 4 3 5 4 6 4 5 4 5 5 0 2 3 4 4 4 3 3 3 3 0 6 6 6 5 4 6 4 5 4 5 7 1 3 5 6 4 4 5 5 4 4 7 6 7 10 9 7 5 5 3 6 7 8 9 8 6 5 6 6 7 5 6 6 5 4 4 4 5 6 6 6 5 5 6 5 6 4 5 5 5 6 9 8 5 4 2 2 10 5 4 4 5 4 1 1 3 4 5 4 4 2 2 2 3 3 2 1 1 3 3 1 3 0 7 -1 0 0 4 2 2 3 1 -1 -2 0 1 0 0 1 0 0 -1 0 2 0 0 0 2 0 0 1 2 0 2 2 1 1 0 1 3 2 2 3 3 2 1 1 1 2 2 1 4 4 2 2 2 2 2 2 5 4 2 2 2 3 3 2 1 3 3 3 3 4 4 4 1 3 4 4 6 7 6 4 3 2 2 3 3 5 3 2 2 3 3 2 3 3 3 2 1 3 4 3 3 3 2 2 1 3 3 1 1 0 2 2 2 1 1 1 0 2 2 2 1 1 2 1 1 1 1 2 1 2 1 0 -1 1 2 1 0 0 1 1 2 1 -1 3 -3 -3 -2 0 2 2 1 -1 -1 -3 -1 1 1 0 2 2 1 0 0 0 2 0 1 2 2 1 2 2 2 1 2 3 2 3 0 3 3 1 3 3 3 2 0 2 2 2 3 3 4 3 1 3 3 3 2 -2 2 2 1 3 3 3 2 2 3 2 2 2 3 4 3 2 1 3 5 5 6 7 5 2 3 3 4 2 3 5 5 3 2 3 3 2 3 3 4 2 1 2 3 2 2 3 2 2 2 2 2 0 1 1 3 2 1 -1 2 1 1 2 3 3 0 0 1 1 1 0 2 2 1 1 1 1 0 0 2 0 0 0 1 2 0 3 0 -3 -3 -1 0 2 1 1 0 0 -1 -1 0 1 0 0 0 2 0 0 1 3 2 0 2 2 2 2 0 3 3 1 1 3 1 3 0 2 3 3 3 3 3 2 2 2 4 3 3 5 -2 0 1 2 2 2 2 3 2 1 1 3 4 3 2 2 3 3 2 5 5 5 2 3 4 3 5 6 6 5 4 3 2 4 4 4 4 4 3 2 3 3 3 2 2 2 2 2 2 3 2 2 3 3 2 2 2 
2 3 8 2 2 3 4 3 3 2 4 3 2 4 3 3 2 3 2 1 2 2 3 3 4 2 2 1 1 2 2 4 3 2 2 1 2 3 2 2 3 1 3 2 2 3 2 2 -1 4 3 3 4 2 1 0 -1 -1 0 1 3 2 2 1 0 1 1 1 1 2 1 2 1 2 1 2 2 2 2 2 1 2 1 1 2 2 2 2 2 1 2 2 2 2 3 3 3 2 1 1 2 4 3 4 -1 1 1 2 2 3 3 3 3 2 4 4 2 2 2 2 -1 2 5 5 5 6 3 1 1 3 4 5 5 4 3 3 3 1 3 4 4 3 2 4 3 3 3 3 4 3 4 2 4 3 3 4 3 3 3 1 2 1 2 1 2 3 5 2 1 2 1 1 1 3 3 3 2 1 1 2 2 2 1 2 3 2 3 3 2 1 1 5 2 2 3 4 2 -1 -1 -1 -1 -1 2 2 2 1 1 0 1 1 1 2 1 1 1 1 1 1 2 2 1 2 3 2 2 1 2 2 3 1 2 2 2 2 2 2 3 2 3 1 2 1 3 2 4 3 -2 1 3 2 3 3 4 2 3 2 3 3 3 3 2 2 0 2 5 6 8 6 4 2 2 3 3 4 4 3 4 4 2 3 4 3 3 3 2 4 2 3 3 2 4 2 3 4 2 3 2 3 3 1 4 3 3 2 2 1 2 3 4 3 2 1 1 0 2 3 2 3 1 2 2 3 2 3 3 1 3 2 2 2 3 1 2 3 2 2 3 3 1 1 -1 3 -1 0 1 2 2 -1 1 1 1 2 2 1 1 2 1 2 2 2 2 1 2 1 2 2 2 2 1 2 2 3 2 2 2 2 2 2 3 3 3 2 1 2 2 3 4 4 -1 1 1 2 2 4 2 3 3 2 3 2 3 2 2 2 0 2 4 6 7 6 4 1 1 2 4 4 5 4 4 2 3 2 3 4 3 3 4 2 2 3 2 4 3 3 3 2 3 4 3 3 3 2 4 2 2 1 1 1 3 2 2 2 3 1 1 1 1 4 4 2 2 1 2 2 2 2 2 1 2 1 2 4 3 2 0 5 2 2 2 3 1 0 -1 0 -1 0 2 1 2 2 1 0 1 1 1 2 2 0 1 1 2 2 2 1 0 1 2 0 1 2 1 1 3 2 3 1 2 1 3 3 1 4 3 2 2 2 2 2 2 3 -1 2 2 3 2 3 3 3 2 2 3 4 3 2 2 2 0 0 4 6 5 5 4 1 2 3 2 4 5 3 4 2 3 3 2 3 3 3 3 3 4 4 4 3 3 3 3 2 3 3 3 3 3 3 4 3 2 1 2 1 2 4 4 4 3 1 0 1 2 4 4 2 3 1 2 1 3 3 2 1 3 3 2 2 2 -1 0 2 0 1 4 4 3 1 0 -2 0 2 2 2 2 1 1 1 1 1 1 0 0 2 2 2 1 1 0 1 2 3 3 2 2 1 2 2 2 1 2 4 2 2 2 1 1 2 3 3 -3 0 1 3 4 3 3 3 3 2 3 3 3 3 4 2 2 3 3 2 2 1 0 3 3 5 6 6 3 3 2 1 3 4 4 3 4 3 3 3 3 3 3 3 2 3 4 3 3 3 3 3 2 3 3 3 3 2 4 4 3 3 2 2 4 2 2 3 4 4 3 2 0 0 2 3 3 3 2 2 1 1 2 2 2 2 2 2 2 3 2 2 2 4 0 1 3 3 2 1 -1 -2 -1 0 1 3 2 1 0 0 2 1 2 2 1 1 3 2 1 1 2 1 2 1 2 2 2 1 1 4 2 1 2 2 2 1 2 3 3 3 3 2 1 1 2 2 3 3 4 0 1 2 2 3 3 4 1 3 2 4 3 2 3 1 1 2 4 5 6 5 3 3 3 1 2 4 3 3 3 3 2 3 3 2 1 4 3 4 3 1 3 3 3 2 2 2 2 3 3 2 3 4 4 3 2 2 2 1 3 3 3 3 3 2 0 1 2 2 3 3 2 2 2 3 2 3 3 2 2 1 3 2 2 1 0 3 0 1 2 3 3 0 0 -1 -1 0 2 1 2 2 1 0 0 0 2 2 3 2 2 1 1 1 2 2 1 2 2 2 1 2 1 2 2 3 4 2 2 1 2 1 2 2 3 2 2 2 3 1 2 4 0 2 2 2 2 3 3 3 2 2 2 3 3 3 3 2 0 2 3 4 6 6 5 3 2 2 1 3 3 4 4 4 3 3 4 1 4 3 3 3 3 3 2 -8 2 4 5 4 4 4 5 5 4 4 4 5 3 3 0 2 4 4 4 11 6 4 4 3 3 3 4 5 5 5 3 4 4 4 4 5 3 3 4 4 5 7 7 5 4 2 1 1 3 2 4 4 4 3 2 3 3 3 4 2 1 4 5 4 3 2 2 4 5 5 3 3 -2 4 5 4 6 4 5 6 5 4 5 6 8 5 6 7 8 7 6 6 4 8 7 8 11 10 5 8 7 8 9 7 8 9 7 7 8 9 8 8 7 7 6 7 9 11 12 13 10 10 10 9 9 10 8 7 10 6 7 8 7 8 7 7 8 7 8 9 7 7 6 8 6 8 9 9 8 7 5 5 6 7 6 6 6 6 5 5 5 5 4 8 5 4 6 3 3 3 4 5 5 5 3 5 5 6 7 4 5 5 5 5 4 5 4 6 4 3 2 3 1 4 2 4 4 4 4 3 4 2 4 3 4 3 5 3 3 3 6 6 4 6 4 3 4 5 4 3 3 5 4 5 5 4 3 5 5 5 6 7 6 7 4 5 4 4 5 6 6 7 4 6 5 5 6 6 6 4 5 4 5 7 8 7 7 5 4 5 6 8 9 7 8 7 6 5 7 7 7 8 5 7 7 8 8 7 6 8 6 7 5 6 5 6 6 6 5 6 6 6 6 8 5 5 5 4 4 6 6 4 5 3 4 5 6 7 6 5 4 5 4 5 5 4 5 4 5 5 5 5 6 6 6 4 2 2 3 4 6 5 3 1 2 2 1 3 3 4 4 4 3 2 3 3 2 3 3 3 3 4 2 5 3 4 5 4 4 6 4 3 5 3 4 5 4 4 6 4 4 4 3 4 5 5 9 6 6 4 4 4 5 6 5 6 4 5 4 6 5 5 4 4 4 2 4 7 6 9 7 6 7 5 7 6 9 7 7 8 6 7 6 5 6 6 7 6 7 6 5 6 5 6 6 5 5 6 6 6 6 4 5 6 9 7 6 4 4 4 4 6 8 4 6 5 4 5 4 5 4 4 6 6 4 5 5 6 4 6 5 5 4 4 6 7 6 5 3 3 2 1 3 4 5 4 3 1 2 3 3 3 2 2 3 3 3 3 3 2 2 4 3 4 2 2 3 4 2 3 1 3 4 3 3 4 2 3 2 5 7 5 4 4 3 3 5 5 4 6 5 5 4 4 5 5 5 7 6 5 6 7 6 6 6 5 5 3 2 5 3 6 9 6 7 5 5 5 5 5 7 6 4 5 6 6 7 7 6 6 5 6 8 7 7 8 5 6 6 6 9 7 7 5 6 6 5 5 6 7 5 4 5 3 4 5 6 7 7 6 6 3 5 7 6 5 4 4 4 3 4 3 3 3 3 3 2 6 5 6 5 4 5 2 0 1 2 3 2 3 3 3 3 1 2 3 3 4 4 2 2 3 2 3 3 4 3 4 1 3 4 2 4 4 4 5 4 4 4 2 4 1 3 5 4 6 5 4 4 5 4 6 7 7 7 8 7 5 6 6 7 5 6 8 5 8 8 6 8 7 6 6 6 7 8 9 7 10 10 8 8 9 9 8 8 7 6 5 5 5 5 6 5 5 5 5 6 4 5 4 5 4 3 7 4 6 5 4 5 5 6 5 6 5 6 5 3 8 5 4 5 4 4 4 3 4 4 4 4 4 5 4 3 4 3 5 4 2 10 2 1 3 3 5 4 3 2 0 1 0 2 2 2 4 2 2 2 1 1 3 2 2 3 3 2 2 2 3 2 3 2 4 3 3 2 0 2 4 3 4 3 3 3 3 3 -1 4 4 5 6 5 5 2 3 4 4 5 2 4 4 4 5 5 5 5 5 4 5 5 5 7 9 7 6 5 4 3 4 5 8 8 7 5 5 5 6 4 7 6 5 6 6 4 4 5 5 5 5 5 4 5 5 5 5 4 6 6 9 6 5 4 3 2 4 4 5 4 5 4 3 2 2 2 4 5 5 3 4 3 3 3 3 2 3 3 3 4 5 2 11 3 1 -1 3 3 3 4 3 2 1 -1 1 2 3 3 2 2 2 2 1 1 2 2 2 2 1 1 2 1 2 2 2 2 2 2 1 3 3 2 3 3 3 2 2 2 2 2 3 3 3 2 2 3 2 3 3 3 3 2 3 3 2 2 2 2 2 1 2 3 3 5 2 2 2 2 2 5 6 5 4 2 2 2 2 4 3 4 3 2 3 4 4 3 3 2 1 1 2 3 3 3 2 2 2 3 3 2 2 2 2 2 4 3 2 1 2 2 2 2 3 4 3 2 2 1 1 2 4 3 2 2 1 2 2 2 2 2 1 2 3 4 3 6 -1 -2 -2 -1 1 3 4 2 1 0 0 1 1 1 2 1 2 0 2 1 1 1 2 1 3 1 1 2 2 1 2 1 1 2 0 3 1 2 1 2 2 2 2 2 1 2 3 2 4 3 2 2 2 2 2 -1 3 3 3 3 3 3 4 3 2 3 3 3 3 3 4 3 2 1 2 4 5 5 6 4 3 2 2 2 3 3 3 3 2 3 3 4 2 3 3 3 2 3 2 4 1 3 3 3 2 3 3 2 2 2 3 3 4 2 2 1 1 2 3 4 2 3 3 2 2 2 3 3 4 3 2 2 2 2 2 1 3 2 3 3 2 7 2 0 -1 -2 -1 2 2 3 1 0 1 1 -1 1 1 1 2 2 1 1 2 1 0 2 2 2 2 0 2 1 2 1 2 2 2 3 2 0 1 2 3 2 3 2 0 1 2 2 3 4 -1 2 2 2 2 3 2 3 2 2 2 2 3 3 3 2 2 2 3 3 5 7 3 1 1 3 3 4 5 6 5 4 3 2 2 2 3 3 3 3 3 3 3 3 2 2 4 3 2 2 3 3 3 3 4 2 2 
1 2 -1 2 1 2 1 1 2 0 1 2 1 1 1 1 2 3 2 1 1 1 1 2 4 2 2 1 0 1 0 3 3 2 3 1 1 2 1 2 3 2 1 2 2 2 2 2 4 5 2 2 3 3 5 2 1 -1 0 0 1 2 2 2 0 1 1 2 0 1 1 1 0 2 1 2 1 1 1 1 1 2 1 0 0 1 1 0 0 1 1 1 0 0 2 1 3 2 1 -1 -1 1 1 2 -2 0 1 0 0 2 1 2 2 1 2 2 2 1 2 0 -4 -1 -1 3 3 4 2 0 -1 0 0 2 3 3 2 2 1 1 1 2 2 2 1 2 1 1 2 1 2 1 1 1 2 1 1 1 2 2 3 2 2 1 1 0 1 3 3 3 3 2 2 0 0 3 2 3 2 2 1 0 1 2 1 2 2 1 2 3 3 2 4 6 1 1 2 2 3 3 0 1 -1 -1 0 2 2 2 3 0 1 2 1 1 1 1 2 1 0 1 2 0 1 1 1 1 0 1 1 0 1 1 1 1 1 1 0 1 2 1 1 0 0 1 0 0 1 2 -3 0 2 1 0 2 1 1 2 2 0 1 2 2 2 0 -3 -2 0 2 4 4 3 1 -1 0 1 1 3 2 1 1 3 1 1 2 2 1 1 2 1 2 2 4 2 2 1 2 2 2 2 2 1 1 4 2 3 3 1 1 1 3 3 3 3 2 1 -1 0 1 2 3 2 1 2 2 2 2 1 2 2 2 2 3 3 1 3 5 1 0 0 3 3 4 2 6 -1 -1 0 1 2 1 2 1 1 1 2 1 1 1 0 1 0 1 1 1 2 1 2 1 1 1 -1 0 1 0 1 1 1 0 1 1 1 1 2 2 0 0 0 1 1 2 -3 -1 2 1 1 1 2 1 1 0 1 2 2 2 2 0 -3 -2 0 2 4 5 3 2 0 -1 1 1 1 2 1 1 2 0 2 2 2 2 2 1 1 1 1 1 1 2 3 2 2 2 2 2 2 1 2 2 2 1 1 0 1 1 2 2 3 2 1 2 0 1 3 2 3 2 1 2 2 1 2 2 2 1 1 3 3 1 2 4 0 -1 2 3 3 4 1 0 -1 0 0 1 2 2 2 1 0 0 1 1 2 1 0 0 1 1 2 0 1 0 2 1 1 1 -1 -1 1 2 1 1 1 0 0 0 1 0 3 2 1 0 0 1 1 2 -3 1 1 1 1 1 1 2 1 1 0 1 1 2 1 1 -3 -2 -1 1 2 4 3 2 -1 0 0 1 2 1 1 1 1 1 1 0 2 1 2 1 2 3 1 1 2 2 2 1 1 2 1 2 2 2 3 2 2 1 1 0 1 2 3 3 3 1 1 1 0 2 3 2 2 2 2 2 1 2 1 1 2 3 1 1 2 2 4 5 0 -1 2 3 4 4 1 0 -1 -1 1 2 1 2 2 0 1 0 0 0 2 1 0 1 2 1 0 1 2 0 1 1 0 1 0 2 0 1 1 1 1 0 1 0 0 1 1 2 -4 -1 0 2 2 2 2 2 1 1 1 1 1 1 -1 2 0 1 2 3 3 0 -1 -1 -1 0 2 3 3 1 0 -1 0 0 1 1 2 1 3 1 2 1 2 1 1 1 1 1 1 1 1 2 1 2 2 1 2 2 2 1 2 2 3 2 1 1 1 2 2 2 3 2 1 1 0 1 2 3 2 3 2 2 3 3 2 2 2 1 2 3 4 3 4 5 0 0 1 2 4 4 3 0 0 0 1 1 2 3 1 1 1 0 0 1 1 1 1 0 1 0 1 0 2 1 2 1 1 0 -1 1 2 0 1 1 2 0 1 0 1 1 2 2 1 1 1 0 0 1 2 -2 0 1 2 1 2 2 1 2 0 0 2 1 3 -1 -2 -1 -1 1 2 4 2 2 1 0 0 0 1 1 3 2 1 1 1 0 -1 3 1 2 2 1 2 2 1 1 2 1 2 1 1 1 1 3 2 2 3 2 2 1 1 2 3 3 3 3 1 1 1 2 2 2 2 2 2 1 2 1 3 2 2 1 2 2 3 3 4 6 0 0 1 2 3 4 2 0 0 -2 2 2 1 2 2 2 0 1 0 0 1 0 1 1 0 1 1 2 2 1 2 0 1 1 -1 1 1 0 2 0 2 1 1 -1 0 0 2 1 1 1 0 -1 0 3 -2 -1 1 1 1 2 0 1 0 1 0 1 2 4 2 -1 -1 -2 -1 0 1 4 3 3 1 0 0 0 1 1 2 1 1 1 1 1 2 2 2 0 1 2 1 -20 -2 3 3 2 1 1 1 1 1 1 1 1 2 1 -1 -1 0 2 1 -3 2 2 2 1 -1 -2 -2 2 2 1 1 2 0 1 1 2 1 1 0 1 0 2 5 4 3 2 2 0 0 0 0 1 3 2 2 2 2 2 2 -1 -1 1 1 1 1 0 0 2 0 -1 0 -2 -7 -1 0 1 1 0 0 1 0 -2 0 1 2 -1 0 -1 1 -1 -1 0 -1 -2 0 -1 1 1 -2 0 -1 0 0 -1 1 3 0 -1 0 0 1 -1 3 1 -4 -1 -1 1 3 4 2 5 3 2 1 2 0 -1 1 0 0 1 0 2 1 0 0 1 2 2 2 1 1 1 2 3 3 4 3 0 2 1 1 1 1 2 2 2 3 2 1 0 1 1 2 0 3 2 1 1 1 0 1 4 0 2 1 1 2 2 1 1 1 1 1 1 -1 3 5 2 2 0 -2 -2 -1 1 1 2 1 -1 0 1 1 0 1 1 0 1 1 0 1 1 0 1 0 1 1 0 0 0 1 1 -1 1 2 1 -1 0 -2 -2 0 0 0 1 1 -1 -1 -2 -2 -3 0 -1 1 0 -2 -1 -1 1 0 -2 -2 -1 -2 -1 2 1 -1 0 0 -2 -1 0 0 0 3 2 1 0 0 0 0 0 1 2 2 3 3 0 2 1 3 1 0 0 0 0 1 1 -1 2 1 1 3 4 3 1 1 0 0 1 1 1 0 1 -1 0 1 1 1 2 3 2 1 3 1 2 1 2 2 1 2 2 4 5 7 3 1 -1 0 -1 3 1 3 3 1 -1 -1 0 0 1 0 2 1 1 -2 -1 -1 -1 -1 -1 -1 0 -1 0 -1 0 0 -1 1 0 -2 1 0 -1 -1 -2 0 -1 1 0 -1 -1 -3 0 -1 1 4 1 0 1 0 -1 -2 0 0 0 1 1 0 0 0 1 -2 -1 -1 -5 -3 -2 0 2 3 2 0 -1 -1 -1 2 1 2 2 1 1 1 1 1 0 1 1 1 1 1 1 1 1 1 2 1 2 1 1 2 -1 0 3 4 5 3 2 1 1 0 -1 1 2 3 2 1 0 0 0 0 1 2 2 2 1 2 2 1 3 2 2 0 0 0 3 4 3 3 2 0 -1 0 1 2 3 1 1 1 1 0 1 0 0 1 1 1 -1 -1 0 1 0 -1 1 0 -2 1 1 -1 -1 -1 -1 -1 0 0 -1 0 0 -4 1 0 1 0 1 -1 0 -2 -2 -1 1 -1 1 0 0 1 0 0 1 0 0 1 0 2 1 0 0 -2 -2 -4 -2 -2 0 2 1 2 0 0 1 -1 0 1 0 0 0 0 1 1 0 0 0 -1 2 1 1 3 0 2 2 1 0 4 3 3 0 1 1 1 -1 0 3 1 1 1 -1 0 -1 0 3 3 2 1 1 2 4 2 1 2 2 1 1 1 0 0 0 2 -1 0 2 0 3 3 3 7 2 0 -1 -1 -1 -3 1 1 0 1 -1 0 0 1 0 2 -1 -1 1 1 0 1 0 -1 0 -1 0 2 0 0 0 1 0 0 0 2 2 0 -2 -3 1 0 2 1 0 1 0 -1 0 1 1 2 2 2 -1 0 0 1 -1 1 1 -1 1 0 0 1 2 2 1 -1 1 -1 1 1 4 4 3 5 4 6 5 3 3 1 1 2 2 1 1 1 0 2 2 3 1 2 1 2 1 -1 1 0 3 2 1 2 1 3 2 2 3 3 2 1 6 2 2 1 1 3 2 1 2 1 1 3 4 2 0 0 2 2 4 5 3 10 1 0 -1 1 2 2 4 3 0 0 -2 1 1 0 2 0 1 1 0 1 0 0 1 0 2 0 1 0 1 0 1 0 1 0 1 -1 -2 0 0 1 2 1 0 1 2 0 -5 0 0 2 2 -1 2 0 0 -1 0 1 -3 1 0 1 2 1 0 2 1 -1 0 -1 -3 -1 3 3 3 3 1 -2 -1 0 1 3 1 1 2 2 2 0 3 2 0 2 1 1 2 1 2 2 1 1 2 1 1 2 1 1 2 3 8 4 3 2 2 1 -2 1 3 3 2 2 2 2 0 -1 1 4 3 3 3 2 1 2 2 1 1 2 2 1 3 3 12 5 2 0 1 1 2 4 4 2 2 1 0 2 2 2 3 2 3 2 2 1 2 3 2 1 2 1 1 1 2 2 1 2 2 1 0 1 1 2 1 1 3 2 0 1 1 1 1 1 2 2 1 1 0 1 2 1 2 1 1 1 1 1 1 2 1 0 1 2 2 2 2 2 -1 -1 0 1 2 4 3 2 1 0 0 1 1 2 2 1 1 3 2 1 1 1 2 1 0 1 2 2 2 1 2 2 1 1 3 0 1 2 2 2 2 2 1 1 1 1 2 4 2 2 2 1 0 0 2 4 3 2 2 2 2 2 2 1 2 0 3 3 5 8 1 1 -1 -2 0 2 3 3 3 1 1 0 0 0 2 2 1 1 1 0 1 1 1 1 1 0 1 0 1 0 1 2 0 1 -1 2 0 0 0 0 1 2 1 1 0 0 0 0 2 2 1 1 0 0 0 -4 0 1 1 1 1 2 2 2 1 1 1 0 0 0 2 2 0 0 0 0 1 2 4 3 3 1 0 1 0 1 2 2 1 1 2 1 3 1 2 2 3 2 1 2 2 0 2 2 2 0 2 2 3 3 1 2 3 2 2 2 2 2 1 2 3 2 2 1 1 1 1 2 3 3 1 2 2 2 3 2 1 2 0 1 6 9 5 1 1 -1 -1 -1 1 2 3 3 1 1 0 0 0 1 1 2 1 1 1 1 1 0 2 0 1 0 2 0 1 0 2 1 0 2 0 0 2 0 2 0 2 1 0 0 1 -1 1 3 -3 1 1 1 1 1 1 1 1 2 1 2 2 3 2 2 0 -1 0 -1 3 3 2 1 1 0 0 1 2 3 3 2 1 0 1 1 1 2 2 1 2 1 1 1 1 1 1 3 1 1 0 2 2 2 2 3 3 
1 2 -2 0 0 0 1 0 0 -1 0 1 0 1 0 1 2 2 2 1 1 1 1 2 2 2 2 2 1 1 0 1 2 2 1 2 1 1 1 2 2 1 2 1 1 2 3 3 8 9 4 1 2 2 3 4 4 2 0 -1 0 0 1 1 1 0 1 0 0 1 0 1 0 0 0 1 0 0 0 0 1 0 0 0 -1 -1 0 -1 -1 1 0 -1 -2 -2 -1 -1 0 0 0 -1 -1 -1 -1 0 -4 -2 1 0 -1 0 -1 0 0 -1 -1 0 0 0 1 -1 -4 -4 -3 -2 -1 1 1 0 -2 -2 -3 -2 0 0 0 0 0 0 -1 0 0 0 1 1 -1 1 0 0 1 0 1 0 0 1 0 1 1 0 1 3 2 1 2 -1 0 1 2 2 2 2 1 3 -1 1 2 2 2 2 2 1 1 2 1 1 2 2 1 1 3 3 7 10 2 0 1 3 3 4 3 2 0 0 -1 1 2 2 2 1 0 0 1 1 0 1 1 0 -1 1 1 0 0 0 0 0 1 0 -2 0 0 -1 -1 0 -1 0 -1 -1 -1 -1 0 1 -1 -1 -1 -1 -3 0 -6 -1 0 0 -1 0 0 0 0 0 0 -1 0 0 1 -1 -3 -4 -3 -3 -1 1 1 0 -1 -2 -3 -2 0 -1 -1 0 0 -1 0 0 0 0 0 0 1 1 0 0 1 1 1 0 0 1 0 0 3 -1 3 2 2 1 1 0 0 1 2 2 4 1 0 1 0 0 1 1 1 1 1 3 1 2 3 2 3 2 1 3 4 4 6 8 1 1 0 1 3 5 3 0 0 -2 0 0 1 0 2 1 1 1 1 1 1 0 1 1 0 1 1 0 1 0 0 0 0 0 -1 -1 -1 -1 0 0 0 0 -1 0 -2 -1 0 1 1 -1 -1 -1 0 0 -5 -1 -1 0 -1 0 -1 0 -1 0 -1 -1 -1 -1 1 -1 -3 -4 -4 -4 -2 0 0 0 0 -2 -1 -2 -1 -2 -1 -1 0 -1 0 0 1 0 0 0 0 0 0 0 1 0 0 1 1 1 0 1 1 0 2 2 2 1 2 0 0 1 1 1 2 1 2 1 0 0 1 1 3 2 2 2 1 2 2 2 2 0 0 1 3 2 6 7 2 -1 0 2 3 4 4 2 1 0 0 1 3 2 1 1 3 1 0 0 2 1 0 0 1 1 1 1 0 0 1 1 0 0 -3 -1 -1 -1 0 1 0 0 0 -1 -1 0 0 0 0 0 -1 -1 -2 -1 -4 -1 0 0 0 0 0 1 -1 0 0 0 -1 0 0 1 -3 -4 -4 -4 -2 0 1 2 -2 -1 0 -3 0 -1 0 0 1 0 0 0 0 0 0 0 0 0 1 0 0 1 1 1 0 0 1 1 1 1 3 1 2 1 0 0 0 1 3 2 3 2 1 1 0 0 1 3 2 3 2 2 1 2 2 2 2 1 2 1 3 3 7 8 3 -1 0 1 3 4 4 2 1 -1 0 0 1 2 1 1 1 0 0 0 1 0 0 1 1 0 -1 0 1 0 0 1 0 0 -2 0 -1 -1 -1 0 1 0 -1 -2 -1 -2 -1 1 -5 -1 0 0 -1 0 0 1 1 0 0 -1 -2 0 0 -1 -1 -1 -1 1 0 -3 -2 -3 -3 -3 -2 0 0 2 0 -2 -1 -4 -1 -1 0 0 0 -1 -1 -1 1 0 0 1 0 -1 0 0 0 0 0 0 1 -1 0 1 2 0 2 1 3 2 1 0 1 0 1 1 2 2 1 0 1 1 1 2 2 3 1 2 1 2 2 1 2 1 0 1 4 4 6 7 1 -1 0 -1 2 5 4 2 1 -1 0 1 1 2 1 2 1 0 0 2 0 1 1 0 0 1 0 -1 0 0 1 1 0 -1 -2 0 -1 -1 1 0 2 0 -1 -1 -2 -1 -1 0 0 1 0 -2 -2 -1 -1 -4 -1 1 -1 0 -1 -1 -1 0 0 0 0 0 0 -3 -2 -4 -3 -5 -3 0 0 0 1 -2 -1 -2 -3 -1 0 0 0 0 -1 0 -2 0 1 0 0 0 1 0 1 1 -1 0 1 0 0 2 1 2 1 1 2 1 2 0 0 2 1 2 3 4 2 1 0 0 2 1 2 2 2 1 2 1 0 2 1 1 1 3 3 4 6 8 2 0 0 0 1 4 4 2 2 -1 0 0 1 3 1 2 1 0 0 0 1 1 1 0 0 0 1 0 1 0 0 1 1 0 -3 0 -1 -2 -1 -1 0 -1 1 -2 -3 -1 0 0 0 -2 -1 -2 -2 1 -4 -2 1 1 0 0 0 0 -1 -1 -1 -1 0 1 2 -2 -2 -2 -3 -3 -2 -1 0 1 0 -1 -2 -2 -2 -1 0 0 0 -1 -1 0 1 0 0 0 0 1 0 -28 -4 -1 -1 -1 0 -1 -1 0 -2 0 -1 -3 -1 0 -3 -3 -1 -2 -3 -7 -2 -2 -1 -1 -3 -5 -4 -1 -2 -2 -2 -1 -3 -2 -1 -1 -1 -1 -2 -1 -2 -1 2 0 2 1 1 0 -2 -1 -3 -3 -1 0 0 2 1 -1 -2 0 -4 -2 -1 -2 -2 -3 -3 -1 -2 -4 -5 -8 -12 -7 -4 -5 -3 -5 -5 -4 -5 -6 -5 -5 -6 -10 -8 -9 -7 -8 -9 -8 -10 -10 -8 -11 -9 -9 -10 -9 -9 -8 -8 -10 -9 -7 -8 -9 -9 -9 -9 -12 -8 -8 -10 -9 -11 -10 -9 -8 -6 -7 -5 -6 -7 -5 -8 -8 -8 -8 -7 -6 -8 -7 -7 -7 -8 -6 -6 -6 -5 -6 -6 -5 -5 -4 -2 -3 -3 -5 -4 -5 -4 -5 -5 -4 -4 -2 -1 -2 -3 -2 -5 -3 -1 -5 -2 0 -1 -1 -2 -3 -3 -2 -2 -1 -2 -1 0 -1 -2 0 0 1 -2 -2 -4 -1 -3 0 -1 -2 -4 -3 -4 -2 -2 -1 -1 -2 -2 -3 -2 -3 -1 -4 -3 -2 -3 -3 -1 -3 -3 -2 -3 -2 -3 -2 -3 -3 -2 -3 -5 -3 -1 -2 -4 -2 -5 -6 -6 -6 -4 -3 -4 -3 -2 -6 -6 -5 -5 -4 -4 -5 -6 -5 -6 -4 -5 -6 -6 -8 -7 -7 -9 -6 -5 -4 -4 -4 -7 -6 -8 -5 -3 -3 -4 -3 -4 -5 -4 -5 -4 -3 -3 0 -2 -3 -2 -3 -4 -3 -4 -4 -3 -2 -3 -3 -3 -2 0 -3 0 0 0 -2 -2 -3 -3 -3 -1 -3 -1 -2 -3 -2 -3 -3 -3 -3 -1 -1 -2 -2 -1 -3 -1 -1 -1 -3 -1 -3 0 2 3 3 1 -1 -2 -3 -2 -1 2 -1 0 -1 -1 -2 -2 -3 -2 -2 -2 -2 -3 -3 -5 -3 -3 -3 -3 -5 -5 -4 -4 -3 -4 -5 -2 -3 -5 -3 -4 -5 -5 -7 -5 -6 -4 -5 -4 -5 -6 -6 -7 -3 -3 -5 -3 -4 -3 -5 -5 -4 -4 -5 -3 -3 -4 -5 -4 -5 -5 -3 -5 -10 -9 -8 -5 -4 -1 0 -4 -4 -4 -6 -4 -2 -4 -3 -3 -4 -5 -4 -5 -4 -3 -5 -4 -6 -4 -3 -4 -2 -2 -4 -4 -3 -2 -4 -4 -2 -3 -1 0 2 -1 -1 -3 -2 -3 -3 -3 -3 -2 0 -1 -1 -2 -2 -2 -2 -1 0 -1 -1 -1 0 0 -1 -1 0 0 -1 -1 -1 0 1 1 1 0 -1 -3 -2 -1 -1 -1 -1 0 0 -2 -1 -2 -2 -1 -2 -3 -3 -1 -3 -2 -2 -3 -1 -4 -3 -3 -3 -2 -2 -2 -4 -2 -2 -3 -1 -4 -4 -6 -3 -3 -3 -4 -4 -3 -3 -4 -4 -5 -4 -4 -3 -4 -3 -4 -5 -5 -5 -4 -5 -4 -4 -4 -4 -4 -3 -5 -5 -6 -7 -7 -6 -5 -6 -3 -3 -4 -4 -4 -4 -5 -4 -5 -6 -4 -3 -3 -5 -3 -3 -4 -2 -3 -2 -2 -4 -3 -3 -3 -3 0 -1 0 -5 -2 -1 -3 -6 -5 -4 -3 -2 -2 -3 -2 -5 -3 -2 -2 -2 -1 -1 0 0 0 -1 -2 -2 -1 -2 -2 0 -2 0 0 -2 0 0 0 1 1 1 6 2 0 -2 -3 -3 -4 -2 -1 -1 -1 -3 -1 -2 -2 -2 -1 -2 -2 0 -2 -2 -1 -2 -4 -3 -4 -2 -2 -2 -4 -3 -2 -3 -4 -4 -1 -2 -1 -6 -7 -4 -4 -1 -2 -3 -2 -1 -3 -3 -4 -4 -3 -2 -3 -5 -5 -4 -4 -4 -5 -2 -4 -5 -7 -8 -8 -5 -2 -1 -4 -5 -7 -6 -7 0 0 -2 0 0 -1 -1 6 -2 -3 -2 -3 -2 -1 -2 -2 -3 -2 -1 0 -1 1 -2 -2 -2 -3 -2 -4 0 -1 -2 0 -2 0 -2 0 0 0 1 1 5 0 -1 -3 -2 0 0 -1 1 -1 0 0 2 2 -2 -1 0 0 2 3 5 11 4 1 0 -1 0 2 2 4 2 2 -1 0 -1 0 -1 0 0 1 -1 -1 -1 -1 -1 1 -1 -1 -1 -2 -2 -1 -1 -3 0 -2 -1 -3 -3 -3 -2 -3 -2 -2 -3 -2 -1 -2 -8 -4 -3 -3 -2 -4 0 -2 -4 -3 -4 -4 -7 -3 -3 -2 -2 -3 -3 -1 -2 -4 -4 -3 -9 -6 -4 -2 -1 -1 -3 -4 -6 -6 -3 -3 -3 -4 -3 -3 -2 -4 -1 -2 -1 -2 -2 -1 -2 -3 0 -1 -1 -2 -2 0 -1 -1 -1 0 1 0 7 2 2 0 1 0 0 -2 0 -1 -1 1 1 1 0 -3 0 0 0 2 1 1 1 1 0 2 0 2 0 -1 2 3 13 6 5 2 2 0 1 2 3 4 4 2 0 3 2 2 2 2 3 3 2 0 1 1 1 1 1 2 1 1 2 1 0 1 1 2 -1 1 0 0 1 -1 1 0 1 0 -1 -1 -1 0 -1 1 0 0 -1 -1 -1 0 0 0 1 1 -1 -1 -1 0 0 -1 -1 -1 -1 -2 -1 -1 0 -2 -3 -3 -2 0 2 0 -1 -1 -2 -1 -2 0 -2 -1 0 0 0 0 1 0 0 0 0 0 0 0 0 0 1 1 1 0 1 0 1 0 2 1 3 2 1 1 0 -1 1 2 2 2 2 2 0 0 1 1 2 1 1 2 1 3 2 1 1 1 1 3 6 9 5 3 2 -1 -1 0 2 2 3 1 2 1 0 1 1 1 1 0 1 -1 1 1 1 0 1 1 0 0 1 0 0 1 -1 0 -2 1 -1 -1 -1 0 -1 0 0 0 -1 0 -1 -2 -1 0 0 1 -1 -1 -1 -6 -3 0 1 1 0 0 0 1 1 0 -1 -2 -2 -4 -1 1 0 -1 -1 -2 -3 -2 -1 1 2 -1 -1 -1 -1 -1 -1 0 0 0 0 0 1 0 0 0 0 1 1 0 0 0 0 1 0 1 2 1 1 1 1 1 2 2 3 2 2 0 1 1 1 2 2 1 2 0 1 2 1 3 2 1 2 2 2 2 3 2 1 0 5 8 5 5 4 1 0 1 0 1 2 3 2 1 2 1 -1 1 0 1 1 0 1 1 0 0 2 0 0 7 2 0 1 1 -1 -1 -2 1 0 0 0 0 -1 -1 0 -1 0 -1 -1 -1 -2 0 -5 -1 0 0 -1 0 0 -1 0 0 0 0 0 0 0 0 -2 -1 -1 -6 -4 -1 1 1 1 -1 -3 -3 -1 0 1 1 -1 -1 -1 0 -2 0 0 0 1 0 0 0 0 0 1 0 0 -1 0 1 0 1 1 2 1 
-2 -1 -2 -1 -2 -1 0 -1 0 -1 0 0 -1 0 0 -1 1 1 1 0 1 1 0 1 1 1 3 1 2 2 0 0 0 2 0 1 1 2 1 1 1 0 2 1 0 1 3 4 9 14 7 2 1 1 1 2 4 5 3 0 0 0 2 1 1 0 1 -1 0 0 0 0 0 1 0 0 0 -1 0 -1 -1 0 0 -1 -3 -2 0 -2 -2 -1 -1 -2 -3 -3 -3 -3 -2 -1 -1 -2 -3 -1 -3 -2 -6 -3 -1 -1 -1 -2 -2 -2 -1 -3 -2 -2 -2 -2 -1 -3 -5 -5 -6 -7 -5 -2 -2 -2 -2 -2 -4 -3 -3 -3 -2 -2 -1 -2 -1 -2 -1 -1 -1 0 -1 -1 0 -1 0 -1 0 -1 -1 0 -2 1 0 -1 1 1 2 0 2 0 0 0 0 0 2 2 1 6 -1 0 1 1 1 2 2 1 1 2 1 1 1 1 0 2 2 3 8 13 4 1 -1 1 1 3 4 5 2 0 0 1 2 2 1 0 1 1 0 0 1 0 1 0 0 1 0 0 -1 -1 0 0 0 -1 -1 -1 -1 -3 -3 -1 0 -2 -1 -2 -2 -3 -2 -2 -1 -2 -2 -3 -2 -2 -8 -2 -2 -1 -2 -1 -1 -1 -1 -1 -2 -2 -2 -3 -2 -2 -5 -5 -5 -6 -5 -4 -3 -1 -2 -2 -2 -4 -2 -3 -2 -2 -1 -2 -1 -1 -2 -1 -2 -2 -1 -1 -2 -1 -1 0 0 -1 -1 0 1 -1 0 -1 2 2 2 1 2 0 0 0 -1 1 2 2 0 1 1 0 1 1 1 1 1 2 1 2 1 2 2 1 1 1 2 3 8 11 6 1 0 1 1 3 4 1 3 0 0 0 0 1 1 2 2 0 0 0 0 0 0 0 -1 0 0 -1 1 -1 0 -1 0 -1 -4 -1 -1 -1 -1 -2 -1 -2 -2 -4 -3 -3 -2 -1 -1 -1 -2 -4 -3 -3 -6 -2 -1 -1 -2 -1 -1 -1 -1 -2 -2 -3 -2 -2 -2 -2 -5 -4 -7 -6 -5 -3 -2 -2 -2 -1 -2 -4 -3 -4 -2 -3 -2 -3 -1 -2 -1 -1 0 -1 -1 -1 -1 -1 0 -1 0 -1 -1 -1 -1 0 1 0 2 0 2 -1 1 1 0 1 1 0 2 1 2 1 0 0 1 1 1 2 1 1 2 2 0 2 2 1 0 0 1 2 9 12 5 2 1 0 0 3 5 4 3 1 1 1 1 2 1 1 2 0 -1 0 1 0 0 -1 0 0 0 -1 0 0 0 -1 0 -1 -4 -3 -2 -2 -2 -1 0 -1 0 -3 -2 -3 -1 -2 0 -1 -1 -1 -3 -3 -7 -3 -2 -1 -1 -1 -2 -1 -2 -1 -1 -2 -3 -2 0 -2 -3 -4 -5 -6 -6 -4 -3 -2 -3 -2 -1 -4 -3 -4 -1 -3 -2 -2 -1 -2 -1 -1 -1 0 -1 -1 -1 0 -1 0 0 0 -1 0 0 1 0 1 2 0 1 0 0 0 1 1 0 1 2 2 1 2 1 -1 1 1 2 2 3 1 2 1 2 1 2 2 2 1 2 3 9 9 4 2 0 -1 1 3 4 3 2 0 1 1 0 2 1 1 1 0 0 -1 0 -1 -1 1 0 0 -1 -1 -1 -1 0 -1 -1 -1 -3 -1 -1 -3 -2 -2 0 -2 -1 -3 -4 -1 -3 -1 -7 -2 -2 -1 -2 -2 -3 -1 0 -2 0 -2 -2 -1 7 -2 -3 -3 -2 -2 -2 -6 -5 -3 -4 -5 -5 -4 -3 -1 -1 -3 -2 -4 -3 -4 -3 -3 -2 -3 -2 -3 0 -1 -1 -2 -1 -1 -1 -1 -1 -1 -1 -1 -1 0 -1 0 0 0 0 0 1 2 3 1 1 1 0 1 2 1 1 1 1 0 1 0 2 2 2 2 2 2 1 3 2 1 1 1 1 4 8 10 5 3 1 -1 0 3 5 4 3 0 0 1 1 1 0 2 0 0 0 0 0 0 0 0 -1 0 1 -1 0 -2 0 -1 0 -1 -4 0 -2 -5 -1 -2 -1 -1 -1 -2 -2 -3 -3 -2 -2 0 -1 -2 -2 -4 -4 -7 -3 -1 -1 -1 -1 0 -2 -1 -2 -2 -1 -3 -3 -4 -3 -3 -4 -6 -5 -4 -5 -2 -1 -2 -2 -3 -3 -3 -2 -1 -2 -1 -2 -3 -3 -1 -1 -1 -1 -1 -1 -1 0 0 -1 -1 -1 -1 -1 1 0 1 1 1 1 1 2 0 1 0 0 1 2 2 3 2 1 1 0 1 1 1 2 3 2 1 2 2 2 1 2 1 2 4 9 11 6 3 1 -1 0 2 4 3 2 0 0 0 0 3 1 1 1 0 0 0 0 0 0 0 -1 0 -1 0 -1 -1 -1 -1 -1 -2 -2 -1 -2 -3 -1 -2 0 -1 -1 -3 -3 -3 -2 -3 -1 -2 -1 -2 -3 -2 -7 -3 -1 0 -2 -1 -2 -1 -2 -1 -2 -2 -2 -2 -3 -5 -3 -2 -4 -6 -4 -5 -3 -3 0 -2 -2 -3 -4 -3 -3 -1 -2 -2 -1 -2 0 0 -1 -1 0 -1 -2 -34 -9 -3 -3 -3 -3 -3 -2 -2 -3 -1 -3 -5 -4 -4 -7 -4 -2 -3 -4 0 -5 -5 -5 -4 -6 -7 -5 -3 -5 -4 -6 -3 -5 -4 -4 -3 -3 -3 -2 -2 -4 0 -2 -3 -2 -1 1 -1 -1 -3 -5 -4 -3 -4 -3 -1 -1 -3 -2 -3 -7 -5 -4 -4 -5 -6 -6 -3 -6 -5 -7 -12 -15 -9 -7 -5 -4 -8 -6 -6 -9 -10 -10 -9 -8 -13 -12 -13 -11 -14 -14 -11 -12 -11 -11 -16 -15 -16 -15 -15 -15 -13 -13 -16 -12 -11 -12 -13 -12 -13 -16 -18 -14 -12 -14 -13 -15 -14 -14 -12 -14 -13 -8 -8 -9 -7 -10 -10 -11 -11 -10 -9 -10 -9 -8 -10 -8 -9 -7 -9 -6 -8 -7 -8 -7 -6 -6 -5 -5 -7 -6 -6 -6 -7 -8 -6 -6 -5 -4 -3 -3 -3 -6 -6 -5 -10 -5 -4 -5 -4 -4 -6 -5 -5 -5 -6 -5 -4 -5 -5 -4 -2 3 0 -3 -5 -6 -5 -6 -2 -2 -2 -4 -7 -7 -5 -5 -4 -6 -6 -4 -6 -5 -7 -5 -8 -7 -7 -7 -6 -6 -8 -6 -7 -7 -6 -7 -7 -8 -8 -7 -8 -9 -9 -7 -8 -8 -7 -9 -11 -12 -12 -10 -9 -10 -9 -9 -9 -11 -9 -10 -10 -9 -10 -11 -9 -11 -9 -10 -9 -11 -12 -12 -14 -16 -14 -13 -10 -7 -9 -10 -11 -14 -13 -10 -10 -9 -10 -12 -9 -9 -11 -9 -9 -9 -7 -7 -9 -9 -9 -8 -8 -8 -8 -7 -7 -8 -7 -8 -6 -5 -8 -4 -4 -4 -5 -6 -8 -7 -7 -6 -6 -4 -4 -4 -4 -5 -6 -5 -6 -4 -5 -4 -6 -6 -5 -5 -4 -4 -4 -5 -5 -4 -3 2 1 -1 -1 -3 -5 -4 -5 -3 -3 -3 -3 -4 -4 -4 -4 -4 -5 -5 -5 -5 -5 -5 -5 -6 -6 -6 -7 -6 -7 -6 -7 -6 -5 -5 -6 -8 -6 -7 -8 -7 -8 -8 -8 -8 -9 -7 -8 -9 -9 -11 -7 -9 -9 -9 -7 -7 -8 -9 -8 -9 -9 -8 -9 -10 -10 -9 -10 -9 -8 -7 -13 -13 -13 -13 -11 -8 -8 -8 -8 -8 -7 -8 -9 -9 -8 -10 -7 -8 -9 -9 -7 -9 -8 -8 -9 -7 -9 -8 -8 -8 -7 -8 -6 -7 -8 -6 -7 -6 -6 -4 -5 -6 -6 -5 -6 -5 -4 -7 -6 -7 -4 -3 -4 -4 -3 -5 -5 -3 -3 -4 -3 -4 -3 -2 -5 -2 -1 -2 -2 -3 -2 -3 -2 -1 1 0 -2 -1 -4 -3 -3 -6 -3 -2 -3 -3 -3 -3 -4 -4 -4 -5 -4 -4 -5 -5 -5 -5 -4 -6 -5 -6 -6 -5 -6 -6 -9 -7 -7 -8 -6 -8 -6 -7 -7 -7 -8 -8 -7 -7 -6 -7 -8 -8 -8 -9 -7 -9 -8 -8 -8 -10 -9 -7 -9 -8 -8 -10 -9 -9 -9 -11 -10 -10 -10 -11 -12 -12 -12 -10 -8 -9 -9 -9 -11 -10 -10 -10 -9 -8 -8 -8 -8 -7 -8 -8 -8 -7 -7 -7 -7 -8 -8 -7 -7 -5 -5 -5 -8 -6 -4 -6 -9 -9 -7 -7 -6 -6 -4 -6 -8 -5 -6 -5 -4 -5 -3 -3 -3 -4 -5 -5 -5 -4 -6 -5 -4 -5 -3 -1 -2 2 -1 0 -2 -2 -1 3 1 0 -1 -3 -5 -7 -6 -5 -4 -4 -5 -4 -5 -4 -4 -2 -5 -5 -4 -4 -4 -4 -4 -6 -6 -8 -5 -3 -4 -7 -7 -6 -8 -8 -9 -6 -5 -5 -9 -11 -7 -9 -8 -7 -8 -8 -8 -8 -8 -10 -10 -8 -7 -7 -10 -9 -9 -10 -8 -9 -7 -8 -8 -10 -15 -14 -11 -9 -5 -8 -8 -11 -12 -13 -7 -6 -7 -6 -5 -6 -7 -6 -6 -7 -7 -5 -5 -6 -5 -5 -6 -6 -4 -3 -4 -4 -4 -5 -6 -7 -4 -9 -5 -3 -4 -4 -4 -2 -5 -4 -4 -3 -2 -1 4 -1 -3 -6 -3 -3 -3 -2 -2 -1 0 -1 1 0 -4 -2 -2 -2 0 2 4 11 4 4 -1 -1 -3 -2 0 2 1 1 -1 -1 -1 -1 -2 -1 -1 -1 -1 -3 -3 -3 -2 -2 -2 -2 -3 -5 -3 -4 -3 -5 -3 -3 -4 -5 -5 -4 -3 -4 -3 -5 -6 -4 -4 -4 -12 -5 -6 -7 -6 -8 -4 -6 -6 -6 -7 -8 -10 -7 -7 -5 -6 -6 -8 -6 -7 -7 -5 -6 -12 -10 -10 -10 -7 -6 -5 -7 -8 -9 -8 -7 -8 -8 -7 -5 -4 -7 -4 -5 -5 -4 -4 -4 -5 -6 -4 -3 -3 -6 -2 -3 -4 -4 -4 -2 -2 -1 5 0 -2 -2 0 -3 5 -3 -4 -3 -3 0 0 -1 -2 -3 -1 -2 -2 0 0 -1 0 0 -1 0 0 1 1 -1 1 1 11 6 4 4 3 1 -1 0 1 3 4 3 3 3 2 3 1 2 3 2 1 0 1 1 1 1 1 1 1 -1 0 1 0 1 0 0 -3 0 0 -1 0 -1 -1 0 0 0 -1 -2 -3 -2 -2 -2 -1 0 -1 -2 -2 -2 -2 -1 -1 -1 -2 -2 -2 -2 -1 -2 -2 -2 -3 -7 -4 -2 -1 -2 -4 -6 -6 -5 -2 -2 -1 -1 -4 -3 -3 -3 -3 -2 -3 -1 -1 -1 0 -2 -1 -1 -1 -1 0 -1 0 -1 -1 0 1 0 1 1 1 0 1 1 1 1 2 1 1 -1 0 0 2 0 2 2 0 0 1 0 1 1 2 1 2 2 2 1 2 2 1 1 8 9 5 5 3 1 1 1 0 1 2 1 2 2 1 0 1 1 1 0 0 0 0 0 0 0 0 0 0 -1 0 -1 -1 -1 -2 -1 -3 0 -1 -2 -1 -2 -2 -2 -2 -1 -2 -2 -2 -3 -2 -2 -2 -1 -1 -2 -2 -8 -4 -2 -1 -1 -1 -1 -1 -2 -2 -1 -2 -3 -3 -9 -6 -4 -2 -2 -1 -4 -5 -6 -4 -3 -1 -2 -2 -3 -3 -2 -3 -1 -2 -2 0 -1 -2 -1 -1 -1 -1 -1 0 -1 -1 -1 -1 0 0 0 1 0 3 1 0 -1 0 0 2 2 2 1 1 1 0 0 1 2 2 1 1 1 1 1 1 1 1 2 2 2 3 2 1 3 4 8 4 4 6 4 2 2 0 0 0 1 1 3 1 1 0 1 0 1 0 0 0 -1 0 0 0 0 0 -2 0 -1 0 1 -1 -2 -3 0 -2 -2 -1 -2 -2 -3 -2 -2 -2 -1 -2 -3 -3 -3 -8 -3 -1 0 -1 -2 -2 -2 -2 0 -2 -1 -2 -2 -1 -1 -1 -2 -2 -9 -7 -5 -4 -2 0 -1 -4 -5 -4 -3 -2 -2 -4 -3 -2 -2 -3 -2 -2 -1 -1 -1 -1 -2 -1 -1 -1 0 -1 -1 0 -1 -1 0 0 2 0 
-3 -1 -3 -2 -3 -2 -1 -2 -1 -2 -1 -2 -3 -1 0 -1 0 -2 -1 -2 0 0 1 -1 -2 -2 1 0 0 0 -1 -1 0 0 -1 -1 0 0 0 1 0 -1 0 -1 -1 0 0 0 6 15 8 4 1 -1 -2 1 3 5 4 0 -1 -2 0 0 1 0 0 -1 0 0 -1 0 -2 -1 -1 0 -1 0 -1 -1 -1 0 0 -2 -3 -4 -1 -3 -2 -1 -1 -1 -3 -2 -2 -3 -2 -3 -2 -2 -1 -2 -5 -6 -10 -4 -2 -1 -2 -3 -3 -3 -2 -2 -3 -4 -4 -5 -3 -3 -6 -4 -5 -6 -6 -5 -4 -4 -3 -2 -2 -3 -3 -5 -5 -3 -1 -2 -2 -2 -3 -3 -2 -1 -2 -2 -2 -2 -1 -1 -1 -3 -2 -1 0 0 0 -3 -1 -1 1 -1 1 -2 -2 0 -1 -1 0 1 -1 0 -1 0 0 -1 -1 -1 1 0 0 0 -1 0 0 0 0 0 0 -1 7 13 6 1 0 -1 -1 2 3 4 1 0 -1 1 2 1 0 0 2 1 1 -1 -2 -2 0 -1 0 0 -1 -2 -1 -1 0 0 -2 -2 -3 -2 -1 -3 -3 -2 -1 -2 -1 -2 -3 -4 -3 -2 -1 -1 -1 -3 -3 -3 -9 -4 -3 -3 -3 -2 -1 -2 -3 -2 -3 -3 -2 -3 -4 -4 -7 -3 -4 -5 -5 -5 -5 -3 -3 -2 -2 -5 -4 -4 -2 -3 -2 -4 -2 -2 -1 -2 -2 -2 -2 -1 -1 -2 -1 -2 -1 -1 -1 -2 -1 -2 -1 -1 1 -1 0 -2 0 0 0 -1 -2 -2 -1 0 2 0 -1 -2 -1 0 0 0 0 0 0 1 1 1 0 -1 -2 0 2 0 8 10 4 3 0 0 -2 1 2 2 4 1 0 -1 2 0 1 0 0 -1 -1 0 0 -1 -1 -1 -1 0 0 -1 -1 -2 0 0 -1 -2 -5 -2 -3 -1 -2 -1 -1 -3 -1 -1 -2 -2 -4 -3 -3 -1 -1 -2 -4 -7 -9 -4 -3 -1 -2 -3 -2 -2 -2 -2 -3 -4 -4 -3 -2 -3 -5 -5 -4 -6 -5 -5 -5 -5 -3 -2 0 -3 -4 -6 -4 -3 -1 -3 -2 -2 -2 -1 -1 -2 -3 -3 -3 -2 -1 -1 -2 -2 -2 -1 -1 0 0 -2 0 -1 1 -2 0 -1 -1 -1 0 -1 0 -1 0 0 0 1 -1 -1 -1 0 0 1 1 0 -1 0 0 0 -1 -1 0 1 13 12 6 2 0 -1 -1 1 2 1 2 0 1 1 0 0 0 0 2 0 0 -2 -2 -1 -1 0 -1 -1 -2 -2 0 -1 -1 -1 -2 -2 -3 -2 -2 -2 -3 -3 -1 -1 -1 -3 -5 -4 -3 -3 -1 -2 -2 -4 -3 -5 -9 -4 -4 -3 -3 -2 -2 -2 -3 -3 -3 -3 -3 -3 -3 -6 -4 -3 -3 -5 -6 -6 -7 -3 -2 -1 -3 -5 -3 -4 -3 -3 -3 -3 -3 -3 -1 -2 -3 -2 -3 -1 -1 -1 -3 -2 -2 -1 -2 -1 -2 -1 -1 0 1 0 -1 -1 0 -1 0 0 -1 -1 -1 0 1 1 0 -1 0 -1 0 1 0 0 -1 0 0 1 1 0 -2 -1 1 2 10 9 5 3 2 1 0 1 1 2 3 1 1 0 0 0 0 1 1 -1 -1 -2 1 -1 -1 -2 -1 0 -1 -1 -1 -2 -1 -1 -1 -2 -3 -2 -3 -4 -2 -2 0 -2 -2 -2 -3 -3 -4 -6 -10 -3 -2 0 -2 -3 -4 -2 -2 -2 -1 -3 -3 -2 -4 -2 -2 -3 -4 -4 -3 -7 -5 -3 -3 -7 -5 -6 -5 -4 -3 -2 -2 -4 -3 -5 -4 -4 -2 -1 -2 -3 -2 -3 -2 -2 -2 -3 -3 -2 -1 -1 -2 -2 -2 -2 -1 1 0 -2 -1 -2 0 1 1 -1 -1 0 -1 0 -1 -1 -1 -1 0 0 0 0 -1 -1 0 1 0 0 -1 0 0 1 0 -1 0 0 11 12 6 2 1 -2 -1 2 1 1 2 1 1 2 0 0 -1 1 0 1 -1 -2 -1 0 0 -1 -1 -2 -1 -2 0 -1 -1 -2 -2 -1 -2 0 -2 -4 -3 -2 -1 -2 -1 -3 -3 -2 -3 -2 -3 -1 -2 -2 -2 -4 -8 -9 -5 -2 -2 -2 -2 -3 -3 -1 -2 -2 -3 -5 -5 -6 -3 -2 -2 -5 -6 -6 -6 -4 -2 -2 -2 -5 -3 -3 -3 -3 -4 -2 -2 -2 -3 -2 -2 -2 -1 -1 -1 -2 -2 -2 -1 -1 -1 -1 -2 -1 -1 1 0 -1 -1 -1 1 0 1 0 -2 -1 -1 0 0 0 0 -1 -1 -1 -1 -1 0 -1 0 1 1 1 0 -1 0 0 0 2 10 10 5 4 2 -1 -2 0 2 2 2 1 0 -1 -1 0 1 1 -1 -1 -1 -2 0 0 -1 -1 -1 -1 0 0 -2 -2 -1 0 -1 -2 -3 -2 -3 -3 -1 -2 -1 -2 -1 -2 -2 -3 -2 -5 -2 -2 0 -2 -5 -7 -9 -5 -2 -2 -3 -3 -3 -3 -2 -2 -3 -4 -3 -3 -4 -6 -3 -3 -3 -4 -5 -5 -6 -5 -2 -1 -1 -2 -4 -5 -4 -2 -1 -2 -2 -4 -3 -3 -2 -2 -3 -3 -4 -40 -8 -3 -2 -4 -4 -3 -3 -2 -3 -2 -1 -6 -6 -4 -7 -5 -3 -3 -3 -9 -4 -6 -4 -4 -7 -7 -4 -2 -5 -6 -6 -4 -5 -5 -4 -3 -4 -3 -3 -3 -3 0 -2 -4 -5 -3 -1 -2 -1 -3 -5 -4 -5 -5 -5 -2 -2 -4 -3 -4 -7 -6 -5 -6 -6 -7 -6 -5 -6 -9 -9 -17 -18 -10 -8 -7 -8 -10 -9 -9 -11 -12 -15 -13 -11 -15 -14 -16 -13 -16 -15 -13 -14 -11 -11 -19 -19 -19 -17 -16 -16 -14 -13 -17 -14 -12 -13 -14 -12 -14 -15 -21 -16 -14 -17 -14 -15 -15 -14 -14 -15 -16 -11 -10 -12 -6 -9 -11 -9 -10 -9 -9 -10 -8 -7 -8 -9 -8 -7 -8 -7 -8 -7 -7 -7 -5 -6 -6 -3 -6 -5 -4 -5 -6 -6 -5 -7 -5 -5 -4 -4 -4 -6 -6 -8 -10 -6 -6 -6 -6 -6 -6 -7 -8 -7 -8 -6 -6 -8 -9 -6 -5 -1 0 -3 -5 -8 -8 -8 -7 -6 -4 -6 -7 -8 -7 -6 -7 -7 -7 -6 -7 -6 -7 -9 -10 -11 -11 -10 -9 -9 -9 -9 -9 -9 -9 -8 -8 -9 -8 -7 -9 -11 -9 -8 -9 -8 -8 -9 -9 -13 -12 -12 -10 -10 -9 -9 -8 -9 -10 -9 -9 -9 -9 -10 -8 -9 -8 -9 -9 -9 -8 -9 -12 -16 -14 -12 -10 -8 -7 -9 -9 -11 -11 -10 -10 -8 -9 -8 -9 -9 -9 -8 -8 -8 -7 -7 -8 -7 -8 -7 -7 -8 -8 -7 -8 -8 -8 -9 -7 -8 -9 -7 -7 -6 -7 -5 -6 -9 -9 -9 -9 -7 -7 -7 -6 -7 -8 -8 -9 -8 -7 -7 -7 -7 -7 -7 -6 -6 -7 -6 -7 -7 -6 0 -1 1 -2 -2 -3 -5 -5 -5 -5 -3 -4 -3 -3 -4 -4 -4 -3 -4 -5 -4 -4 -5 -4 -4 -4 -5 -4 -7 -6 -6 -5 -5 -5 -4 -4 -7 -4 -5 -7 -5 -6 -7 -10 -7 -7 -7 -5 -8 -7 -10 -9 -9 -9 -9 -7 -7 -8 -7 -7 -8 -8 -8 -7 -7 -9 -7 -8 -9 -9 -7 -11 -11 -14 -15 -15 -12 -11 -11 -11 -9 -10 -10 -11 -11 -11 -13 -11 -10 -10 -9 -10 -9 -9 -10 -9 -10 -9 -9 -9 -10 -9 -9 -9 -9 -9 -8 -8 -8 -7 -6 -6 -5 -6 -7 -6 -6 -6 -7 -6 -7 -6 -6 -5 -4 -4 -4 -5 -5 -5 -4 -4 -4 -4 -4 -5 -3 -1 0 -1 -1 0 -2 -2 -1 1 -1 0 0 -1 -2 -3 -4 -3 -2 -1 -1 -1 -2 -3 -4 -3 -3 -2 -3 -4 -4 -3 -4 -4 -4 -4 -5 -4 -6 -6 -7 -11 -8 -9 -9 -8 -9 -7 -9 -7 -9 -9 -10 -10 -8 -9 -9 -9 -10 -10 -10 -11 -11 -12 -12 -10 -12 -12 -12 -11 -10 -10 -10 -12 -12 -13 -15 -12 -11 -10 -11 -13 -12 -13 -12 -10 -10 -8 -10 -11 -10 -11 -10 -11 -9 -9 -10 -9 -8 -9 -9 -9 -7 -8 -7 -9 -9 -8 -8 -8 -6 -7 -3 -8 -4 -4 -5 -8 -8 -7 -6 -6 -4 -5 -5 -5 -6 -4 -5 -4 -4 -4 -2 -2 -2 -2 -4 -3 -3 -4 -3 -2 -2 -2 1 0 3 3 0 -1 -2 -3 4 1 1 -1 -2 -4 -6 -5 -3 -4 -3 -4 -4 -4 -4 -4 -3 -4 -6 -4 -4 -4 -5 -5 -9 -9 -10 -6 -5 -6 -7 -8 -7 -9 -9 -10 -6 -8 -6 -9 -11 -9 -10 -8 -9 -10 -13 -11 -12 -11 -11 -10 -11 -10 -12 -13 -12 -12 -12 -11 -11 -8 -10 -11 -13 -16 -14 -14 -10 -7 -10 -11 -12 -13 -15 -8 -9 -10 -8 -7 -9 -10 -11 -7 -7 -8 -7 -6 -7 -6 -6 -7 -6 -5 -4 -5 -5 -6 -5 -7 -8 -6 -9 -5 -3 -5 -3 -4 -2 -5 -3 -5 -3 -3 -3 5 0 -3 -4 -3 -3 -2 -2 -3 -2 -1 0 1 -1 -4 -3 -2 -4 0 1 2 13 5 2 1 0 -3 -2 -1 1 0 0 -1 -1 0 -1 -3 -2 -2 -2 -2 -2 -3 -3 -2 -2 -3 -2 -4 -5 -4 -4 -4 -5 -2 -5 -5 -10 -8 -6 -4 -4 -5 -6 -8 -6 -4 -5 -12 -6 -7 -7 -7 -9 -6 -7 -6 -7 -9 -12 -14 -10 -9 -7 -7 -8 -8 -8 -9 -8 -7 -6 -11 -11 -10 -12 -10 -8 -7 -8 -7 -8 -7 -8 -9 -8 -8 -6 -5 -6 -5 -6 -6 -6 -4 -5 -6 -6 -3 -4 -4 -5 -5 -4 -4 -4 -5 -4 -5 -2 7 0 -1 -3 -2 -5 -6 -3 -4 -5 -4 -2 -2 -3 -3 -4 -2 -3 -3 -1 -1 -3 -2 -1 -3 -4 -3 1 0 -2 -1 -2 11 2 1 3 5 0 -2 -1 -1 0 1 1 2 3 0 0 1 1 0 0 1 -2 -1 0 1 0 -2 -1 0 -1 -1 0 0 0 -2 -2 -4 0 -2 -3 -1 -3 -3 -2 -1 -1 -2 -2 -2 -2 -4 -2 -3 0 -2 -4 -2 -2 -2 -4 -3 -2 -2 -2 -3 -2 -1 -2 -2 -3 -4 -8 -7 -3 -3 -2 -3 -4 -6 -7 -5 -3 -2 -3 -3 -2 -3 -2 -5 -3 -2 -2 -3 -1 -1 -3 -2 -2 -1 -2 -2 -1 -2 -2 -2 -1 -1 -1 0 -1 0 0 -1 -2 -1 -1 1 0 -1 0 -1 -2 -1 0 0 -1 0 0 -1 -1 0 0 1 0 0 1 0 0 1 2 0 -1 7 7 2 3 3 3 2 1 -1 0 0 0 2 2 1 -1 -1 0 0 -1 -2 -1 0 -1 -1 -1 0 -1 -1 -2 -1 -1 -1 -1 -1 -1 -4 -1 -1 -3 -2 -2 -2 -3 -3 -2 -2 -1 -3 -3 -2 -2 -5 -2 -1 -1 -5 -10 -5 -3 -3 -3 -2 -2 -3 -2 -2 -2 -2 -4 -4 -10 -8 -6 -4 -2 0 -3 -5 -5 -5 -5 -3 -2 -2 -3 -4 -4 -3 -2 -4 -1 0 -2 -2 -2 -1 -1 -3 -2 -1 -1 -3 -2 -1 -2 -2 -1 0 -1 1 -1 -1 -1 -1 -3 0 1 1 0 1 -1 -1 -1 0 0 1 -1 0 0 0 0 0 0 0 -2 0 0 1 1 1 5 5 6 3 2 3 3 3 3 0 0 -2 0 0 1 1 1 0 0 -1 0 1 -2 -1 0 0 -2 -1 -1 0 -3 -1 -2 0 -1 -3 -2 -3 0 -3 -2 -1 -2 -4 -4 -2 -3 -3 -2 -1 -2 -5 -6 -9 -4 -3 -1 -1 -3 -3 -3 -2 -2 -3 -2 -2 -2 -4 -2 -3 -2 -2 -9 -7 -6 -7 -5 -1 0 -3 -5 -4 -4 -4 -3 -3 -2 -3 -3 -3 -3 -3 -3 -2 -2 -2 -3 -2 -2 -1 -2 -2 -2 -1 -2 -3 0 0 -1 -2 
668 668 670 669 670 670 671 672 672 673 673 673 674 674 676 677 678 681 681 682 681 682 681 682 683 684 684 685 685 684 685 685 685 686 686 686 686 686 687 687 688 688 688 689 689 689 690 691 693 705 729 736 738 739 738 736 736 736 735 734 732 731 731 731 731 729 729 729 727 726 725 724 724 723 723 722 722 721 720 720 719 719 719 719 718 713 714 713 712 711 711 711 711 711 710 710 709 709 709 709 708 708 708 707 686 675 671 670 670 669 669 669 669 669 668 668 668 668 666 666 660 654 652 652 653 654 655 656 655 656 657 660 660 661 661 661 662 662 663 664 665 667 668 668 669 669 670 671 671 672 672 673 673 673 674 674 676 678 678 681 681 682 681 683 682 682 683 684 684 684 685 685 685 684 685 686 686 686 686 687 687 687 687 688 688 689 689 689 689 691 694 720 734 738 739 738 737 736 737 736 736 734 732 730 730 730 730 729 729 728 727 726 725 724 723 724 723 722 721 721 720 720 719 719 719 719 717 713 714 713 712 711 711 711 710 711 710 710 709 709 709 709 708 709 708 707 687 675 671 670 670 669 669 669 669 668 668 668 668 667 666 665 659 654 652 652 652 654 656 656 655 656 658 660 660 661 661 661 662 662 663 664 665 667 668 668 669 669 670 671 671 672 672 673 673 673 673 675 677 677 678 681 681 681 681 682 682 682 683 684 684 685 685 685 685 685 685 686 686 686 686 686 687 687 687 687 688 689 689 689 689 691 696 723 735 738 739 738 736 736 737 737 735 734 731 730 731 731 730 729 729 728 727 726 725 724 723 723 723 722 721 721 720 720 719 719 719 719 717 713 714 713 711 711 711 711 710 711 710 710 709 708 708 708 708 708 708 707 686 675 672 670 670 669 669 669 669 669 668 668 668 667 666 665 658 654 653 652 653 654 655 656 655 656 657 660 661 661 661 662 662 663 663 664 665 667 668 669 669 669 670 671 671 672 672 673 673 673 674 674 677 677 679 681 681 682 682 682 682 683 683 684 684 685 685 685 685 685 685 686 686 686 686 686 686 686 687 687 688 689 689 689 690 691 697 724 735 738 738 738 737 736 736 736 735 733 731 730 731 730 730 729 729 728 727 726 724 724 724 723 723 722 721 721 720 720 719 719 719 718 716 714 713 712 711 711 711 711 710 711 710 709 709 709 708 708 708 708 708 707 686 675 672 670 670 669 669 669 669 668 668 668 668 667 666 664 657 654 652 652 653 655 656 655 656 656 658 660 660 661 661 662 662 662 663 665 665 667 668 669 669 669 670 671 672 672 672 673 673 673 674 675 677 677 679 681 682 681 682 682 682 682 683 683 684 685 685 685 685 685 685 685 686 686 686 686 687 687 687 688 688 688 689 689 690 691 698 725 735 738 738 737 736 736 736 736 735 733 731 730 731 730 730 729 729 728 727 726 724 724 724 723 723 722 722 721 720 720 719 719 719 719 716 713 714 713 711 711 711 711 711 711 710 710 709 708 689 676 673 671 671 671 671 670 670 670 669 670 669 669 670 668 668 668 667 667 666 664 657 653 652 652 653 655 656 655 656 657 659 660 661 661 661 662 662 662 664 665 666 668 668 669 669 670 670 671 672 672 673 673 673 673 674 675 677 678 680 681 681 681 682 682 682 682 683 683 684 685 685 685 685 685 685 685 686 686 686 686 687 687 687 687 688 689 689 689 690 691 699 725 736 738 738 738 736 736 736 736 735 733 731 730 731 730 730 729 729 728 727 725 724 723 723 723 723 722 721 721 720 720 719 719 719 719 715 713 714 712 711 711 711 711 711 711 710 710 710 709 709 708 708 709 708 708 705 684 674 670 670 669 669 669 669 668 668 668 667 667 666 663 656 653 652 653 653 655 656 656 656 657 659 660 661 661 661 661 663 662 664 665 667 667 668 669 669 670 670 671 672 672 673 673 673 673 674 675 677 677 680 681 681 681 682 682 682 682 683 683 684 684 685 685 685 685 686 686 686 686 686 687 686 687 687 687 688 689 688 689 690 692 700 725 736 738 738 738 736 736 736 736 735 733 731 731 731 730 729 729 729 728 727 726 724 723 723 723 723 722 721 720 720 720 719 719 719 718 714 713 714 712 711 711 711 710 711 711 710 710 709 709 708 709 708 709 708 706 685 675 671 670 670 669 669 669 669 668 668 668 667 666 666 662 656 653 652 652 653 655 655 656 656 657 659 660 661 661 661 661 662 663 664 665 666 667 668 669 669 669 669 651 602 599 602 605 606 607 608 610 612 613 615 614 610 607 603 598 598 600 602 601 594 595 595 595 595 590 587 590 595 597 595 595 596 595 596 599 601 602 602 603 604 606 613 618 617 617 618 618 617 617 613 611 611 610 610 611 612 613 612 613 610 606 603 602 600 599 597 596 597 594 590 583 554 540 537 538 540 540 537 536 534 527 521 514 507 496 489 484 478 476 470 466 462 460 464 463 456 444 432 426 422 420 418 418 414 416 416 416 415 415 412 408 402 400 397 392 387 381 377 379 380 380 379 385 389 391 400 404 406 409 410 412 414 415 418 420 422 423 425 428 429 431 431 432 434 436 443 449 457 465 469 473 477 479 480 482 484 485 488 491 493 495 496 497 499 498 496 497 499 500 500 500 500 500 500 500 499 500 501 502 503 505 509 521 529 534 534 535 536 534 535 534 532 530 528 527 527 527 527 526 525 525 523 522 520 518 513 507 501 497 494 492 490 487 485 484 482 481 480 476 474 473 470 468 466 467 465 464 461 457 453 442 434 429 425 422 420 418 416 414 412 411 409 409 408 406 406 404 403 402 401 398 396 394 387 374 368 364 362 362 362 361 361 360 361 363 364 364 364 365 366 367 369 370 372 379 384 390 396 400 404 408 411 413 414 417 420 421 423 425 430 433 436 443 449 455 461 465 468 470 471 473 474 477 478 478 479 480 482 484 485 486 488 489 490 492 493 493 495 497 498 500 501 504 516 527 533 537 539 540 540 541 541 542 541 539 537 536 536 535 534 533 533 532 530 528 525 523 521 520 519 517 515 509 503 499 497 494 492 490 486 482 481 477 473 471 470 467 465 464 461 459 457 454 451 444 440 436 433 430 428 427 424 422 421 419 417 416 416 415 413 413 413 411 409 405 398 393 390 385 383 384 383 381 380 380 382 384 386 389 391 392 394 396 399 402 404 406 410 412 413 415 417 418 420 421 423 424 425 427 428 431 433 436 442 449 458 464 469 471 474 476 478 480 483 484 486 487 489 490 492 494 495 497 499 500 501 502 503 505 508 511 516 522 526 532 539 543 546 548 549 549 548 548 548 548 548 545 543 543 543 542 541 541 539 536 535 533 531 530 529 527 526 525 524 523 522 521 519 517 514 506 497 494 489 485 482 480 478 476 475 473 472 469 467 466 465 463 461 459 459 458 458 457 454 451 449 443 438 435 431 429 429 429 426 424 419 411 407 404 403 403 403 404 403 402 403 405 408 409 408 409 409 410 410 413 415 418 419 422 423 424 425 428 430 433 433 433 435 437 442 448 455 461 462 467 472 474 473 475 476 478 480 481 483 486 488 491 495 497 499 501 504 507 513 521 526 528 529 531 531 533 536 539 541 545 546 552 559 563 567 569 574 585 591 594 594 594 590 587 586 587 588 587 585 585 584 585 588 589 589 588 589 589 589 587 585 580 565 557 555 554 551 545 541 539 537 533 533 535 535 533 526 522 523 524 525 525 521 518 517 513 509 503 502 503 503 498 494 493 493 492 491 492 493 494 492 489 482 481 480 483 487 488 488 488 486 490 497 500 503 508 513 514 516 521 527 529 533 535 538 540 542 544 545 548 552 555 556 556 556 554 551 549 545 544 548 551 552 553 555 558 559 562 563 565 568 574 591 597 599 599 600 601 603 605 607 609 612 617 622 622 616 617 617 620 625 629 646 667 674 676 678 678 676 677 677 678 678 675 672 671 672 671 668 667 667 665 664 662 661 660 659 660 660 658 656 653 653 652 649 649 650 649 645 627 616 612 612 610 609 605 602 601 602 595 589 590 590 590 588 588 587 588 588 586 583 565 555 551 548 549 550 549 548 547 545 546 544 539 534 532 533 534 534 535 535 534 535 536 539 540 540 540 540 542 543 544 548 550 552 555 556 555 554 556 559 562 563 563 563 563 563 564 564 565 568 581 601 608 611 613 614 614 612 611 612 613 614 616 617 617 616 615 619 622 624 626 626 627 629 630 628 629 630 632 633 633 634 654 675 681 684 688 691 691 691 691 690 690 689 689 690 695 695 695 694 694 693 692 691 688 688 687 687 687 686 685 685 684 683 683 682 682 682 679 676 677 675 674 674 675 674 674 674 673 672 672 672 672 671 672 671 671 671 670 670 670 670 669 669 669 669 669 668 668 668 667 666 666 663 657 653 652 652 653 655 655 655 655 657 659 660 661 660 661 661 663 663 664 664 666 667 668 669 669 669 670 671 672 672 673 673 673 673 674 675 676 678 680 681 681 681 682 682 682 683 684 684 684 684 684 685 685 685 686 686 686 686 686 687 687 687 687 687 688 689 688 689 690 691 699 725 736 738 739 738 735 735 736 736 735 733 731 730 731 730 729 729 729 728 727 726 724 723 723 723 722 722 721 721 720 720 719 719 719 718 715 713 714 712 711 711 712 711 711 711 710 709 709 709 708 708 709 708 708 708 707 687 675 671 670 669 669 669 668 668 668 668 667 667 666 662 656 653 653 653 653 655 655 655 656 657 659 660 661 661 661 662 662 662 664 665 666 668 668 669 669 669 670 671 672 672 673 673 673 674 675 676 677 678 680 681 682 681 682 682 682 683 683 684 684 684 685 685 685 685 685 686 686 686 686 686 687 687 687 688 688 689 688 689 690 692 699 724 736 739 738 737 736 736 736 735 735 732 731 731 731 730 730 729 729 727 726 725 724 723 723 723 722 722 721 721 719 720 719 719 719 718 714 713 714 712 711 711 711 711 711 711 710 710 709 709 709 707 687 676 672 671 671 670 670 670 670 669 669 669 668 668 668 668 668 667 665 661 655 653 653 653 653 655 655 655 656 657 660 660 661 661 661 662 662 663 664 665 667 668 668 669 669 670 670 671 672 673 673 673 673 673 674 676 678 
